word,dim_0,dim_1,dim_2,dim_3,dim_4,dim_5,dim_6,dim_7,dim_8,dim_9,dim_10,dim_11,dim_12,dim_13,dim_14,dim_15,dim_16,dim_17,dim_18,dim_19,dim_20,dim_21,dim_22,dim_23,dim_24,dim_25,dim_26,dim_27,dim_28,dim_29,dim_30,dim_31,dim_32,dim_33,dim_34,dim_35,dim_36,dim_37,dim_38,dim_39,dim_40,dim_41,dim_42,dim_43,dim_44,dim_45,dim_46,dim_47,dim_48,dim_49
the,-0.6155203,0.058660693,-0.14435738,0.53365844,-0.8439264,0.102365844,-0.111654386,-0.10979091,-1.2789745,1.3842038,-0.4451023,0.100766316,-2.0944104,0.26053956,0.662397,1.7252758,-0.541018,1.0997498,2.3480628,-0.60814136,0.9576673,-0.41334167,0.14686447,0.8340078,0.3090938,-0.3317346,0.38820088,-0.6316992,-1.1856058,-0.4015184,0.7477141,0.18656702,0.77260613,-0.7760835,0.27481946,-0.3282488,-0.06666091,-0.7639642,-0.91281456,1.0780071,-0.25097185,0.40397823,0.10077571,0.790015,0.87442803,0.7882504,-0.846307,0.08198542,0.8342282,-0.97442997
of,-0.34478036,0.12632713,-0.26797011,0.13151492,0.63438344,-0.34159273,0.59872156,-1.3520818,-1.8346261,0.8216437,0.7280795,1.559148,-0.23405024,-0.6997827,0.21428998,1.8186535,1.6721803,-0.6838801,1.1432776,-0.649871,0.9876401,0.121716864,-0.34277928,-0.6201701,0.7978842,-1.3366066,0.99604404,1.2680241,-1.4579412,-0.65663916,0.4879923,-0.06195651,0.4485306,-2.148998,-0.15822394,-0.77381927,0.9244023,-0.4112256,-0.11791341,-0.35233167,-0.9826482,-0.81487113,0.5634852,-0.40865645,-0.55916643,0.3989779,-0.24240513,-0.86345077,0.010085389,-0.8090102
and,0.32512218,-0.95776623,0.47830093,-0.0019074903,-0.006607362,0.5179107,-0.3358354,-1.2970827,-0.36694816,-0.043812044,0.41253778,0.06385662,-0.05127972,0.164225,0.7686327,0.68067956,-0.43565476,-0.5895967,-0.010421223,0.17064601,0.16863823,-0.73441565,0.5493142,-1.4768882,-0.010148903,-0.659321,-0.07504083,1.1263748,-0.6426141,-0.33508366,1.1000022,0.02971451,-0.012575305,-0.104699776,-0.106627755,-0.118183605,0.62911886,1.441393,-0.18699606,0.74985963,0.03914179,-0.67666775,-0.3846098,0.7099668,-0.77518755,0.7217951,-0.18367656,-1.2745825,-0.38035238,1.681111
one,1.2675679,-0.12380995,0.10615405,-2.4098468,-1.4979095,2.3724174,0.5589365,1.659521,3.086606,-1.8912473,-0.23032923,0.83102,0.74049455,0.031678353,1.4141897,1.1766542,0.22103262,-1.1931608,1.3522285,-0.91554517,0.9483644,-1.2165221,2.8758798,1.5915004,-1.3400096,-0.39721873,-0.62666076,-3.1726322,0.34741062,0.4808992,-2.0713446,-2.453384,1.6113607,-0.79293054,0.21638618,0.4876295,1.0165966,0.50372887,-1.3909166,-0.55302304,-0.42725956,0.19926058,0.42241666,-0.42487875,-1.2783568,0.090357006,3.8092275,-3.2472172,-1.3717781,-2.5446343
in,0.54666525,0.6116629,1.4201622,-1.0779072,1.4029304,0.36168954,-1.7493578,0.14579205,-0.3646873,0.67270374,0.72041065,1.2001343,-0.225688,-0.16889477,1.6871548,-0.054013092,1.3395095,-1.1281062,1.5158409,0.23086387,-0.17176081,-0.37885946,0.5035747,0.19115907,-0.091388434,-0.21740915,-0.05751393,1.4557695,0.07602098,0.5062753,-1.7652426,-1.077471,-0.51536095,-1.389102,1.0013144,-0.4656924,0.8181828,1.3173537,-0.9495226,-0.87808484,-1.4399354,0.14445975,0.048081566,-0.013940349,-1.6114649,-1.548396,0.4502784,-0.74637794,-0.024374988,-1.3081666
a,-1.3186835,-0.26527482,-0.9691924,-1.5665113,-1.0986016,-0.2781689,0.029699368,-0.68895644,-2.871796,0.35506046,0.17199907,-1.8118957,-1.4705892,-1.0086641,-1.3508089,-0.42030853,-0.14003143,1.7891846,1.5654479,1.8956047,-0.7339478,0.93620634,1.1509721,2.1697967,-0.47252026,0.9905853,0.9778272,-1.7685307,0.37100318,-0.7129606,1.333666,1.0033894,-0.9642675,-0.7012303,0.6399601,-0.68234,-0.5254748,-0.6452484,-0.085107006,-0.11940453,-0.47535533,1.2591101,1.69456,1.9162381,0.71840847,2.060717,-1.8577467,-0.18342604,1.2763453,-1.4290949
to,-0.95970607,0.45160595,2.017895,-1.9239645,1.7056986,-0.27486846,-1.8805422,0.10703509,-0.12035186,1.6335402,1.0698948,2.0829554,-1.5115883,-0.19066444,1.7295228,-0.6100824,-0.5771645,0.42781407,-0.0061385557,2.1689997,-1.683879,-2.7012002,1.2017152,1.2848551,-0.1841535,-2.0787635,2.655348,3.571965,-0.51397574,0.0878947,1.146732,1.613159,-2.3812695,0.46490407,3.3249516,2.580935,-0.82052493,0.22352915,2.9002771,1.4589218,2.89176,0.08731658,2.2101655,-0.7304674,1.6405421,1.0449415,-0.62972367,-0.19539711,-0.69331145,2.614123
zero,3.061706,0.50609756,-0.21107964,-2.2831864,-2.4637756,1.0782621,0.8413664,3.1669965,2.6250787,-4.0781574,-0.15266605,1.4697561,2.6681561,1.0493523,0.85213184,1.1445618,0.658806,0.31190345,1.1556127,-0.42472953,1.6404161,-0.7619779,1.1096153,1.6432184,-0.72670394,-1.0356138,0.6934133,-2.4582129,0.08778821,0.8155236,-3.2987938,0.12065328,1.2308398,0.14236534,-0.8975314,0.45893076,0.5248701,0.9681093,-2.5526924,-1.8948702,0.28566223,1.4771839,0.6297318,-1.9092592,-1.5008383,0.31005526,4.4784274,-1.9024445,-0.60308963,-1.0520842
nine,2.236274,-0.2689749,-1.1082525,-2.4634178,-1.0913179,1.8645266,0.2190493,1.548453,4.0561085,-3.1477077,0.23722054,0.40855128,0.12918778,0.8714331,1.3812141,0.343358,-1.1981505,-1.3805608,0.69128495,-1.476123,0.4254632,-1.3704128,3.8853095,2.1199298,-2.0581214,-1.6824987,-1.3798943,-2.91224,-0.64091796,1.2487311,-2.033753,-3.321435,1.2188895,-1.562048,0.36338106,-0.24665174,0.96591794,0.521223,-0.68904364,0.10281877,0.5016409,0.4072341,-0.34192625,-0.59057206,-1.4677168,-0.7024996,4.3991885,-4.6082926,-1.4593533,-2.902781
two,1.1412853,0.16224755,-0.3692396,-1.7104973,-1.5239841,1.7893342,1.2451451,2.5969424,2.2897272,-3.0134323,-0.5577159,0.9141206,2.6832714,1.6018133,0.45790675,1.7238029,0.74636126,0.3178836,1.2519217,-0.19501069,1.9037461,-0.6169478,2.4725897,0.83786064,-1.090594,-0.67403597,0.30765724,-1.864203,1.5128548,1.0773197,-2.4669712,-0.45741338,0.9770198,0.045764826,-0.46894988,0.1273662,0.7540965,0.61667633,-1.8255681,-0.7511712,-0.19683728,0.40622655,0.8955288,-0.8345682,-1.061765,-0.0055326447,3.938458,-1.7726159,-1.2844001,-1.6339604
is,-0.7389496,0.62249935,0.4691332,-0.32189742,1.9486,-2.684631,1.901119,-0.00056916225,-2.135595,-2.1734667,0.27251118,-3.9209435,1.1063039,-3.3727326,-2.534614,-2.533326,-0.80960834,-0.52356386,0.65960413,1.83708,-0.83006805,1.143159,-4.056605,0.23721407,1.8067003,0.020374404,0.33953738,-3.353436,1.4696327,-0.56663764,-0.16218229,-1.1471453,-2.0042057,-3.7029707,0.019692177,-0.77063674,-1.4251168,-3.147683,0.4665146,0.96189517,-1.7366562,-0.53909886,-2.4141119,-2.737519,3.1057541,-2.789874,-0.87888443,5.420136,-0.4632677,-2.0517561
as,-1.6161424,-1.4556533,2.914602,3.1983275,1.1785208,0.57819784,-0.24401541,-4.750751,-0.13203706,0.64387244,0.48835665,-0.4383624,1.5287286,-1.5535632,-1.6852515,0.35606152,-0.50457764,1.4210163,1.1357874,0.9921748,-1.6833602,1.4201595,0.089102305,0.16043957,-0.060030073,2.1205688,0.24411233,1.9786087,0.64970493,-0.44179177,0.7309166,1.5274208,1.2757006,-3.3639746,-0.042025704,-0.18763557,-1.0801313,3.3278892,-0.0043492024,-0.31983656,0.13656242,2.0263638,-1.7445048,-1.7531499,-1.2180382,0.66856754,0.46209097,2.1896038,-0.14563745,-0.95584446
eight,2.0412493,-0.58842564,-0.5073541,-2.558208,-1.1887115,2.7771072,0.15565938,1.928231,4.5235376,-2.3624988,0.24355991,0.3273455,1.0409379,0.40564227,0.6805656,1.0440608,-0.58415556,-1.567389,1.3070246,-0.9614483,0.44326073,-1.8660322,3.7351332,1.894264,-1.4103881,-1.2491252,-0.5322361,-2.7420049,0.2722283,0.44978482,-1.8631324,-3.1337101,1.4772363,-1.0971116,-0.10221027,0.0892284,2.0036764,0.80200684,-0.91954285,-0.6467274,-0.18749191,0.0034547998,-0.08043768,-0.5608465,-0.68728054,0.26228458,3.7523687,-3.3755622,-1.1605039,-2.603762
for,-0.5331773,-0.90039253,-0.43247026,1.4727333,-0.018385233,-1.8223777,-1.7228777,-2.1040506,-1.5760634,0.72138804,-0.71004736,0.4305416,2.4142034,-1.864895,1.2511555,0.2577962,1.58735,-0.76316404,-0.34323648,0.7182636,1.2174693,-0.026130477,0.08994841,0.8765456,1.1782885,1.2197927,0.11531992,1.5474634,0.4052309,-0.823133,0.37979144,0.9113437,-1.7499999,1.018524,2.709334,-1.6788615,0.21770471,0.17033413,0.8785332,-1.450862,0.10214829,-1.683114,2.0346117,-2.1292858,-1.3773187,1.3708812,-1.1267018,-0.2770551,-0.46291783,-1.1317018
s,1.5932685,-0.44066602,-0.36147743,0.2443743,-0.27034923,0.4786831,1.2686782,-1.2036207,-0.9242774,-2.5876532,0.38457003,1.4081367,-2.9238186,1.1481483,1.3286502,1.5836297,-0.80069745,-0.7687527,1.2946295,-2.6252298,0.33177924,-0.22107936,0.54153377,2.2342646,-1.0990105,-0.35129777,-0.70926595,-0.3319808,-1.7114688,1.0028464,0.6421986,0.15537877,1.4385793,-2.9865549,0.73230547,0.23435129,-0.9332543,-0.31444082,-0.80534583,-1.2573057,-0.7750578,0.2569142,-1.2880396,1.8208041,1.1108254,1.2063345,1.428123,-1.6063759,-0.6678986,-1.6888039
five,1.9147319,-0.35093835,-0.47396514,-2.184484,-1.9543949,2.3833277,0.5965918,2.5389628,3.3011482,-2.8785164,-0.08252465,0.69454056,2.27955,0.44279176,0.9566909,1.2307246,0.49959522,-0.6182714,1.4011905,-0.5233358,1.4892582,-1.768159,2.665934,1.5863324,-1.2944534,-0.9718063,0.26105377,-2.7229216,0.6987305,-0.124996305,-1.709551,-1.5692072,1.1735601,-0.1484919,-0.7593251,0.4358097,1.7876774,1.1917588,-1.679915,-1.1851286,0.029689375,0.3141138,0.76579136,-0.9966907,-0.7632368,0.13837017,3.43032,-2.3246126,-1.0885085,-1.9412926
three,1.2771652,-0.40038207,-0.26895106,-2.012173,-1.6120304,2.3952348,0.6308412,1.9280317,2.90376,-2.6105943,-0.24016435,0.70002383,2.3933623,1.0145544,0.6203298,1.4943054,0.73283297,-0.5175268,1.1234503,-0.21370034,1.5262887,-1.2221991,2.850179,0.8892559,-1.1808753,-0.3911333,0.28002736,-2.4684753,1.2256821,0.15229005,-1.6449566,-1.3326169,1.0788196,0.03306886,-0.6279108,0.21736206,2.2908196,1.1470172,-1.2193228,-0.6038203,-0.10163504,0.24835387,0.984464,-0.54215974,-0.6588634,-0.10383842,3.6175563,-2.238954,-0.6443025,-1.8508332
was,1.0540835,1.7208176,-0.10911867,-0.560754,-0.62069666,-2.2070277,0.13169186,-0.087713465,0.49607483,-1.1671367,1.4405124,-2.0687635,-1.3649641,-4.377308,-2.1936436,-2.716461,-3.532253,-0.6923531,0.41026074,0.3665584,-3.7190251,-4.3257565,0.23452385,4.212792,-0.31487238,0.34110907,1.0469075,-3.0252752,-1.2793398,-0.23312746,-1.596885,-3.033123,1.0779213,-3.527842,1.5687655,-1.5768478,-1.2074336,-4.1079893,-0.54191566,0.54344684,-2.4818482,-2.634366,-3.174613,-0.9796247,0.033480763,-3.5089076,1.891794,4.910814,-0.8905328,-2.5952876
by,0.75475734,-0.14582576,0.881122,2.653031,0.6815525,1.6706188,-0.7139154,-0.90984094,1.4623289,0.053565856,0.55177116,0.25000334,-0.1427829,-0.90599936,1.4808321,-0.23777291,0.9116583,-0.6622846,2.406774,-1.354281,-1.9423857,-0.6288488,0.01153895,1.9508072,0.18881606,0.41148806,-0.085171156,1.0636456,-0.76150954,-1.4862248,1.3291728,-0.39927348,-1.3786108,-0.49630293,-1.5213919,-0.6978837,1.111294,-0.30015308,-0.16959512,-0.90129375,1.0184325,0.100573346,-1.0272367,-0.04974198,-3.9716284,1.7022046,0.07112153,0.23507664,2.7532978,-0.20135593
that,-2.7322783,0.28447106,3.3493636,2.3117104,-0.5651428,1.7403675,-0.12790222,-2.7162068,1.2481747,1.9990729,0.28428438,0.23623607,-2.1559403,-2.0850105,1.7126092,3.2051284,-2.1767747,0.83432513,2.4914513,2.3243291,0.13633756,0.19990857,-2.1736076,-0.93953836,0.837842,0.92077506,0.8499574,1.0604913,1.6282558,0.6690101,2.961083,4.7771153,-1.6767758,2.0225976,-0.27984825,2.9780507,-2.7341154,1.0883319,0.9651785,-1.7972071,-0.36336792,0.4192918,2.4550219,2.4168577,-1.3307679,0.34370205,0.070040815,-0.6303304,1.0574093,1.82755
four,1.6587533,-0.35219702,-0.507361,-2.1528277,-1.8189992,2.3505526,0.8432626,2.2643697,3.247868,-2.4159663,-0.13786808,1.0659715,2.0107915,0.71435004,0.95044816,1.3517054,0.40926045,-0.86284167,1.330347,-0.44493538,1.3969505,-1.3748509,3.0620382,1.1895933,-1.376823,-0.5911059,-0.008925414,-2.2956676,0.92220825,0.13802087,-1.7520696,-1.7513376,1.010101,-0.12149376,-0.43936267,0.40069813,1.9168087,1.1373041,-1.4829745,-0.6212344,0.11592274,0.1389416,0.8689887,-0.7905185,-0.655561,0.0070441593,3.7938292,-2.5395377,-0.949532,-2.2184412
six,2.0257037,-0.5309279,-0.45459026,-2.3563755,-1.6621939,2.6559408,0.08132039,1.9629788,3.7858355,-2.5276883,0.16884911,0.62480646,2.0105376,0.56425285,0.8519814,1.1273327,0.03213777,-1.2786553,1.3292087,-0.5830035,1.1147197,-1.5223548,3.2764082,1.8029176,-1.3767956,-0.70479745,-0.31241903,-2.339247,0.63582027,0.10605732,-1.6202205,-2.3828297,1.4660691,-0.5313432,-0.18729226,0.49824664,1.8886942,1.0541531,-1.0819206,-0.89120716,-0.02489228,0.2086418,0.5456843,-0.7442283,-0.71067315,-0.067288496,3.54529,-2.9640803,-1.185403,-2.1081202
seven,1.944276,-0.53227055,-0.52518445,-2.4949262,-1.5129563,2.2892134,0.2908927,2.0063384,4.397494,-2.456981,0.21085286,0.63059366,1.1710808,0.40551475,1.0290284,1.1736565,-0.25780502,-1.5873817,1.4466774,-1.0391824,0.5908304,-1.8101358,3.572172,1.6953725,-1.8354098,-1.267259,-0.60012066,-2.6780076,0.21411061,0.19223872,-1.3351741,-2.913081,1.4133984,-0.8038816,-0.17284831,0.25476235,1.6749496,1.2090665,-0.9737198,-0.45972565,0.1531484,0.102278456,0.23120524,-0.5382897,-0.6553671,-0.11000208,3.5980096,-3.3301635,-1.0930856,-2.4935873
with,1.6252962,-0.3432488,1.447969,1.3193569,-0.18365821,0.4419151,-1.5760946,-1.6909562,-1.4316173,-0.47287828,1.13426,1.1234287,0.9097178,-0.23821408,0.21861374,-0.78930765,2.0340424,-0.12875801,-0.26305553,0.15646401,0.16872586,-0.5511853,-0.40900174,-0.1234782,-0.5212275,1.5406754,0.5583982,1.6206727,-0.3210629,-0.5503488,1.6389278,-1.2036314,-0.85955566,0.92578936,3.0355694,-1.8665577,2.4760563,-0.9814735,1.9609611,0.5276825,0.80137205,-0.0876575,0.028702393,0.3624964,-2.4745438,0.27558094,-1.1147747,-0.8803253,-0.9718735,0.8448314
on,-2.168285,2.148308,1.0558432,-3.0771575,1.5449575,0.1345558,-1.0959568,2.5998938,-1.0246211,-0.55780375,-1.2787555,1.6971964,-0.57476133,0.023892142,1.7718968,-0.2007193,-0.03305376,1.4086709,1.0815895,-2.489553,0.1891372,0.025189461,1.8363689,-1.0472922,0.59612787,1.3001286,-0.29068273,4.2688446,1.656535,2.8397064,-1.1610583,-0.31943104,-0.8656551,-0.3696181,0.49220118,-0.95088243,-0.81155086,-0.039992046,-1.1511925,-0.6704391,-0.9077603,-1.0845771,0.6091651,1.6520873,-0.7758489,-3.15315,1.1178775,-0.56488425,-0.93145615,1.7190268
are,-0.6022463,-1.0397342,0.4712409,1.7304977,0.30395582,-1.6909295,1.0585568,0.51806134,-2.170034,-0.99167573,-2.217277,-3.6607401,4.0619807,-0.14234477,-2.9715207,-2.1617918,-1.8534836,-1.412588,-2.414486,3.2409294,-0.75814676,-0.874172,-6.5432534,-6.5932384,0.5487096,0.09633273,-0.34593773,-0.67942613,1.91846,-0.065378085,-3.832382,-0.30568337,-1.0924792,-2.616924,-2.1814408,-2.5701475,1.6295846,-3.429924,-0.17416117,2.6900697,0.41316035,-0.5863042,-2.2853384,-2.6712756,1.0224199,-2.6071723,1.7397143,8.108358,-0.032209214,1.6919922
it,-1.6771162,1.18861,3.0706956,-1.2460109,-0.46460104,-0.07144513,-2.163627,-0.18479024,1.9835954,1.7500081,-2.116296,-1.9679338,-3.7626264,-0.3466208,1.0184891,0.44904014,0.044637483,1.9464421,0.3143715,2.734004,-1.0073847,0.878325,-2.0782366,0.6988518,2.1708932,2.2609117,1.0696142,-2.41918,-0.0045658154,-1.3690208,-0.081130505,3.1540506,0.7017586,2.2511652,1.26872,1.4309978,-1.1249212,-0.557661,0.70558286,-0.83632576,0.08153519,1.3000106,0.095874965,0.038072098,0.5604434,-0.08085588,-1.0926646,0.71851563,1.3868192,-1.0394633
from,-0.81540436,1.3464212,0.2840822,-0.2594395,1.3704537,1.1200519,-1.4589313,0.2783989,-0.34281248,-0.6387215,2.548022,1.182764,-1.0346292,0.922053,1.3348384,-0.14265557,1.6556941,-0.046186365,1.2368727,-1.2764454,0.58112764,-1.3924087,-0.70959544,0.32473037,1.7197684,0.59820104,-0.88300604,0.99424934,0.3250242,0.47659788,0.44559726,-2.2062678,1.0280834,-0.062097613,0.43628067,-0.32336494,1.664153,1.8424999,-0.967083,-1.7151761,1.6364454,-0.7913732,0.29100156,-0.8455231,-2.3386018,-0.59379315,-0.9807477,0.9666884,1.7193059,1.1436659
or,-1.6614163,-0.26378873,-0.025160443,-0.45990804,1.8982836,1.3182435,2.0485291,-1.40383,-0.4787511,-0.25111485,-0.7157358,-1.5571173,0.53130955,-0.23880024,-1.226103,-2.150354,1.2548172,0.76870567,0.6903604,1.3285586,0.31080467,0.45254052,0.21118808,-1.6928211,1.0451876,0.21223089,1.4393454,-0.05540493,1.2908577,0.18707557,1.0277783,1.7666379,-0.34312117,0.25463718,-0.80471766,-0.9428691,0.1426357,0.28305075,-0.76802206,1.5652847,1.3647453,0.4702696,1.3439875,-0.18008152,0.88038915,0.2389294,-2.5076118,1.2495707,-0.78669447,3.3693652
his,0.74005586,-0.3918325,0.2620385,1.4194328,-1.3169166,-0.88543355,-1.0419028,-4.0439606,-0.9640062,0.9912861,-3.6416652,0.7214202,-5.28385,1.1775426,0.95343643,0.7862542,0.12151555,1.7481004,-0.98314464,-2.162784,-2.7695296,-5.2357183,1.6734273,2.3676102,-2.248528,1.4106716,1.5571365,-1.473822,-2.3461514,1.5785829,2.1250587,0.81613344,4.2003818,-2.4640825,1.6640795,0.93906873,0.5819332,-2.1864097,-0.28321794,-1.5835571,-1.870318,-1.3288277,-0.10071073,4.1220274,1.9153118,0.2124617,-0.66017747,0.30513257,-0.8893875,-0.2197988
an,-1.037254,0.25270835,-0.5314775,-0.94511545,-1.7279913,-2.8189883,-1.470376,-0.38334382,-2.091884,-0.1988789,-1.9858322,-2.8027983,-2.9042852,-2.1314704,-0.4577117,-2.5279963,-0.5197539,1.8247231,1.9675789,1.10774,0.66634625,1.3002361,3.40761,1.6112,0.5340471,-0.2469572,-0.40173966,-2.3595269,1.9963037,-1.3219025,2.687482,-0.67575735,0.3435786,0.60195297,-1.386413,-0.4324717,-0.8881068,-0.2959796,-1.3415532,0.38657326,0.33688444,-0.46551248,2.2860858,1.3203188,1.9292641,3.0450537,-1.8917818,-0.5349862,2.432152,-2.6997914
be,-0.99128586,1.2882861,5.20304,1.999888,-2.5785394,2.1073682,2.8123796,-1.6931968,-0.76926833,1.5642505,-2.0445359,-7.3261294,-2.6035242,0.64439654,1.5257841,2.4915235,1.5771081,1.2787113,0.42360964,1.8976932,-2.362796,3.2161896,-1.4147164,-4.214161,2.1815543,6.40157,0.9920304,-3.0196257,1.8905878,-0.10702551,-1.4066513,-0.9744238,1.4112983,1.7352446,-3.8021483,0.5142637,-5.078229,-3.1878474,-1.4903029,-4.0843344,-1.8440015,-0.46184173,1.7863916,-0.7330283,-4.4051437,1.2453966,-1.2838691,8.001844,0.9551569,1.053972
this,-2.303236,0.6968711,0.97889715,0.27104938,-0.97521245,-0.5690195,-1.2283361,-0.7477143,-0.51758516,2.682906,-1.9593437,-0.44723684,-3.930001,-0.57299596,1.2355177,1.3057859,-0.16727799,1.6664392,1.6569698,2.1996884,1.8289065,0.5948434,-1.8893412,1.5226243,1.9627265,0.7752683,1.3456192,-1.0357925,0.6608269,-1.4492804,1.0193067,3.1317441,-0.06363074,0.08595682,0.47166988,1.010232,-1.8859681,-1.578423,0.53535116,-0.6247599,-1.3601449,1.8192937,2.1346433,1.6121589,-0.68232304,2.9459064,-2.196604,-0.52152145,2.2625818,-1.3694596
which,-1.7559247,-1.0838549,1.6455641,1.0502297,-0.7381301,2.3037112,-0.98884207,-2.3233805,0.66047287,2.162482,-1.1537147,-0.7753974,-1.6032541,-0.4610074,1.3811167,2.4474602,-0.36408088,1.8984668,2.8640144,2.1846817,0.46808466,0.3620251,0.5295704,-0.4411614,0.7769806,0.44087103,0.3565746,1.1627396,-0.6704522,-0.1918793,1.7641561,1.7235684,-1.3213044,1.5921224,-1.8098494,1.7018324,0.10397928,0.39069924,0.38503176,-0.38134667,0.06869277,0.2276809,1.1596116,0.8911917,-0.9793195,1.5319939,-0.45064288,-1.6391412,1.5149933,1.9274628
at,-1.3379686,2.961545,2.1674106,-0.40599212,-0.9446518,0.20394821,-2.9893494,1.0053335,-1.2237684,1.3668888,-0.16032252,3.0957065,2.6735103,-3.4824023,3.9937284,-0.6851738,0.4287298,0.30130506,3.3147168,-3.186592,3.7323406,-2.6159458,-0.36026284,0.86977404,-1.309026,1.7696549,0.5152648,-0.7811102,0.90838575,-0.9382808,-1.8722839,-1.1435888,-0.07465767,0.28773975,3.7442448,0.77208334,-0.58063424,-0.010362727,-1.413653,-2.7621863,-0.24842036,-2.7301998,-0.29994604,0.9713427,-0.45216957,-0.83419305,0.25250864,-0.45115584,1.6429292,1.8643872
he,-0.7116206,2.9567163,2.715415,-0.99034125,-1.0555629,0.59120303,-2.7518735,-2.1448486,0.52032125,2.8073776,-3.0736175,-1.5226545,-4.656435,-0.55346465,1.8920343,-0.029408203,1.1895922,-0.12679493,-1.2900207,0.27560487,-4.961152,-3.9334643,1.8080742,1.740846,-0.6991858,2.8525202,1.3424617,-4.493299,-1.0601676,-0.8391791,-0.8035351,0.8256634,2.9093454,2.298698,2.5880485,1.1948122,-0.009743115,-0.2817553,1.6046491,-2.498471,-1.8604312,-0.6711981,0.09462034,2.9638977,-0.6010585,-2.5332553,0.2927072,-0.06154066,1.4281608,-0.6860312
also,1.4980141,-2.7124043,-0.7608436,2.7254198,1.9445405,-0.59481114,0.35189506,-0.79567575,-0.20314805,1.639912,-0.4184628,0.09742568,-0.4702271,-0.3892109,-0.31072024,3.1662595,1.0319171,3.014869,0.6110907,3.751616,-0.13115443,1.5905635,1.0516453,0.032896332,-0.8723316,1.4760569,-1.5359135,2.551432,-0.44524696,2.1881263,2.2612984,1.3852123,-1.7090671,0.034986675,-1.4258058,-2.2734535,-0.46111414,2.232164,1.4445918,-3.2802684,0.5627811,-0.045254666,0.68672705,-0.2325631,0.47528785,1.6786181,0.7134281,2.2198572,-0.23478208,-1.5275519
not,-1.9172854,2.3218105,3.5705528,2.9390416,4.0979333,1.0024788,-0.5060397,-0.7734708,3.275184,1.957023,-0.8204801,1.443135,1.882488,1.1748393,-2.5235648,2.0268924,-0.54942566,2.963298,1.9198738,2.7981951,-0.95280117,0.36635217,-2.1245265,-0.47244596,0.58264995,2.6793933,-1.4066044,0.46793225,0.024841066,1.3544085,-0.4101346,3.8031871,1.5744348,2.489845,6.071026,-0.50359994,-2.207167,-2.088359,0.516623,-5.140452,1.8054438,2.5128558,4.17258,1.6844391,1.2265791,1.6659093,-2.941978,2.9933116,-0.2002713,-0.4508785
have,4.8126945,-0.23669727,3.4591043,5.1248302,-1.7948749,-1.8782061,3.1303685,-1.9584504,1.8238539,1.987459,0.15481587,-0.0023850661,1.3143224,4.2954826,3.0242956,-3.0780625,-1.6369193,-0.18773544,-1.811515,-1.0907086,-2.5573463,3.245786,-9.096253,-0.3190403,-0.52677876,3.5661783,0.7908168,-0.38042775,1.3052075,-0.71607625,-1.6135589,-0.23661633,0.76020426,0.7698844,-2.7854092,-0.0016092723,-0.26435587,-3.8940535,0.23617814,-1.9329836,0.17220908,1.3830427,1.6682092,2.7804148,-6.9838343,-4.618392,-3.5129452,3.901627,0.94468933,4.6611094
were,1.1649876,0.6471246,0.35506517,1.1336629,-2.2760394,-0.83455527,0.2627513,0.51581585,0.35640347,0.55799896,-0.98901784,-1.214518,1.0201302,-0.9598033,-2.3434837,-1.558645,-3.6813369,-2.4471993,-2.0214643,1.0550172,-3.4073613,-5.5068374,-3.4150224,-3.365911,-0.32883558,0.6569454,0.27878383,0.48354116,-1.4156727,-0.50796926,-4.5814657,-1.5210114,1.8875893,-1.6003926,-0.8094291,-2.718836,1.6384118,-3.9709957,-2.1334884,2.5014713,-0.64237636,-1.7477636,-2.5392125,-0.7454055,-2.9733863,-2.9611282,3.9174936,7.585904,0.22393109,1.6746643
has,5.43113,0.38244066,0.84164107,4.0465875,0.7887395,-5.196863,1.7186608,-0.53280085,0.4984466,-1.2831409,2.24774,0.80850697,0.7497512,0.7705296,1.837294,-4.49402,-2.8443706,-0.49897718,-0.81386846,-0.957548,-2.843838,3.7542727,-7.780661,6.2894263,-0.9132412,-0.34579897,0.644885,-1.7197219,-0.06468189,-1.4108456,-0.013640611,-0.79123735,-1.496155,-2.502682,-0.3047612,0.9434463,0.89995986,-4.125134,0.51119554,0.030649232,-1.0192698,0.5938203,-0.6580518,1.2892193,-3.3369668,-7.3996663,-5.12801,0.8068627,0.6301968,0.90000933
but,-0.7268558,-0.85974354,3.28759,-1.9333086,-0.10576344,1.2445134,-1.1285591,-3.3447096,1.1180936,-0.2971693,-0.13674632,-1.3678691,-1.8407626,-2.7478485,2.0950582,-0.9528788,-1.9821223,0.13397454,2.0411115,1.4875851,0.0037394487,-0.34151685,-1.3297726,-1.6125072,1.2890497,0.3740016,0.9221675,0.106986776,0.17871317,-2.3795917,-0.29199845,2.615941,0.8836054,1.9473314,0.7059436,2.5190516,-0.9130617,-0.8945409,-0.5687412,1.9894091,0.32552335,-1.5332516,1.328176,1.6051562,-1.4494817,-0.22744103,-0.44993842,-1.0718254,-0.87353027,2.5832634
other,-0.37311545,-1.4674934,1.1700168,4.0336494,-1.2981368,-1.0141648,-1.4776474,0.8901373,-0.8086088,2.7336447,-2.796161,0.76307267,0.102682486,1.7652178,-2.2024088,0.35255685,1.2818345,-1.1154886,-3.5818608,1.2008578,0.27220538,0.22139695,-1.7754676,-3.3658838,-0.078417495,-0.7458265,-1.3040003,1.7618879,0.7535968,-0.40113494,1.4818033,3.224957,-0.3609868,1.2258388,-2.2656689,-0.40331793,2.2344778,0.4024455,0.56158936,0.9792471,-0.53732526,2.7348802,-0.12228052,-0.665395,0.37022212,-2.1403008,-0.60678387,0.8134176,-1.8375388,2.4886231
their,-0.052458577,0.5823507,0.8450683,0.9892796,-2.4020274,-1.1917863,-1.0679402,-1.5649612,-1.6553521,1.9150721,-3.7979162,1.1188817,-3.326387,3.6255038,-1.2028275,2.0998702,-0.41820043,1.1296121,0.07968741,-0.17419887,-0.7312707,-2.4644456,-1.0484314,-1.409668,-1.429999,-0.33572993,1.3976982,2.0474107,-2.3601623,2.4037347,-0.48184288,2.582727,2.6143367,0.06825379,-0.05898335,-0.7243186,-0.7194724,-1.712209,-0.9311333,2.0530171,2.8355708,0.3391797,0.62420833,1.5696876,2.1778023,1.678694,-1.9371032,3.27892,-2.162786,2.8950758
its,0.46198314,0.32752642,1.8608979,1.4861933,-2.2912917,-1.6092045,-0.9050187,-0.2999877,-1.4747556,-0.6553692,-2.430066,0.54087985,-4.4085393,1.6603694,-0.6926283,3.8430705,-0.19004512,3.03385,0.8143646,0.5695611,0.4230443,1.6371051,-0.31074795,1.5573128,1.8520578,-0.65909964,1.3536268,-0.070094936,-2.4890165,0.18793975,-0.05539393,0.50260246,2.1908824,-1.6392734,0.001530611,-0.17039385,-0.75117916,-1.9987508,-1.8755964,0.756942,0.40668502,-0.0521038,-1.0741988,0.08110431,2.457782,0.17342418,-3.0651238,0.46163574,-0.8039548,0.09761641
first,-0.6529705,0.3483124,-2.4638362,-0.07838732,-0.44452333,-1.189466,-4.7749267,-0.34761795,1.715639,2.331433,1.5454283,0.742147,-0.36126322,-0.5379059,1.4636954,1.2934138,-0.65178293,-1.5129368,2.9559057,0.49740422,-0.3290923,-1.4694948,2.6988919,2.686632,-1.5075936,1.0952902,-2.050309,-0.9382521,-0.5479042,-1.4881165,-0.40873542,-0.14666688,-1.3451498,-0.23511124,-1.815521,-0.29207513,-0.67800254,-1.2093327,0.050617497,-0.8090002,-1.2487253,1.8915323,1.8094902,-0.040792152,-1.5901952,0.07591795,1.9510218,0.011934912,0.49966693,-3.7328682
they,-2.1826339,2.4601307,2.6439307,-1.0137715,1.7847646,-0.49288216,-1.6321125,0.8128809,0.68240786,2.9915414,-2.642825,-0.24133968,-2.7596993,2.3444264,0.051482536,0.27432722,0.7890165,-1.8795536,1.5223271,2.6125925,-2.403854,-0.69545895,-1.4617178,-1.3966032,-3.0247557,0.9135979,1.0674623,0.4027029,-2.0342815,-0.21110901,-2.4730155,3.9805486,1.7054299,4.3990145,2.2979214,1.9195459,-0.9674434,0.4964754,-0.570138,0.8175379,1.7590736,2.7426808,2.1472328,2.1640913,-0.064548485,1.0081786,-1.1865752,3.1684084,0.46068326,2.9805799
some,-0.56248367,0.90895355,-0.8573333,2.2495368,0.57187027,-0.019955106,-2.3477688,0.5882377,-0.5149812,1.8010805,-1.4553567,-1.8416762,0.45373133,2.210952,-2.63968,1.5918937,-0.11668339,0.030771183,-1.3594095,3.1781974,0.5278269,-2.157235,-1.8656191,-2.785653,1.2677829,-1.2940633,-0.60877895,1.8586046,1.2077092,-0.7994006,0.35254875,4.768047,0.28458005,2.1315482,0.27568954,0.18744774,-1.6841332,1.8070961,0.10414995,-0.034646038,0.103564486,1.4500079,0.41017944,2.4384596,0.70305717,0.13626157,-1.4922734,2.256711,1.3094369,0.8289394
had,4.468619,1.892346,0.39534503,2.4783654,-0.5050426,-3.680997,1.4913194,-0.41736683,1.8421048,0.0672553,2.4934683,3.0093935,-0.03518102,0.31968385,0.22718515,-4.4110975,-4.2767634,-1.0686084,-1.0801508,-2.039072,-4.3706503,-2.2498336,-4.6251755,4.8866777,-3.1191185,1.3757204,1.6595325,-1.1351116,-0.9595786,-1.0092328,-1.0486944,-1.1157337,1.3584539,-0.1442215,1.1239381,-0.7652996,1.8018932,-4.2206736,-0.4458547,0.5714549,-0.4279277,-1.7952788,0.1178282,3.0760915,-3.8795757,-6.8558297,-1.8601204,2.701585,-0.35601103,2.2862258
all,-0.6960137,0.37004057,-1.4858898,2.5345452,-0.9422436,0.019499555,-2.2923512,0.031972896,1.2833786,1.3234886,-0.8426656,-0.32533953,-0.02385266,1.879294,-0.89805865,3.4388368,-1.1594827,-0.7347541,0.21633278,0.6693834,0.34881485,-0.7219766,-1.6986824,-4.5962615,-1.1642623,1.2996936,1.0368327,0.19444771,0.35431302,-0.49538496,1.0638818,3.2681806,-0.7671065,2.4513175,0.1678393,-0.5693154,1.2285599,0.20672934,-0.59832686,0.99617904,1.0826699,1.0116976,1.7994043,-0.24339828,1.0088422,-1.1257647,0.82694554,2.2858973,-0.06562971,-0.32995754
more,0.3679051,-0.8536865,3.4432411,-1.8230731,-1.6889006,-4.8421144,-2.7599363,1.8633751,1.2677629,1.5106742,-2.2812529,0.70258754,-0.43380117,-2.7633598,-2.154905,0.18246812,-0.18953148,1.9758543,-4.5847106,2.2995894,-0.783676,0.56405586,-0.68424296,-0.63324404,-1.1486427,0.29610592,-2.724145,1.6971873,2.365356,1.0721754,-0.38184333,4.1041474,-0.422283,0.80775887,-2.3458722,1.3320729,2.6935232,0.72311425,1.2801871,-1.2287735,-1.7636176,5.3537574,4.115237,-1.9558284,-1.4423838,-0.6762446,-1.7121438,1.0329673,0.31896755,-0.17832142
most,0.970374,-0.58660495,0.54085314,0.25407222,-0.7176629,-2.935607,-5.423785,0.5649491,0.5337451,1.5465709,0.4331423,-1.1127955,1.3943954,0.34511524,-0.52583003,2.989204,-0.13237227,0.56586426,-1.0740526,2.3747118,-1.3295745,-1.0802906,-2.202214,-2.9388113,1.0309863,-0.6667855,-5.4512496,2.233787,0.9281643,-0.39361617,-0.52645975,3.766068,-0.15693952,-0.44260964,-0.228426,-0.94905895,-0.107147105,1.4844426,-0.18497056,0.41801476,-1.9332343,4.0074325,0.50223035,0.051196482,0.67752594,-1.0081753,-0.50925297,2.0557067,1.7216684,-4.158651
can,-2.2292836,0.4058708,-3.4507966,1.7195263,5.2913713,-4.1767983,-0.006276671,0.7136705,1.4890854,-1.6371431,-0.38656786,1.2538497,3.0490968,0.38892242,-4.2783737,-6.9046497,-1.6151686,0.44643384,-1.2151595,2.8707302,0.8846259,-2.4313123,-5.7387886,2.3128443,-1.8822649,-3.2721457,3.334946,0.46737102,1.6713063,-0.0027017416,-0.3258828,3.4964666,-4.6634083,-1.4895078,1.6949862,1.9350989,2.3658059,-0.87278014,4.5445614,5.2910485,4.8489614,-0.34075367,-0.93920463,-3.4478862,5.248979,-0.70658964,-1.003237,3.408621,2.2128556,3.5776079
been,-2.4367876,1.946144,-0.3251321,-0.6085732,0.008703678,-0.41053885,-0.74237657,0.72828615,-4.01234,-1.617456,-3.0216308,-4.6191096,-2.538153,-5.9608617,-5.255981,6.1879754,-0.11555146,1.7302346,-1.045161,8.784697,-1.1117629,-3.9927578,3.8400295,-2.6850426,-0.06975559,-0.38311416,0.6875336,-0.6172233,-0.67126703,-1.6605858,-0.7749062,1.9811898,3.3372717,3.1107368,-1.9048775,-2.202723,-6.1153274,2.0355613,-2.0849526,-1.3968952,-0.38244918,-6.242243,-1.6160172,-2.365758,0.052017443,-0.04460466,4.07745,4.2108316,0.1664665,0.48622617
such,0.99989194,-0.32773957,-2.1433232,0.39878058,1.7924578,-1.5892825,-1.1785346,-0.22381738,0.48413983,0.5506451,-1.1620272,-2.4427953,-0.8261029,5.075477,-3.3507593,-3.3718302,3.6056468,-0.20801096,-2.5694413,0.69004464,-0.80699927,1.9532113,1.1950855,-5.3519273,1.2064887,-1.1182714,1.8465519,2.2220278,-0.67977214,-3.3727994,0.21264055,2.3587146,-0.077289544,1.8364971,-0.74836636,-2.788773,-0.49547204,-1.0230744,0.8415329,1.6206197,-0.3422389,1.1849718,-0.46327156,1.4384693,0.3099214,1.9806727,-2.2216954,-0.04840939,-1.0533882,2.7835708
many,0.96904695,0.13230738,-1.1651739,2.087894,0.040367197,-0.24501045,-3.8210683,0.47788,-0.27767637,2.6876636,-0.77685326,-3.1877553,0.9927136,3.3965855,-2.5065126,2.0369709,-0.52682424,0.12996678,-2.564612,3.006753,0.32498533,-2.611846,-1.7028939,-3.4169366,0.886927,-1.2864046,-1.1100266,2.4614031,-0.30999777,-0.5163839,0.53037906,5.0532217,0.08455133,2.9959857,0.33180285,-0.64288247,-0.8713845,2.6312976,0.5565812,0.26326105,-0.18253668,0.3606703,-0.46565998,2.2290378,-0.11993923,-0.7489892,-0.7227459,2.3618026,1.6570077,0.33014357
who,0.078967266,-0.43047488,2.8749495,0.87864995,-0.9059989,3.4382384,-1.189999,-3.7976036,-0.33510157,2.9403675,-0.15378188,-0.44443086,-0.8161213,-1.5105882,1.7894635,0.7577286,0.90577525,-1.2383298,1.3081491,-0.7013413,-2.8106604,-2.5454319,1.8930861,0.13494435,-0.9399035,-0.21303011,0.11278791,-1.2570826,-1.665365,-1.2047507,3.5886562,4.738823,0.47288662,3.4089842,-1.0835259,1.4095845,-0.71118814,3.3275223,1.283814,-1.1657743,3.145725,-0.3292334,1.9002539,3.7379613,-1.6284863,1.9757912,1.2247579,-0.328541,0.7809913,2.3376822
new,-1.9584277,0.20993218,-0.16493359,0.8309135,-0.49918234,-0.2654302,-0.3887029,0.40239373,-0.5638239,4.0047207,1.3685827,-1.6511956,-1.0472177,-0.4575866,-3.399305,0.22543891,-0.5065928,-4.3715935,-0.19664983,-1.020253,1.4270086,-0.85910743,3.2093785,4.038842,-1.8360772,-1.2697324,-0.60164136,1.143984,-1.1504155,-0.26277968,-1.3146212,-1.4325621,-0.26217553,1.8370836,-2.1678612,1.1164768,-0.17290705,-0.24254514,-2.0203967,-4.7480106,-2.3043752,3.2227058,-0.8518858,-1.3579347,-2.1777408,-1.3551649,0.31281313,-1.3445864,0.70758915,1.3855722
used,-0.8113482,-1.8230851,-1.6715198,-1.6841046,2.8978467,0.9395016,-1.1175287,1.1320671,1.0818156,1.8062767,0.03166275,0.76268774,-0.75082403,1.4765161,-1.6381662,-4.18268,1.907534,-1.3308709,0.87537146,1.2373921,1.1879761,1.3827105,-3.065657,0.52502984,-0.33613417,1.0030746,-4.6115384,1.6001854,1.0806721,-4.2366037,0.059104595,4.0037875,1.5888373,0.18448232,-1.7521129,1.2189796,-1.8727218,0.2904909,-2.3381226,3.9893622,-2.2412076,1.12322,0.40393075,-3.3654323,3.5318575,2.0945168,-4.4540725,-2.3634663,-1.2687209,1.3527359
there,1.429935,0.30241895,1.7130581,-0.090336695,0.027773486,0.40900305,0.17362796,1.0831705,1.9744092,1.3791158,-1.1522102,1.7957562,0.38244042,0.30499935,1.5181212,-1.5367773,2.669723,-2.3079717,2.032745,1.6262475,-0.016532741,2.9587784,-5.5449595,-1.4843822,-1.1972054,0.022675516,1.3243917,0.07780656,1.1877434,-2.1012447,0.1278052,4.888666,1.6259022,3.240334,3.4832773,4.318929,2.2867332,0.5894549,-1.7103959,-1.2500184,-0.9595527,3.3564749,0.667188,2.0520563,-1.0667133,-1.0168912,-2.4765465,-5.893407,0.390648,-0.651364
after,0.96185786,0.8924159,-0.7388425,2.0415208,-0.8061403,-0.7047428,-1.0705578,-2.6969032,0.51272124,0.2902088,2.6232479,2.3657138,-1.9009542,-3.707858,3.0376225,-0.81875926,2.5388086,0.90351677,0.88317275,0.48721433,1.5492246,-3.1284497,3.267039,2.370094,0.09721398,1.0295739,-0.37582138,0.9653739,-1.4167497,0.0889326,-1.1928024,-2.0032845,1.0295788,1.1359919,3.1090472,-1.1978906,2.9450827,-0.94592375,-0.563738,-2.5187225,-0.5384376,-1.9418483,2.132229,0.5191407,-3.3590386,-1.3205469,3.0543811,0.8318167,-0.6686265,-1.4224125
when,-0.27128473,-0.39509848,2.0222306,0.9766954,-0.23392521,1.8180184,-1.4884726,-3.098824,2.9690936,0.6272303,1.0513498,0.6465699,-1.4349184,-2.278566,3.6837451,-0.7155714,-0.6497976,1.812311,3.266408,1.3172328,1.0790839,-1.899813,1.6685971,1.0930496,-0.5490609,1.7341666,0.49072996,0.73679733,0.0042885193,0.9068158,0.798052,0.07870663,-2.249805,1.6721194,0.5570742,0.94064295,1.1915212,0.43843076,1.3729037,-1.3707349,0.85129744,0.018458711,1.9810599,0.84240985,-2.0579872,0.737701,0.76364744,0.366848,0.036987484,1.5678957
into,-2.563821,2.096893,0.83237225,-2.300528,1.6751682,0.11198393,-0.975383,-1.3015987,0.14370094,1.2642729,4.141816,0.40595618,-3.1684346,2.9054098,0.62405115,-1.0243143,1.3999094,1.0534296,1.1310441,-0.23706844,-2.715052,1.9935186,1.4142448,-0.8057949,1.12615,1.6964483,0.95012796,3.629655,-0.5890381,3.3077676,-0.6264742,-1.2481624,0.15737334,-0.649967,-0.14053012,1.6004554,4.025776,3.2153585,0.12847365,2.1459205,0.43199486,-1.9366063,1.4784082,-0.15174283,-2.9877577,-2.6591623,-0.0056738723,1.6531957,2.0271316,0.40411064
american,1.2773039,-3.3154995,0.39685184,1.0068578,-2.2140398,1.5892024,1.2701643,2.2066686,1.1910055,0.5899288,2.0271986,2.546141,0.3798765,-0.623693,-1.7742745,-0.23768255,1.3404595,-2.3350577,-1.0241632,-1.8630458,-1.2126904,0.18889987,2.1633008,1.1253461,0.37888384,-3.2362847,-2.2676423,-3.4935236,-1.0981734,1.3629719,0.07329126,-0.23539823,1.3759989,-2.9843802,0.47583494,-1.7085716,-1.9439728,2.251063,1.8719841,0.29341632,2.0252924,2.4106216,-1.6138122,-0.40951616,-1.5638918,-0.63379216,1.3567483,-5.5412455,-3.1686943,-0.9927509
time,3.7233686,1.2372835,-2.0282662,1.209446,0.3241823,0.6481347,-1.3091443,-1.9133153,1.3500246,0.32720926,0.83046365,1.0395863,-3.0232613,-2.5503945,-1.1410463,0.7384718,-1.2281243,2.1178901,2.7106717,-0.38134345,-1.4133216,-1.0452772,-1.3003055,-0.56304395,-2.5065794,4.069566,2.5408866,-1.3404937,-2.6348104,-1.4142944,-1.6465658,1.375927,0.9578258,1.1261169,0.848857,2.0121548,-1.5678327,-0.32017437,0.31765267,-0.8699793,-2.0107858,1.9228908,1.8894417,-2.288056,0.84612507,-2.408936,1.6826478,1.4448413,0.11783643,1.8489403
these,-0.12348707,-0.55055976,1.9201663,3.6231153,-0.02420635,1.1462156,-1.8788776,0.19921067,1.189313,2.493128,-3.8127685,0.65101236,-0.77518463,3.2254555,-0.6591306,1.4320569,1.1274848,-0.7256995,-0.81147105,2.1517665,0.82426053,-0.583211,-2.384344,-3.772692,-0.801338,-0.6738477,0.892766,3.8392248,-0.8212605,-0.55795616,-1.067753,3.7844732,0.7166007,1.4919165,-1.1899225,1.6380224,1.28977,-0.30276492,-0.19550508,1.1201241,0.28939363,1.2764585,0.40405542,0.7284545,0.044922214,0.8133276,-0.21033922,0.50833684,0.86610544,2.613248
only,-1.5247626,0.35008317,0.81108063,0.1433505,-0.39343944,0.32617208,-2.0781214,-0.37622982,0.96910256,-0.02311276,0.07164487,-0.6235488,-0.8263968,-0.87347424,0.45255613,1.3670983,-0.9519234,0.5406758,1.5256668,2.7082736,-0.2862878,0.9093413,-0.54924905,-1.1291018,-0.9692706,1.9569997,0.7368585,0.057792358,1.231117,-0.6743484,-1.0071152,3.4062214,-0.36363226,0.8066531,-0.28982642,0.6041125,0.5378938,-0.29525262,-0.9742512,-0.84844905,0.5882649,0.586081,2.743267,0.67120063,1.0231107,-0.7093005,0.40185663,2.8105597,-1.0411862,-2.2218647
see,0.10852831,-0.67600036,-3.7186916,-4.431769,-0.30168107,-1.1551303,4.253543,0.25813565,-1.2977268,1.0079811,-0.9188311,-2.5214229,0.88602483,2.7715018,2.3164415,-1.1287167,1.1987811,-2.1459231,-0.9891764,-2.2027047,1.433318,2.0824995,-4.7813215,-0.6012899,3.3141632,-2.1803916,-0.45321968,-2.2041414,3.3889802,-3.8970053,-0.34829134,0.1879552,1.7081355,0.79232144,0.030854438,-0.44372982,-1.753897,1.1254212,1.8436935,5.7814054,-0.92467374,-1.5358104,0.49593234,-1.8903679,-1.0632702,0.6311928,-1.2058252,-3.4607158,1.3410428,-0.34139228
may,-1.6664777,0.57241297,-2.8980725,0.78560925,4.661736,-2.0426555,0.25327697,1.2853013,2.0976021,-0.81970024,-1.0987207,1.782063,2.3636885,-1.5264423,-2.439254,-4.9237337,-1.6328883,0.6946773,0.34263834,2.5286,0.6474226,-3.1222253,-1.8270447,2.8586743,-2.381494,-4.86122,2.9139495,1.124799,3.120394,0.42773718,-1.7419394,2.9477406,-0.73793256,-0.3408578,1.5063541,0.26245636,1.1248741,0.32689998,2.2887752,4.4181013,3.9403477,0.5525726,0.041354094,-2.1650796,3.5654044,-0.7054329,0.95243764,0.52150786,-1.4340732,1.9008329
than,-0.48420456,-2.5069337,1.3665854,-4.4042616,3.101669,1.9521296,1.8048229,-0.6399437,1.3290884,-4.224907,4.1918783,-2.5553882,5.390441,-0.63522494,-0.055580612,1.3460901,0.30365553,2.0477037,1.4739571,0.16743922,2.2995868,-2.0415785,-1.5940901,-1.264309,5.6396203,1.7671796,4.5256195,-2.7600658,-0.14661385,1.8351804,-2.7862954,5.229201,2.581225,2.9853406,1.8754277,0.5000246,-0.47697362,2.1596704,-1.5700452,2.959892,-1.097535,-3.7684827,3.7433589,1.4207255,-2.7598476,-2.1854877,-3.983115,-0.37691817,-0.073167264,1.8196692
world,4.166648,-0.6333492,0.06316041,-1.3511317,-0.8627525,-1.7816774,-0.6246933,-0.8235063,1.0823662,2.4472463,1.0673683,1.7588648,0.50841033,1.0402418,2.0809886,2.2517133,-2.6653898,0.6689046,-0.28052467,0.79001915,2.4512196,-0.3032198,-1.7153517,-2.1331887,0.26436388,0.5580705,0.24184923,-2.611212,-5.464738,-0.573256,1.5102744,0.41327095,-1.0863546,0.058515456,1.3151017,-2.3194668,-1.8501285,-1.4822264,-1.3387773,1.2181615,-0.82777953,-0.86500436,0.66259795,-3.0893624,0.8255414,-1.7380666,3.3149724,-1.7436842,0.84524035,0.3680737
i,-1.4008936,1.8594273,-0.5493678,-1.4511749,4.039154,0.9025291,2.952784,-0.84469026,1.2843546,-0.03422695,-1.4623678,0.47643182,-1.8923967,1.1322756,-0.76537144,1.8661808,0.40123308,-3.7202845,0.45196813,-0.6128465,1.6245018,0.6546947,1.2191541,1.7541752,-1.5231541,4.5741477,2.799791,-4.2323484,-0.060298454,-1.577697,1.7536901,1.4859707,0.4672358,3.6659493,1.8715167,0.24653181,-0.7565562,4.411953,0.13654977,-0.8637058,-0.83734274,0.69830227,1.3142742,1.0100118,0.3462161,0.7612562,2.7173524,1.9342484,-0.31452245,0.72476333
b,-0.15641142,-1.4475054,0.9375979,-2.477347,-0.22925504,2.5032,2.9799314,0.5872313,2.1396356,-0.7013909,0.6584227,1.7835517,2.7408934,-1.5522838,-2.1332762,-1.4502995,1.9519882,-3.3961625,-1.3816956,-0.6776045,-0.27595547,2.2650433,2.299183,1.1163074,0.6493044,0.9100385,-0.9709056,-3.470341,4.219084,-2.2339342,-0.6859729,-0.60967153,-0.64953667,-2.8396392,0.082950935,2.6563845,0.39437267,4.0527425,-0.37035805,1.8920314,1.0050328,-0.066105485,-0.19177511,1.1873293,1.357824,1.5678728,3.4933295,-2.170326,-1.0816423,-2.4873753
would,-2.1217995,0.41193953,-1.9764515,-1.0146006,3.7505882,-5.467024,-0.080901615,0.14639406,0.93101627,0.78011674,2.749209,3.532258,-0.609971,-3.1069221,-4.1403894,-4.553912,-4.3108296,-0.08732801,-0.95280194,0.68942815,-0.015897227,-4.448013,-1.4856048,3.6808336,-2.7532358,-2.93424,2.9532325,1.8796624,0.8425552,-0.020535735,-0.8836685,3.6678677,-0.7431777,0.8740602,4.678444,1.1692586,0.23916064,-0.4650435,1.9729943,4.6554112,3.4539924,-1.1519533,1.1773497,-1.1454692,4.2405214,-1.9057214,1.4846312,2.176345,-0.91011155,1.3941045
d,-0.17004842,-1.6133758,-0.13825092,-3.1987822,1.7312772,1.6785313,2.4235075,1.0237188,2.002343,-1.4511627,0.5911352,1.8211849,2.2952478,-1.4780902,-1.651139,-1.752177,0.113220125,-1.9693063,-1.4117632,-1.1060648,-0.5344721,0.93672293,3.7811787,2.1739805,1.1318973,0.5144358,-2.346359,-4.078173,3.1903615,-1.4524393,-1.880969,-1.3093044,0.4370881,-2.5852234,-0.09953564,1.8745193,0.5565099,4.5046463,0.43630204,0.80604726,0.09077184,-0.94267374,-0.71863693,1.2935541,0.81173974,1.425898,2.6283743,-2.9313743,-0.7963974,-1.2670764
no,-1.4378433,0.060113758,-1.457041,-0.43736,0.074625894,-0.4867481,1.7636746,0.64353573,1.2122108,-2.162225,-2.0865014,-1.1587883,-1.4187397,-1.476135,-2.301262,4.5247865,-3.068757,0.8400491,0.44491842,5.332044,0.45020133,0.99031943,1.3680984,-2.7277029,-0.28592837,2.9714298,0.9606116,-0.59432346,4.0317616,2.7012777,1.8775817,2.5702484,0.2963609,2.6234288,1.8279895,-1.4802827,0.5086677,1.211732,-1.7886971,-3.2483926,1.1343485,0.13260871,3.4955306,3.47921,1.8203616,-1.3531959,-1.9296185,0.7114329,-0.62225515,-2.8527539
however,0.42435127,-0.47922403,1.9555613,0.4734551,0.263416,0.64309984,-0.37970015,-1.9968414,1.0220453,-0.2995366,0.819562,0.09136734,-1.72478,-2.489591,1.0360866,0.13880414,-1.5232927,0.47238728,1.1529043,1.8534032,0.51160157,0.0077296686,-0.984553,-1.4905866,1.128673,-0.13471635,0.28300247,1.2916886,0.3335058,-1.0217646,-0.9403993,2.4680066,0.5043143,0.8895099,0.5244003,1.2371798,-1.6275501,-0.62159383,-0.62356937,0.16414808,0.06798867,-0.42316377,1.3746305,1.1084276,-1.3855346,0.27887765,-0.047358837,-0.80439955,-0.91514033,0.87744385
between,-0.3517378,3.0302184,2.8854318,2.0541887,-0.38620234,0.76492834,-1.5484002,0.83770066,-0.6582432,0.45957553,0.8368687,3.1760526,1.9002221,1.6286943,-0.18462306,0.26047823,1.493537,-1.1741192,0.31621054,0.82386744,1.679195,1.1536341,-1.5611572,-2.2216344,0.17787142,1.4919382,1.9239585,2.0373664,1.9405386,1.363321,-0.8423045,-1.3947761,0.23502001,-0.44616014,1.7619954,0.09237391,4.357155,2.9757235,2.8499613,1.9006034,0.9066913,1.2655814,-0.27719727,1.3579842,-2.1470132,-1.216194,-0.17683327,-0.23224844,-1.3764696,-4.2235274
about,-0.64253527,1.8026254,0.07409151,-2.820501,0.24195899,-0.5211481,-0.5835821,1.5466267,-0.10453195,-2.0767179,-0.29406002,0.74384034,0.68551815,-0.57364786,0.8568417,0.2210219,0.2619937,0.09186289,0.043606073,-0.6497271,1.4766451,-1.4786088,-2.361959,-0.8175865,0.9689857,-0.4727891,0.5599419,-0.33682156,0.7674952,2.120213,1.0089775,1.9935372,0.22167395,0.8153563,-0.07327224,2.1922376,0.8117707,2.8064644,0.6769195,-2.886714,-1.1375425,-0.6026604,3.829595,-0.16378897,-0.79899204,-1.9555706,1.6398131,-0.99971294,0.7099975,-1.4458543
over,-1.5180662,3.0937536,0.36511445,1.1075871,-1.4876293,-0.2378158,-0.795528,-0.49239072,-1.6018499,-1.1748117,1.4513384,1.6390611,1.1356655,-0.4271445,0.38250175,2.4462347,0.63815755,-0.6345076,0.48423138,0.06930559,1.9359266,-1.2429088,0.24220067,1.6141416,0.56860346,1.3353192,0.6853326,1.2639133,-0.2983224,0.24064715,-1.9336308,1.4967968,1.5896833,1.5885013,1.3940903,2.6919773,1.7274858,3.90168,-1.3256261,-0.9845426,1.4477024,-1.1292331,1.589916,0.39660937,-2.7692287,-2.944649,-0.551808,1.2090076,2.146869,-1.8901589
years,2.0613189,-0.8193797,0.2812441,-2.206151,-2.2577639,0.0044164704,0.017968964,-3.5636137,1.8117555,0.6338555,0.18756504,2.3201795,-0.631063,-2.8720648,1.0734917,-0.6383005,-2.3613794,2.9777713,0.3381225,1.5362923,-2.4989243,-2.653629,-1.9296151,1.8600554,-3.0166283,0.40596604,3.2517056,-2.6869526,-0.40052125,-1.1359835,-4.285283,0.35939288,4.421055,-2.488061,-0.39958653,3.9687898,0.8654892,1.9015418,-7.6081753,-1.0064538,-1.4185709,1.601626,3.7129214,-2.407067,-1.3918653,-4.7731233,4.4754853,-3.4028814,1.6739756,2.185177
states,4.803402,-0.6747576,3.597666,1.2891811,6.22616,0.28878567,-0.31856254,0.59014624,-4.1324716,-1.3877006,1.3366177,0.7162916,-4.478713,-3.135348,-0.72867507,-1.126222,-0.2898293,-0.85481286,1.4959778,-1.0799195,-0.60614794,1.8327235,2.5071492,-0.835831,-2.1220486,-0.36562037,-1.9439281,-1.4081508,-4.2798214,-2.3644893,-3.800737,-3.163019,1.8988795,3.4756799,-3.1909382,-4.922514,2.6356874,-1.2136611,-1.9898884,-0.8410918,2.3912828,2.0378504,3.5080638,-3.129168,1.8510866,1.0874995,1.7384824,0.2285254,0.64354885,-0.7865131
people,0.85221416,0.88420266,1.5082929,-1.8720101,1.2088488,0.012360982,0.8766326,1.1198399,-2.5461657,3.0320811,1.2643591,-0.015562558,0.2917459,-1.557414,0.17469877,-0.86513567,0.42281133,-0.74000454,-0.8316382,0.56931514,-1.7710329,-1.409616,-2.937997,-1.1207178,-0.48372373,-2.0199504,0.5464129,-2.3276508,-2.9111207,0.5366064,-0.5524305,2.3721073,0.62400395,1.3503143,0.60921586,0.14851195,-0.7162022,1.437801,-2.0426443,-1.444722,1.8841864,1.5091939,3.5432475,-0.6525164,-0.5954555,1.1314293,2.3547738,2.058076,-0.59817225,0.9274403
war,2.423137,1.4523854,0.683834,3.943507,0.0925908,2.3380113,2.8949347,1.0274044,2.136689,4.2103834,1.0241247,1.5900557,-2.65218,-1.2230222,3.6712985,-1.8634402,-5.432811,-2.4028933,-1.292566,-0.2510077,2.6563363,-3.0912375,1.9391601,-0.09344136,-1.5254084,4.2128296,1.3024626,-1.0684712,-5.315129,-1.4711905,-0.44328013,-0.4473427,0.90523124,-1.4126797,-0.36778563,1.7858814,-0.6172518,3.7806118,-4.0070534,2.1690187,-0.81047666,-0.37934676,-0.32921886,-1.308813,-1.7083436,-1.7094287,3.1777666,0.32173946,2.1891985,-6.980793
during,1.589421,3.3332598,-1.9255617,0.8226503,0.5575605,-1.374164,-1.724267,-1.6734312,0.65452915,0.40946224,2.1596353,2.099248,0.11964126,-3.1203282,2.7698698,-1.2610905,1.3236214,-0.7547515,1.6154768,0.41251546,2.180088,-3.3305562,1.4400659,1.3763326,-1.0991018,0.48548058,-0.96489984,2.45126,-1.830269,-1.4473528,-3.0729363,-1.9851027,0.7941587,-0.7533609,2.387579,-1.0597596,-0.00019693577,2.1492164,-1.8068117,-0.4161398,-1.8412427,-0.20095187,1.1010783,-0.49545074,-4.0441813,-1.9472845,1.4056845,0.60157835,1.3780797,-2.0514956
united,-3.1586459,-1.6515603,1.2355927,3.1293404,-4.27314,2.3925645,2.3148289,1.8375499,2.827947,4.8118486,2.8609254,-1.0835837,1.5720265,2.5263147,3.5653229,4.9977145,-1.8028637,-1.9187365,-2.349137,2.705033,-2.1245186,0.060906373,2.3206108,-0.7132993,3.4062445,-4.7900734,-2.461251,0.54839444,-2.6468976,2.2415528,-0.48439658,3.2496922,-2.7535276,-1.0119532,-5.9567035e-05,3.4792795,-1.4130499,-0.9576607,1.1861372,2.1397767,-3.5384378,-1.7330198,0.013341102,1.121831,1.2469157,-5.2091107,1.0784838,-3.343307,-6.381165,-3.7716713
known,-0.5788205,-0.24220634,-0.9548908,-4.007649,2.5713346,-2.709109,-3.0432513,-2.488787,1.6770116,1.4516714,0.87094814,-1.4985118,1.0496156,2.3284504,-0.8487906,-4.4999266,3.2444663,-0.04192984,2.740177,-1.3239812,-1.0280316,2.4821882,-1.8117847,-0.6105192,0.38058,-1.7845274,-0.44254178,-0.8183476,-0.937701,-7.0377297,-0.45139554,2.7550273,2.5309107,0.31808782,-0.23749563,0.41006804,-1.6006049,0.66989547,-1.9662578,3.2175348,-1.6615906,0.4500776,-2.3625424,-0.38622257,0.3758536,1.2070101,-1.4593365,-3.342166,-0.014823967,-0.8383955
if,-2.6578915,-0.50125825,2.856485,1.6200764,0.86392635,0.5362796,0.93677074,-4.899093,1.8009752,-0.6244196,0.45856848,0.27305457,-0.4447434,-2.147333,1.1988047,-0.42664745,-0.5212114,2.3837464,2.935112,2.00303,1.2036458,1.288069,-0.2943019,-2.0413706,0.66251516,2.9250255,2.1168149,-0.46051925,2.819525,-0.6446041,1.7396781,4.0103407,-4.501538,3.9327588,1.078066,2.5720503,0.0072071273,-0.9397082,0.58703166,-0.66222847,1.9211022,-0.49834314,3.5597591,1.2577789,0.81271213,1.5639933,0.4370447,0.9244194,-0.6989077,2.052514
called,-2.3887947,1.1363578,-0.37968478,-2.5961561,2.4049313,1.5004798,1.0758114,-1.5599599,-0.50412446,2.436106,1.4156938,-0.598862,0.8152037,0.8819227,-0.7454715,-1.5752304,1.1515824,0.19790906,3.4082615,0.8379888,-0.5699918,1.9840071,-2.50138,0.8463293,-0.8936871,0.8072442,-2.721445,0.9132872,1.9908481,-1.6390324,1.3964944,2.155854,-0.54849875,-0.52698106,0.07251434,0.6090161,-0.49564674,0.9259643,-1.2431488,2.604178,-1.7580924,-0.32974377,-1.8184631,-0.39171797,1.3235312,-0.35013673,-1.1050143,-0.9790696,1.2363054,0.12954682
use,0.4107393,-0.77378786,-0.05013191,0.63233477,0.41815522,0.6608646,-1.0945497,-0.7180897,1.7370435,1.1336284,-0.18623164,-2.0995688,0.093520954,0.3877875,-0.8299357,-1.7883089,-1.000424,-1.0830679,-1.3950603,0.77775306,0.01768396,0.83984166,-3.1061733,-1.0755804,3.0533557,2.9167037,-3.0953007,1.0527989,0.41250435,-0.9620942,-0.9655904,0.59398997,0.3678949,0.8988099,-1.2950543,0.64360857,-2.2722151,-0.9860355,-1.0076244,1.7273983,-0.89169824,1.1277211,1.2730963,-2.2546365,0.7829883,0.6754755,-3.3454647,1.192022,-0.72001576,2.1472557
th,1.9474888,2.3098493,0.1766777,-2.4259999,1.364791,-0.89492595,-1.8927937,1.4396365,2.2298775,-0.9364073,2.8195674,0.95698094,4.23462,0.5048837,2.506246,3.2478108,0.01779948,-2.3179426,5.1470633,1.3787086,0.09421486,-0.9095362,3.999171,3.0560853,0.10512907,-2.1608396,-2.9802232,-3.8185034,-1.2096567,2.6047742,-3.466251,-1.5554127,4.1311736,-2.862473,-2.1272597,4.62816,-1.0486844,0.24500243,-2.1095629,0.6134051,-4.345798,2.182621,0.20112303,1.7780492,-3.2418041,0.9218217,2.0970116,0.86433536,-2.4086637,-1.7159647
system,0.63445336,1.5910555,1.2027303,0.46106052,0.8673097,1.98156,-0.8860175,-0.8887182,0.6306228,-0.47641608,1.1894932,-1.8255231,0.040255547,-1.5900598,-0.79522824,0.28536093,-1.7460628,0.74335915,0.40484217,2.568873,-0.6233003,3.3846126,0.18812424,0.8855425,3.3202736,2.425027,0.23143807,1.797178,-0.122684084,0.28447104,-2.8957913,0.11928445,-0.364804,0.82807934,-1.4126576,-0.33592272,0.13408932,-0.8532261,-0.16052015,0.43821922,0.3951871,-0.4931033,-0.85115683,-3.2905967,2.7763913,0.99272466,-0.8480048,-0.9163572,3.4050949,1.1550906
often,0.68672746,-1.2318168,0.7917175,2.1625736,3.346335,0.5878837,-1.7988315,-1.4825952,-0.10736659,2.4220662,-2.2622182,-2.1554363,0.44133866,0.45026314,-0.64299554,-0.2447163,1.4066068,2.0580237,-0.08472918,3.39386,-0.14336263,-0.4586955,-1.1475798,-0.9770834,-0.25637186,1.1654555,0.26963347,1.7814697,-0.83605385,0.14911433,1.5648266,4.21421,-2.2988346,-0.2522853,-1.1573936,-0.6289633,-1.1185739,0.7078566,1.125461,-0.33609793,0.6197351,1.3271844,-0.8393267,0.46021834,-0.23067953,2.065224,-2.9480915,3.0858183,0.83105224,1.5669847
state,0.36127254,1.7416888,1.6926366,1.922598,1.4954251,1.754493,2.7149553,-1.3349392,0.059332043,1.8992435,2.4853714,-1.2745967,-1.672728,-1.7807751,0.41362217,1.4760324,-1.1865472,1.9425364,-0.17624973,-2.2781665,-0.8342499,2.5701685,-0.12664488,-0.83727074,1.6879687,-2.2847424,0.24571307,-0.7514183,-1.5564148,-1.1979777,-2.4411795,0.0015256323,-0.6805771,0.9202546,0.4858204,-0.9209549,2.2570965,-0.95373577,-0.9187266,-0.8152241,0.80804104,-0.027274892,-0.19200274,-1.270312,2.417484,-0.47217575,-0.23709181,-0.8925001,0.32102075,-0.093912564
so,-0.8138499,-0.46592426,2.802847,0.26927203,0.9853625,-1.5007399,-0.48720437,-3.013667,0.8390278,-0.08114642,-0.5240131,0.1560325,-2.3310685,-2.1930816,0.26405123,-0.38553733,0.4023541,1.8730665,1.2057931,1.1185349,0.113393046,0.5137745,-2.089841,-0.6221528,-0.01498197,3.2696292,-0.62900126,-0.7232883,0.4387731,-0.3397534,-0.16892846,2.3210766,0.4092435,4.0088706,1.4607112,-0.2672139,1.7369109,-1.0540458,2.1814427,-1.3419341,0.22245565,1.3114514,1.6553302,0.4171545,-0.6409456,1.9902549,-0.32981858,2.0023737,0.15822762,1.6009605
history,4.5807557,-0.4725982,-2.499016,-1.430227,1.1931363,-1.2495048,-0.20615163,0.79957205,-0.0108735915,1.9398988,0.6430363,-0.15976772,0.2958061,0.25812474,0.38980994,3.1226332,-1.5031872,0.62551504,0.23447116,-0.5809663,1.7456206,1.1589649,-1.6711003,-0.3841264,1.1729558,-0.85683984,-0.26236132,0.12827455,-1.7891897,-0.23317783,1.3609493,-1.9954004,2.288622,-1.4113266,-1.3795118,-0.32668754,-2.5062613,2.4218094,0.65837926,-0.74816436,-1.915636,-1.4101331,0.20719472,-1.1376059,-0.007478833,-1.1093028,2.2085905,-2.0667048,0.5674385,-2.1112761
will,-3.832044,1.2069954,-1.9638988,-1.0352957,3.1776428,-4.4510727,0.73697317,-0.6842105,0.49509445,-0.9118979,2.126975,1.8127716,0.50493693,-2.1871576,-1.4542109,-3.89228,-2.9349833,0.35684022,-0.91192126,0.8458324,2.3680892,-2.4627657,-2.6324956,1.9532819,-2.6249144,-2.6688137,2.9741733,1.1244233,2.092616,1.0862795,-1.2931843,3.7032647,-2.559818,0.44765615,4.074763,1.543279,0.86767673,-1.2308434,1.8757004,4.102712,4.368129,-0.11962979,1.3793275,-2.6583104,5.226732,-1.1196246,1.5975041,2.2953026,-1.1664928,2.0181308
up,-2.5005884,0.74163955,-0.78050727,-1.7283477,-1.8035141,-0.28844935,-1.8727388,0.541154,-0.10495864,0.9679205,0.42412773,0.6850193,-3.180364,0.1573304,1.0132204,-1.9158627,-0.22347628,0.8839982,0.16837204,-0.87292224,1.4109447,-2.040417,0.45358598,0.76626873,-0.95267403,3.326303,1.2526435,0.07008229,0.28062892,2.4264944,-1.3142959,-0.28218132,-1.5035552,1.3945428,-0.77897483,2.6231494,2.8347807,0.6088077,-2.0406213,-1.4552238,3.1515188,-0.030825954,0.29247332,0.7842434,-0.97872615,-0.52432525,0.8835391,1.5775268,1.761532,1.0644646
while,0.15682866,-1.150415,1.6306033,-0.35199958,0.26160523,1.0602618,-1.2368916,-2.6369097,-0.11997307,-0.24331829,0.8798099,0.4062753,-0.3809122,-2.144293,1.9251974,-0.0087490305,-0.32168207,1.0477321,1.7243067,0.75925845,0.2101184,-1.0700251,0.61125475,-2.1192644,1.0432001,0.85558164,0.2684543,0.97154826,-0.40289283,-0.10925084,0.7987451,1.9583037,-0.9273918,1.0616083,0.07721187,-0.3701881,0.36686873,0.70532554,-0.011657885,-0.28931174,0.72852397,-0.31176955,0.28037122,1.1265486,-1.3054949,1.1830618,-0.26654035,-0.5052738,-0.54908556,2.4641037
where,-1.1614107,-1.34035,1.5338074,0.5655715,0.15205505,0.91070855,-0.67499375,-3.3242874,-0.056664262,2.1650794,1.6958418,0.73583996,-0.030002574,-0.39538118,2.6852145,0.16848888,0.04464376,1.8848146,4.1676407,1.1949004,1.5656415,0.015607062,0.8558824,-2.0710938,0.18705443,1.081991,-0.5210317,0.8948169,0.5172096,-0.3723984,1.1022071,0.90268964,-3.7572808,2.0773287,-1.0113039,0.5010441,0.7749356,1.9430672,0.9945934,-2.5503612,-0.6506876,-0.17136413,-0.19024694,1.3928357,0.038443994,0.27613932,-0.83974725,-0.700176,-0.0949892,2.4212883
city,1.2789057,0.3449953,1.3132604,-2.3481221,-1.7643723,-1.3610225,0.14838739,0.5922732,-0.47824326,3.1364684,1.5869507,-0.9873306,0.9544805,-2.140778,1.628396,1.656814,-0.033025865,2.0039997,1.0854697,-0.26416337,0.08327514,0.28312218,0.7533287,0.74258506,1.6907413,-1.5195322,0.47451058,-0.90346646,-3.064194,-1.6152276,-1.4098513,-0.6440068,0.9821517,1.9686697,0.22344868,-0.3593,2.960081,0.077032425,-3.2162533,-3.25921,0.120811984,0.6666998,-3.9714994,-1.0359987,2.1288164,-2.5864,1.4844714,-1.0844269,0.8095599,-0.33646294
being,-0.9136578,0.26492834,1.9066054,0.8548082,-0.5671884,0.7110579,-1.3807871,-1.155567,-0.28160158,0.27450624,-0.5024013,-2.7975256,-0.42508823,-0.69747347,0.2043357,-0.55425435,-1.0023314,1.0142764,0.6658434,1.7874202,-2.7568727,-1.1497833,-1.090263,-0.9214266,1.1010938,1.0242146,1.8259869,-1.5219375,-2.089966,-1.3986343,1.057267,1.5608925,-0.25997773,-1.790363,-0.2487271,-0.015436062,-1.2900491,-2.608651,-1.0110449,1.0852726,-0.27160454,0.48585516,-0.7238998,0.09525164,-0.43764907,-0.61587393,-0.4684114,3.0802228,0.8141931,0.47779682
english,1.3485657,-3.851329,-1.1650453,-0.08063051,1.9302328,2.7040043,-1.048808,1.5811753,0.90638256,2.9966407,-1.5948614,0.574422,-0.31303683,-2.1072335,-1.9075656,0.22831178,-0.5975813,-2.2138422,0.8218839,0.32497287,-0.044746015,1.6562163,-0.05600385,0.9013657,1.6759663,0.04461422,-1.8565284,-3.7883067,-0.10354541,-1.5485827,0.6465503,-0.15624897,2.4078043,-2.3793821,-1.5189769,1.4919459,-0.15746653,1.874709,0.681405,-1.2119085,0.7595014,0.05105005,0.18105741,0.15809824,-0.78196335,1.0294976,0.7145975,0.28923243,-4.628031,-0.561111
then,-1.3607336,0.50573987,1.1532184,0.5743942,-0.10254797,0.54622406,0.31375125,-2.2738116,0.87417233,0.825939,2.029014,0.414656,-1.9820565,0.9046334,0.7870254,1.0447704,0.20441964,1.9292474,2.0183668,0.7281538,-1.4035236,-0.5919573,1.241138,1.0901653,-1.5252542,2.8298633,1.1478622,-1.4957608,0.6927659,0.23814428,0.3495457,0.2109953,-1.517123,1.5137267,0.61166435,2.146518,1.1694882,-1.0049003,-0.1393178,-0.10487383,0.002729526,-0.23277839,0.53093034,0.17510292,0.31402108,0.5180571,1.1534022,1.8725733,0.41268548,0.8224613
any,-3.3089728,0.31400493,-1.3983762,1.4215888,-0.4111081,-1.4714575,0.48893288,0.13501012,-1.9671967,0.6465664,-0.82084477,-1.6508619,-2.2071574,-0.8998616,-2.5482855,0.552754,-2.065947,1.1901901,0.7589243,2.1102905,-0.34954017,1.4714144,0.04034235,-2.9479191,1.5246161,1.1971577,2.2429101,-1.8477441,2.481758,-0.5454783,0.9907244,3.0929232,-1.0457628,2.0672102,0.021806696,-1.0494555,-1.3964359,-1.6881183,-0.8891458,0.6430967,1.2830912,2.1263404,4.842072,2.3865798,1.531879,1.3303409,-3.2367773,1.8692923,0.36472332,0.55537516
both,-0.31528658,0.66022927,0.28105494,2.0063486,0.78921795,0.5054485,-1.5424435,0.14374575,-0.06866684,1.7542949,-1.0395691,0.47977942,0.6843231,2.5155065,-1.413065,2.347789,-0.18077035,0.5254677,-0.63346994,1.236563,-0.830708,-0.861721,0.1589226,-2.2131531,-1.6613749,0.81214315,-1.3232073,1.7000496,-0.020564925,0.06863442,0.38243458,2.1745048,-0.30115506,-0.023894902,-0.21114363,-0.60331553,0.013332915,0.6038361,0.18763365,0.8728235,0.71841884,1.685326,-0.5305967,1.5277584,-0.15264115,0.5921033,-1.268378,1.5534109,-0.54858464,-0.39366338
under,-0.9697754,1.9844245,-0.22482799,0.9308399,1.5708303,0.7574754,0.48225668,-2.101231,1.7256756,0.5249605,1.5525166,1.8367921,-2.238352,-0.8723538,0.5856276,0.5083572,-0.13808252,-1.9063684,1.2397779,-1.4779054,-1.4603289,0.9321371,1.9397104,0.4138083,0.71965396,-0.32369828,-1.4328666,3.0778944,0.47445425,-1.4926537,-2.3288765,-2.4684236,0.28100273,-0.06019214,0.0025895732,-1.0990057,3.4797425,0.56484544,-1.6369164,-1.0528942,1.7636415,-0.69296527,1.5501884,1.2206911,-0.8309235,0.07279208,-0.9385547,0.025227845,1.1320292,-0.930776
out,-3.5805643,1.9930766,0.003744161,-0.47525227,-0.2245217,-0.26097277,-2.3732133,0.70990247,0.68704456,1.6130955,1.4012611,0.63545954,-2.679406,0.94897,0.85169464,-1.5216659,-0.5790232,0.632115,0.31695092,-1.9893979,-0.06568888,-2.6493747,0.50155824,0.16883291,0.53729326,3.0436416,1.8942071,-0.26168784,0.48447236,2.2834337,0.10537971,1.2943525,-0.97438866,2.0439265,0.524202,1.7106054,1.6944001,1.3832791,-1.6244309,1.1488092,1.4431286,-0.64431256,0.97973305,2.2011178,-1.000599,-2.3688118,0.4752786,1.4995424,2.480594,0.47816098
made,-1.0247099,-1.9066994,-0.38254398,-0.53885996,-0.42189425,0.62862325,-0.78249955,1.0426733,0.23786908,-0.5184925,2.0296857,0.13502452,-0.20668125,-0.6319446,-1.3060187,0.72387034,0.4354039,0.64535344,0.19585231,1.1208758,-1.0509509,-1.9643611,-0.949112,-0.33659396,-1.9750051,1.1577458,-1.3291823,2.5338962,-0.5260662,0.09000602,2.409796,2.530299,2.3949916,0.4165904,3.4827251,1.9151031,-0.49325722,-1.0431417,-0.71289784,2.0009308,-1.5070322,-2.4138718,0.094497874,-1.0696102,0.33494613,-0.3343178,-1.66953,-1.94378,-2.6892726,-1.4369723
well,2.587077,-0.9086488,-2.1983619,-0.6630256,2.652463,-3.653726,-3.0945942,-2.285732,0.50182205,-0.3613486,-0.026256992,-2.56185,-0.23686856,4.05185,-1.7951148,-3.0247416,2.3295898,1.7421119,-0.6149857,1.8256394,-2.5029802,1.8037195,2.4598002,-4.606649,1.0187517,-0.17920858,2.8544643,0.032814223,-4.2420645,-3.6282055,-0.46782857,1.4365598,0.3450037,0.40217206,-0.8369411,-2.0766647,-0.20543176,-1.8860472,0.045951854,-0.6338023,-0.056204215,0.29594937,-0.6164513,1.2090986,-0.71413326,2.246512,-0.909321,1.7312703,-1.6268853,0.90140986
her,-1.4257226,0.5199617,-0.22736648,-0.5544322,-0.5137542,-0.7105825,-0.70403916,-4.060882,-1.5596088,0.38329476,-4.016368,0.01264012,-4.1185284,0.11391199,2.0437107,0.1316133,0.4906354,2.8101504,-1.639402,-0.5283607,-2.5136251,-4.4843464,0.24943592,3.0942683,-2.8804023,1.8731652,1.2287203,-2.1091924,-1.9802593,1.6535597,1.4528632,1.0406061,3.471194,-1.1040101,0.21102841,-0.06745616,0.081176385,-1.1596365,0.74965346,-1.9626757,1.0876143,-0.6737815,1.2380147,4.299627,1.3019502,-0.73019546,-0.4880167,0.7613539,-3.4612331,0.40688252
e,1.8386594,-1.8614845,-1.1803834,-0.4768831,2.2037077,1.2861085,2.8987195,0.18327309,0.93466115,-1.1273971,-0.3991031,2.0027502,-0.50997335,0.25293773,-0.3396765,-0.9011194,-1.4764171,-1.6725022,-1.3452567,-0.8851032,2.7638605,1.6206931,-0.2045878,-1.0764681,-1.3446969,3.0031703,1.6083248,-1.971696,4.018214,-2.2369866,3.2033873,-1.5090401,-4.198529,-0.5022864,-4.015623,-2.5191443,0.7029914,1.9258214,-2.159551,1.3902053,-0.7749142,0.32856098,-0.7674983,-1.1107926,1.8628105,1.035525,1.9165722,-1.7614876,-0.18179293,4.1120324
number,3.666834,0.75947434,0.31952965,1.8552657,-2.2486997,2.7551312,-1.8900478,0.5356518,-0.51009285,0.02963318,-0.678613,-2.1559684,3.4816177,0.7949568,-3.3734283,1.5811194,2.2996538,1.2885019,-0.20437041,1.1066481,-0.09207009,-0.89300907,-2.9029868,-0.5656547,-0.39680922,1.2236116,0.4032283,2.1597946,0.7306249,-0.5545524,-0.6044526,2.0957816,-3.4341528,3.2913122,-0.59944576,2.3870304,0.6940613,0.8534751,0.42909524,0.855789,0.15387914,-0.22783385,0.8235157,0.6508909,1.9831594,-1.9493611,1.2004582,1.3682473,1.6834468,-0.75224376
government,0.82557976,4.530308,1.6179062,1.1409693,0.39347255,2.3718355,1.8904512,0.1781571,-0.29098094,1.8286196,-0.7337678,-0.9306201,-2.6310437,-2.56441,0.33458188,1.9064107,-3.017489,1.6701394,-2.766015,-0.94433004,-3.873295,-0.34614977,0.97603977,0.69396645,1.90907,-1.7681255,-0.4924599,1.6509371,-2.0064228,-1.539801,-4.1644115,-0.06221724,-1.5120468,2.3276641,0.2529107,0.7733754,1.4117836,-0.085880846,-2.7765293,0.27833456,2.3413312,-0.9178928,-0.33055398,-1.2122842,-1.0651593,0.47429,0.06931599,-0.96929294,-0.61327165,-1.3532877
them,-1.7226374,-0.38628945,1.0309848,0.52508485,-0.32710454,-0.7884368,-0.7951403,-0.95142996,-0.26329827,2.89866,-1.5972658,-0.34272778,-1.9888505,-0.16447818,0.15249105,-0.3988275,-0.98274505,-0.6744486,-1.0376815,2.0989594,-1.3987982,-3.5165646,-0.8494868,-1.6297742,-0.89783585,1.8006345,1.7374064,-0.7094608,-1.4761847,0.55819416,1.2367263,1.9890677,0.6647259,2.9431238,-0.3520475,2.2624207,0.9702913,-1.231611,-0.83557594,0.40117788,2.7114384,0.6239684,1.1033328,0.2721358,0.8048674,1.4566966,0.4761408,2.9916294,-0.56655663,2.2787075
m,0.19272101,0.09024313,0.81417036,-2.462137,0.640268,1.6451225,2.5938609,2.0297246,1.7874409,-3.9648645,-0.35507232,2.8876505,1.898544,0.048363492,-1.276512,0.31881526,0.28975788,-0.73658663,0.41589203,-0.56548667,1.80944,0.5780498,-0.9029218,0.6011336,-0.49789372,2.8988428,-0.48040727,-5.065656,0.69393307,-3.0514507,-0.5695552,-1.7879312,-0.39397976,-0.98406005,-0.81461436,-0.23855695,1.3090221,0.87373906,-0.7329637,-1.514966,0.36530048,1.4013007,-0.98998404,-1.5051543,1.3291066,1.6712724,1.8954502,-1.0301464,1.9858546,0.9955052
later,0.5815615,0.18312225,-1.0517243,3.0762024,-0.69771075,-1.2001312,-2.1345763,-1.4271598,2.0822563,2.2663465,0.7700109,-0.12655452,-0.95892334,-0.41016823,-0.11766965,0.15798512,1.2039549,0.42329076,-0.54285854,0.8530137,-0.8608981,-2.480886,1.7960762,3.585603,-0.5090477,0.814334,-0.6517418,0.057369232,-1.2920332,-0.6395999,-0.72955644,0.19706888,2.158492,1.384592,0.19558786,-0.48374712,2.044836,-1.0199299,1.5450336,-2.8840232,-2.7895267,-0.59466547,1.1215534,1.241231,-4.153037,-0.395396,1.9348665,2.3705108,0.22999367,-1.0812594
since,1.8614883,0.5925153,2.0428452,-0.10361983,0.54342926,0.009252803,-1.278707,-0.86730105,2.149905,-2.1577787,0.7453795,1.5947062,-0.142191,-2.193047,1.69063,2.9023411,-0.6174031,0.41868737,1.6948603,2.0451055,2.3645027,1.1413516,0.12833233,1.1102887,-0.7333386,-1.007886,-0.3085582,0.9220762,0.61791945,-0.5336762,-1.7572508,1.0035841,0.3655093,0.78902614,1.2123393,0.1810135,-0.62026864,0.6374408,-1.6371238,-0.2865736,0.29505104,-2.0330794,1.5629288,-0.9040962,-1.6237438,-0.9586,1.4200304,-1.6123036,-0.5646899,-0.13247228
him,-1.5780421,0.5199238,0.06096435,0.1941223,-0.31687886,-1.3886915,0.1754662,-2.680638,-0.26482436,3.403192,-1.7276229,-0.6795138,-3.8560095,-1.390044,1.7881407,-0.7505634,-1.046962,0.81558865,-2.7530613,0.19137214,-3.5915604,-6.333917,2.0120578,1.5383636,-1.5113674,2.5703435,2.135175,-3.0659244,-1.4753075,-0.19291793,2.9491546,1.1464287,1.6581942,1.8353708,1.2081646,2.1322274,0.2978388,-1.5846007,1.023343,-2.016616,2.1811934,-0.6875776,0.31330916,2.3798888,1.2988658,-0.79529107,0.3329259,2.5771463,0.10787639,0.8561027
part,1.6343985,0.9447562,0.4559419,-1.2000525,2.2562141,-1.326398,-1.7754514,-1.5226971,0.73494476,2.231559,1.0998461,-2.0713954,0.63796204,-0.31775513,-0.037857234,-1.3765545,0.58265626,1.2175858,3.4959278,-1.2935377,-0.334974,1.847385,-0.62027556,0.6527526,1.8178629,-0.31520718,0.94315505,1.3294255,-2.5439177,-1.472225,-0.6143244,-0.19219857,-0.15355596,2.001461,-0.037538752,0.939994,0.45033428,0.21271062,-0.80090594,1.8810972,-1.534353,-0.03770039,-1.111439,1.6149255,0.8704785,-0.7390733,-0.06799994,-0.3626878,-0.762477,-2.387187
name,-0.3109913,-0.7410301,-2.2503893,-2.1559818,1.9687384,1.8695378,-2.084826,-2.9905798,1.4055779,3.175597,1.0121216,-1.1517203,-1.4718024,-2.080662,0.15395436,1.934199,-0.25235268,1.5701565,1.5140281,0.7957888,-2.87249,0.8030657,-3.4133246,3.5024836,3.5484903,1.9409142,-2.3070123,-1.376464,1.463417,-4.1188083,1.8654538,-0.9140416,0.20809697,0.021474333,-0.8611359,-0.6362043,-2.2994003,0.3051018,0.2672192,-0.61065483,2.5124528,1.4915605,-0.39380375,-0.3213264,1.3972533,-1.7842096,1.5526488,1.082186,-0.49353346,1.1143229
c,1.4091271,-0.79112494,0.2199012,-1.9892181,0.84825844,1.6774968,1.6979111,1.618542,0.8380456,-2.6683977,-0.20256172,1.8867589,1.1221399,0.99188375,-0.6466202,0.21827939,1.740221,-0.1876713,0.32701018,1.658883,0.8490518,2.5881228,1.1374247,0.5585308,0.21485816,1.4829448,-0.023863126,-2.2822764,3.8503928,-2.0110364,-1.6326654,-2.0630705,-1.176823,-2.2902167,-2.2845845,1.9024177,-0.39028552,1.0176017,-0.736001,-0.912381,-1.0940603,0.23759083,-2.2413294,0.11852446,2.6931956,2.2509575,2.4578378,-1.2112806,-1.1059473,1.1713028
century,6.1707864,-1.1879612,2.9380088,0.8804533,-0.9271718,1.92897,-1.4658128,-1.1918188,4.9291353,2.5128634,-2.7098618,0.9520173,-5.641511,-3.9058027,0.3313032,1.6782111,-0.001763812,0.6272745,1.6261702,-1.3930243,2.1125777,-2.2504401,-0.9252507,0.97700304,0.007685641,-1.2061542,-0.12676628,0.9935352,0.5983574,2.3689358,-0.22313048,0.2878241,4.0403247,-2.3545637,-5.5863433,4.565739,1.9299916,4.9234753,-2.8709965,2.9966283,-2.5011704,-2.6489995,-5.3477025,-2.8458354,2.682674,-3.3333015,5.0441847,0.85290617,0.0396123,0.77740973
through,-2.3181846,2.4666827,0.64524776,1.533815,1.3556737,-0.7846938,-2.03917,-1.1298316,-0.65036917,-0.60543823,2.5559902,-0.19808614,-1.3054011,1.2468743,2.083552,-0.27983782,0.2393423,0.05167847,0.62853414,-0.68138194,0.37148082,0.5983497,1.4123564,-0.5840189,0.35613075,0.6875389,0.77379584,2.6817708,-0.9066262,1.7938827,0.24553613,-1.4194336,0.4365816,0.06093526,0.73160315,1.4144125,1.7816137,1.6082947,0.56018203,0.57891923,1.1614459,-1.1069465,-0.086951084,-0.75983,-1.9768463,-1.1736547,-1.5907098,0.70524055,0.7197722,1.0583242
because,0.112166904,-0.66919714,2.6300855,0.8256977,0.91606325,-0.3646393,-1.5572356,-3.5221722,1.8735218,-0.5529801,1.8831459,-0.95633715,-0.5680874,-3.5710456,1.0664451,0.07167868,-1.4467841,1.2151192,1.7728502,1.2361901,1.122773,-0.46621174,-2.34056,-1.9259484,1.0841092,1.3504448,-0.87311345,2.6869907,0.3551782,-0.43179908,1.5657729,2.1533842,-2.0538707,2.2157676,-0.51663905,0.4512456,-1.0254002,-0.02379259,0.9240587,-0.09214159,0.15538317,-0.10946186,1.0360855,1.1127282,-0.1996602,0.67311376,-1.6752758,0.70176494,-1.0842327,1.0542796
x,-2.0564606,0.4885704,3.0448177,-0.1936418,0.70040375,0.35538265,-0.27426296,-0.33258253,0.58781624,-3.1308064,-0.022473546,1.3374225,2.2884321,1.8903576,-3.032502,0.8729714,1.6345361,-1.6425064,-0.023542369,2.027659,1.2907695,2.2253067,-0.4077751,1.3668057,0.04475466,3.2469952,1.051878,-3.1439052,3.9388332,-1.1083059,0.18110271,1.0978857,-1.1911398,0.7573051,-0.690241,1.8232566,-0.57922375,-1.9311423,-1.7481393,-0.36776057,1.1332711,3.903745,-0.51015854,-2.254771,4.585681,1.0025603,4.301916,-1.0551376,1.608113,0.4536605
university,2.1938071,0.74825,-2.1388836,0.81029755,2.2921116,2.3139858,-1.4945734,2.3159964,-0.15717416,2.0195584,5.7220206,-1.7528069,2.020939,2.0505507,1.0088919,1.4748787,-2.0784695,0.7056791,0.80946076,-2.9528136,-2.4328334,1.2743931,1.4422423,0.038131397,-0.8404964,-1.4030005,0.6778864,-5.0149603,-0.52269757,-0.18234538,-2.1088684,-2.5487266,1.1011626,-0.028168535,0.27566046,0.35621417,-1.0189272,3.32091,2.6308925,-4.504587,-3.2311544,-1.6511723,-2.0409515,0.51535976,3.4387085,-1.1246871,1.6698456,-3.4054267,-0.63875914,1.3576143
early,3.1129017,2.3571115,-2.023091,0.018635677,-0.9194064,-0.8779799,-3.5421777,-0.379132,4.169408,0.33723712,0.506995,0.46618134,0.5267563,0.45745322,-0.039618928,1.0722133,1.7555841,-0.7720065,-0.63713706,1.9702653,1.1942703,-1.4537723,0.57400966,0.67064655,0.18353854,-1.693845,-1.0393285,0.62334967,-2.4871993,1.2536054,-2.0291145,0.28181353,3.375433,-2.0647821,-0.1195682,0.33801237,-0.8100926,0.10050981,0.46884117,-2.324599,-2.671443,0.87995636,-1.3749282,0.47894624,-2.8544304,0.35678914,3.5223467,-0.17688562,-1.0612355,-0.41144392
life,0.12956947,1.6369402,0.22507459,-2.444228,0.1523789,-1.9598949,-1.9371803,-4.445292,0.72852176,-0.25478312,-0.24318776,-1.6241437,-0.51179594,-1.4475042,1.076258,0.12401862,-1.0359952,1.5692787,-1.3861492,-1.3169315,-0.6330695,-2.0171328,-2.1415389,-1.2604352,-0.837286,0.86274576,1.6272291,-0.7734979,-1.3857795,1.4559939,1.7474289,0.09711809,2.7636764,-0.9082417,-0.6849042,0.0466535,-0.51918393,0.79139274,0.16162828,-1.7605755,-2.2986612,0.9248691,2.037457,1.1808234,1.1198817,-0.18351339,2.8377361,-1.3450977,0.2607435,0.61656016
british,0.15074232,-1.350526,-0.068863764,1.1543298,-2.447767,1.3215331,1.4670258,2.4560158,0.9662763,3.3019004,-0.3538564,1.8746476,-1.5604842,-2.2935631,-1.2489057,0.19258577,-1.1786308,-1.6940293,0.49190134,-2.120211,-2.031612,0.08464054,1.9105474,1.651134,-0.42646572,-2.126962,-2.2138603,0.19059077,-3.2932365,-1.3520666,-2.2375271,-0.54436636,2.3494568,-1.5659924,-1.1514156,0.80007446,0.04487923,1.1555524,0.76882213,0.571912,1.6425103,0.582881,0.39189705,0.31475338,-1.655155,0.05028671,0.07042726,-0.693586,-2.2762525,-1.6658442
year,3.3994792,0.13747919,0.9876904,-0.5580834,-0.9445744,2.3278809,-2.016987,-1.0878853,1.000167,1.9073485,-1.0122281,0.9541521,-0.21426065,-2.1892543,1.2221179,-1.0687114,0.28629723,4.3365283,0.78481114,-0.92750865,0.28329933,-3.4976742,-0.43534455,3.5621784,-3.1027744,0.7130334,0.86681,-0.8894858,0.84406924,-1.1902647,-3.9008305,-1.3589357,0.53235126,-0.45513454,0.9521791,1.0133394,0.44733447,-1.4600252,-4.3409824,-1.6305697,-1.0246639,1.5870942,2.8580506,-4.201024,1.6956487,-5.9991484,3.5815687,-1.7502534,0.2725913,0.4774158
like,-1.257429,-2.056223,0.5397936,-0.43115065,1.7034663,-0.0644142,0.21728171,-1.663226,-0.067158,0.7508711,1.2601762,-0.021690354,0.43256074,0.8193956,-1.4587739,-0.7125891,1.3753755,-0.17410317,-1.5667632,-0.058202468,2.1555052,1.0993547,-2.007374,-1.9598945,0.98783,2.573805,-1.2831346,1.1404982,0.082407616,0.3750582,2.370182,2.5942647,0.2949466,1.2156956,0.60429245,-1.3876852,0.73737335,1.8220997,1.7108142,0.56925637,-0.49737766,-0.3595136,-0.34873134,1.6880571,-1.271659,-0.5502278,0.023988131,1.2908856,-0.58659613,3.4174464
same,-2.9310117,1.2700572,-1.9234637,0.32259047,1.3716172,-0.71062684,-3.8841002,-0.21290207,-1.0392852,1.509111,-0.23578943,0.43844518,-1.4639053,-0.4031226,-1.3429223,1.2027148,1.3626063,0.061247807,2.2316546,1.2278756,2.2233748,-0.28964564,-0.16238357,-0.4878796,-0.35711306,0.83390474,0.8126403,-1.784658,0.33007538,-3.5709486,-1.2868724,2.437004,-0.73266965,2.4017622,-0.8403004,-1.3929496,-0.5767765,-2.6629171,1.5645629,0.25797832,-1.127524,2.2153084,3.6475458,1.29325,-0.25199586,0.8210524,-0.34495792,1.25413,-0.9744391,0.74160177
including,1.10096,-2.4064505,-1.646546,1.8308089,-0.8542654,-0.4329518,0.25534326,-0.138628,-2.8208818,-0.8169202,0.9380509,0.6404983,1.948089,1.0150263,-0.6063607,-0.10835162,1.3392137,-1.5779868,-1.7613436,-1.4627925,-0.49803585,-0.0004667444,-1.1473353,-2.5113635,0.7185846,-0.98286545,-0.28763005,3.10201,-1.0228965,-0.2765924,0.37186423,-0.12494689,0.970976,-1.2440175,-0.6269237,-1.432069,1.5578582,1.087267,-0.8223771,0.5907159,-0.083465084,-0.9528341,-1.053434,-0.13307394,-2.2271218,-1.3468758,0.55976456,-1.4829551,-0.37938985,1.6579462
became,1.0497395,0.04416285,0.7979008,-1.0391089,-1.4739708,-1.2805434,0.24062684,-3.0357323,-1.1063796,-0.23252499,4.2160983,-1.3527731,1.0165446,-2.1720567,-4.062475,0.31492677,-3.09355,1.1539307,-0.36589447,-0.25823092,-2.9427495,-2.0375116,1.3761488,1.4727603,-0.25239322,0.4184236,-1.2572474,-1.7612017,-1.3653213,1.9618738,-2.2928057,-1.5631936,3.0419168,-4.621732,2.9123168,-2.19222,0.061291512,-0.8964835,-1.2752883,2.3893666,-3.8285506,-3.4491534,-2.7555127,-1.8481632,0.45620266,-3.0289247,1.4658782,2.6571062,-3.0946608,-3.81357
example,-1.1286991,-0.9236402,-2.2233553,-0.8404385,0.50996524,1.1449062,1.4651668,-1.0309271,1.6550413,2.078571,-1.3312122,-0.6605171,0.49004042,1.0471299,-3.0624294,0.23994717,0.8517861,0.98778933,0.23105009,1.5468041,-2.0990183,1.9148494,-2.4913583,-1.4242327,1.9493189,2.6785958,1.0900055,-0.8487606,2.7517323,0.19790535,0.7327911,2.8588138,-1.8403695,-1.4534684,-1.1264802,2.6468604,-3.6934865,1.7173152,-0.90598553,0.9541249,-1.486738,3.3444068,0.07705069,-1.3555083,2.0040019,-0.6393718,0.41516206,-0.6940353,-0.98152727,0.5774571
day,3.007153,1.3777999,0.68720055,0.094834395,1.3646655,0.13871175,1.0873773,-0.25722364,1.5070803,2.4804113,-2.0000005,-1.3371525,0.48112693,-2.8415012,3.1458328,0.016740652,-0.07892618,2.7595935,1.7813311,-1.57815,3.013011,-1.4457059,0.78543466,0.05028807,-2.1454883,-0.29601812,-1.0098423,1.0940973,0.1827482,-0.40255195,0.013940508,-0.87822527,0.873082,1.67733,1.9942967,-0.13288304,-1.9584785,0.50750065,-2.3788607,-1.0764827,-2.6230557,3.2849483,0.2705581,-3.8206003,1.0004758,-3.8911684,3.491151,0.98492175,-4.171393,0.1944742
each,-3.14288,0.33604106,-2.362059,0.5092782,-0.9086157,0.88301724,-1.5401504,0.252012,-4.806053,0.4420045,0.17096482,-1.221731,1.803988,1.1768558,-0.8827955,3.1086836,1.3787664,2.638445,2.3442137,2.9769835,0.9079244,-0.7692574,0.9077812,-0.13049345,0.24642412,1.551016,1.1946695,-1.6112617,2.2274113,0.89093876,-0.809482,2.3471375,-1.4267957,2.5646887,-0.39021656,0.2802857,1.6496061,-1.6644927,-1.3795155,2.2140434,1.0359645,1.0503613,3.46846,1.1310829,0.53410214,-0.45779532,-1.1055452,1.4100707,1.3521371,0.937177
even,-0.5426376,0.521471,0.58513945,-0.3289029,0.26394406,-0.7417107,-0.48823252,-0.89228153,1.1884727,0.69722956,-0.037675712,-1.2276374,-1.2413543,-0.2181313,-1.4163233,-0.52364784,-0.42664972,0.8631578,-0.94143337,1.8101571,-0.7567375,-0.13538745,-1.363259,-1.8062736,0.37318844,2.3846605,1.9009919,0.1631656,0.7042276,0.503734,-1.0560957,4.497909,1.6711745,0.6743892,0.9490842,0.419948,-0.33057034,0.7740807,-0.88692284,0.44592974,-0.61864704,1.5818506,0.69517565,1.628661,-0.8617932,-1.1212164,-1.6946896,2.6211443,-0.7477351,0.19242129
work,0.10899001,0.762514,0.13002314,-0.23913783,0.6406616,-1.2086841,-2.7475984,-2.737229,0.98542845,0.5234478,-1.5337232,-1.7417163,0.23987012,-0.8050563,-0.43716043,0.38414937,-1.5546865,1.47027,-1.237919,-0.8882005,-2.704025,-2.0124235,-1.7928039,-1.2040102,0.0030678061,3.48404,-0.7318188,-1.1353794,-0.9814612,1.0896397,0.35321233,-0.30017647,0.984126,0.5387541,0.3395849,1.4035091,-1.9152563,-2.1648977,0.71056074,-2.0663784,-2.8061347,-0.7394778,0.0021236236,-0.036136664,-1.0763844,1.9263685,0.8561261,-1.0411052,0.95191276,1.5475577
language,2.547965,0.31682932,0.28471816,-0.7400821,2.8800151,2.1650372,-4.5452604,0.4769877,-0.46816868,2.6364791,-1.5072213,-0.393178,0.13331416,-0.70919675,-2.6515045,-0.40020528,-1.6669676,0.4320123,1.4594239,1.6999364,-1.9764149,4.1107,-3.8758867,0.6378184,4.819999,1.1482106,-0.25121272,-1.9582752,0.68160516,0.5696855,0.85973376,-0.19714116,0.2506543,-1.5522121,-2.3994846,1.9065853,0.11004227,1.3985204,0.73916143,-0.55399376,0.64359874,-2.414657,0.057419937,-0.72049636,1.1490439,1.5633724,0.4967509,1.109742,-3.355087,-0.11248876
although,0.8814342,-2.0369186,2.084554,0.08309744,0.507184,0.75383645,-0.9650761,-2.5835357,0.89404595,-0.9341887,0.35225,-0.24565396,-0.5848158,-3.4489863,1.2661597,0.12532693,-1.5342464,0.8141671,2.195901,1.9975122,0.6282535,0.3653297,-1.1905363,-1.999822,1.3003145,-0.7549143,-1.0014279,1.9495426,0.3607202,-1.6470777,-0.31391102,2.3164196,0.52134645,0.39108545,-0.67755777,0.33610496,-1.2968,-0.2765556,-0.5867816,-0.4481442,0.02473023,-1.3023025,0.75993943,0.6788963,-2.1024196,0.14379695,0.03781969,-0.9198188,-1.3009895,1.627762
several,0.5756235,-0.8470947,-2.8906844,3.434107,-2.4223697,0.98844236,-2.9760134,0.54182684,-1.3460778,1.8689345,-1.2249078,-1.9082942,1.6632084,3.2995203,-1.769433,2.7934227,0.34534544,1.87165,-1.5776594,3.8121135,0.2793372,-3.3292942,0.39144936,-1.5318729,0.3613698,-0.17467056,-1.4890125,2.8079576,0.4563295,-0.9098981,0.2017931,2.6012812,0.32310358,2.8248942,-0.22813764,-0.24843968,1.1081393,2.3588672,0.16002928,-0.19953324,-0.80019945,-0.890296,-0.4325019,1.6620721,-0.9219879,-1.987291,0.48144275,0.53220266,2.7221134,-0.13527666
form,0.23682725,-0.070996374,1.3740602,0.1878867,3.0483644,1.1105173,-0.29185003,-2.9132109,0.2642796,1.8466212,0.76478434,-2.845666,0.18914635,-0.38540465,-2.4917066,-0.05308963,1.5748125,2.3266666,1.0288812,1.5121454,-0.018630704,2.0672383,-2.3973796,-0.2889741,1.2369305,1.8369931,-0.9847206,-0.01874084,0.6819171,0.7147781,0.7368951,-1.870172,-0.949881,0.5382631,-1.0231024,0.19434854,0.14015748,-0.62296957,-0.5151059,1.5917649,-0.29430655,-0.10434029,0.44096312,-1.2160163,-0.02454491,0.4342617,-0.55028343,1.5188149,-0.29997167,0.6327107
john,0.60428107,-2.1123135,-0.10079305,0.4214019,0.48310378,1.1868434,0.81743807,1.1095527,0.4433605,0.64408165,0.33084616,-0.58694935,0.20722827,-1.0033914,1.1880459,1.6980065,0.42823324,-1.6971887,-1.7774135,-2.771402,-1.4041387,-1.2216717,2.6956232,1.8047622,-2.1423125,-0.2657591,-0.36171034,-1.4640903,1.5197902,-1.3157911,1.4852606,-0.23674671,1.9742492,-2.369532,0.140277,0.36337814,-1.5166498,-0.45199743,1.1263233,-1.2984364,-0.59024334,-0.48587552,-1.8177345,1.8079417,0.08940947,1.4960485,4.0735197,-0.91976094,0.0022622882,-0.8749814
u,0.45289648,1.5834199,-0.24753185,0.30148908,0.84404606,2.3967593,2.7094104,1.1841723,-0.10025324,-2.399163,1.5376076,2.7894235,-0.054348044,-1.3024278,1.7383428,2.4359653,-1.3388658,-2.641781,-1.7594302,1.3824794,-0.9514983,0.08076133,0.7450794,-0.17548406,1.9618343,-0.1275057,-5.3030934,-1.3536606,-2.5759068,-2.4185245,-3.3942866,0.053165853,-4.2425575,0.49913403,-0.41467413,-0.707218,-0.47823498,-2.0648248,-1.4473835,-2.7510285,0.92360157,2.2274568,-0.05952906,-0.63384485,1.6633501,0.11744001,3.8705008,-2.0508697,-0.41378847,-0.84624135
national,0.8589701,1.8168342,-0.5545773,0.78788626,0.10412166,-0.4882494,2.010786,1.5634304,-2.0108151,2.0623605,-1.7608765,0.50527066,1.3206742,-0.06584839,1.4274342,1.5446532,-0.7893788,0.66946715,1.0449662,-2.8535755,-0.14532602,2.7389615,2.4309103,-0.16263801,-1.7237742,-3.9756122,-2.2989058,-0.89766085,-2.556546,-0.9321898,-1.4827591,-0.4232009,-1.3408742,-0.16614258,-0.6665955,-1.3564895,-0.5783254,0.28062105,-1.1625154,-1.4024091,1.4884127,-0.65858716,-0.07217334,-2.6033201,0.08025305,-0.91046715,-1.5548242,-3.6112862,-0.95961195,-0.6595626
very,0.70987797,-0.6046019,2.8307824,-1.6171926,-1.6790922,-0.36526582,-3.248962,-1.0426013,-0.50668764,-0.2377862,0.19307698,-0.7936228,-0.8740921,-2.9173386,-0.45477128,-0.9557,-0.9852251,2.4960053,-0.2897961,3.1870854,-0.047991324,0.8030771,-4.6701627,-1.3279617,-2.206494,2.8757424,-2.38489,2.3716588,1.3829775,-1.0475123,0.35414863,2.6273603,0.6316972,-0.87457967,1.9529197,1.529764,0.06879791,1.7156126,1.5799313,0.25104868,-1.2468121,2.2078755,0.5515947,1.1010942,0.6812862,1.2938093,-1.5791897,0.46178123,0.62634903,-0.5584844
much,1.1626382,0.45103168,0.7206524,-3.328998,2.0089338,-3.1039858,-2.2955654,0.71977043,1.0193121,-0.41385865,0.3538177,-2.7154942,-1.2709217,-0.3635815,-0.9745891,0.061236013,-1.9133247,2.8118508,-1.1109588,0.5455735,0.73374605,-1.2566509,-0.42068478,-1.1465014,1.1365373,0.95939684,1.9485313,0.26832226,-2.121344,-0.80250674,0.08031034,2.975818,0.010110955,2.2323816,-0.06806483,1.2920536,-1.2777741,1.0384903,0.1538282,0.1678226,-2.5430102,-0.08887409,1.6817764,2.424053,-0.45783514,-0.49102807,-3.1078346,1.791651,0.46555677,1.1730614
g,0.30280837,1.0802959,-1.4835234,1.3030005,3.0083203,2.0199666,2.429211,0.5713529,-0.43889248,-1.869936,-1.4631279,0.3742556,0.0487701,1.2286041,-2.3876686,1.1848216,2.6055706,-3.3260682,1.0933555,-0.9674335,0.30606458,2.9318917,-0.8953979,0.7478843,-1.4043851,3.2220209,2.0283113,-3.5456011,2.8235292,-0.9798285,1.0926433,-0.3185643,-2.2987938,0.79510605,-3.0389764,-1.3074012,-0.016219359,3.97453,-1.8525894,1.0134178,-1.3526034,1.4281949,-2.7520301,0.4454177,0.615086,2.1724007,1.7190259,-0.45410872,-0.6095725,1.2908714
french,1.3277956,-0.9991229,-0.07492961,0.7609524,-0.19331081,1.5356799,1.4059926,0.8090833,1.7470871,2.4751017,-2.335738,1.5636338,0.23924418,-1.8618996,-2.6053371,0.05039245,-0.7847169,-1.6096231,1.0673692,-0.87153673,-1.161158,-0.5272189,2.5052202,1.5761129,1.7575922,-1.4795351,-4.53903,-2.9676015,-1.9894078,-1.6491139,0.44601402,-2.4436111,1.4183241,-1.1203427,0.59539896,1.9026941,1.3839529,2.3320975,-1.8227551,-0.37383586,-0.46745014,0.04261961,0.08911802,0.8679865,-1.5624335,0.89326936,-0.60798347,-0.763686,-2.1205175,-0.7032575
before,-0.48310924,1.0180573,-0.071365096,1.8454574,0.46402925,-0.3532514,-1.7375245,-2.2283602,1.4383022,0.7885003,1.6901443,1.7150332,-1.7554355,-2.1186996,3.1281214,-0.41822526,0.90125006,1.084117,2.1493769,0.79056466,1.6738054,-1.7095587,2.717575,1.2464622,-0.29390943,2.0254772,0.6150144,0.81252366,-0.32443988,0.46733454,-0.44732165,-0.030759983,0.9982117,1.6331302,1.951871,-0.040565368,1.6969922,0.22828954,-0.10019311,-2.745994,-0.47084183,-0.39992017,3.4294693,-0.10401689,-3.4895606,-1.4828019,1.5677763,1.9072278,-0.37087688,0.35004157
general,1.0362637,-1.2580724,0.75208807,1.5966142,0.48253167,0.8720982,2.6091561,0.1262423,0.3625065,1.7655594,-0.72567666,0.02768496,-0.46817592,-2.3987777,0.022545844,0.080343686,-0.6314812,-0.21882652,-0.81937623,-1.0200676,-0.29871213,-0.4211907,2.8610759,-0.4853997,0.6217259,-1.4213825,-0.684136,-0.4406469,-0.034909073,-1.7174445,-1.8530915,0.8524958,-1.1063994,-0.28443033,-1.1513858,0.23402208,0.084753074,-2.307982,0.24273665,-0.39226758,-1.0838338,-0.58485895,0.58082354,-1.1696271,1.1861662,2.6648605,-0.9336327,-1.783003,0.43122685,-1.2472788
what,-0.7144902,-0.43668744,2.9008012,-0.0441299,1.7976844,-0.6689662,-0.23797749,-3.1370325,2.1479707,4.0479484,-2.0882702,0.06404022,-2.989346,0.3795788,1.355178,1.1199545,-1.9655752,2.6872654,2.6898577,1.3876938,-0.20517687,0.57140464,-2.1949718,-0.7470901,0.33459997,1.5455382,0.6440979,-1.5148596,-0.6313369,0.9190932,2.6740165,3.4395363,-1.0129989,3.2710176,-0.48403177,1.7052737,-1.2596945,0.6213336,3.5427988,-3.274556,0.5093879,2.3391242,1.6091151,0.07433102,-0.037637185,3.2243032,0.55769396,-0.40648717,1.0944555,0.43384403
t,0.10927307,0.9222668,-0.27000642,0.24549098,3.6409733,-0.66156334,1.517567,-1.5585344,2.5421903,-3.0519829,1.0398077,3.3949053,-0.37314242,2.412459,-2.4419043,-0.569913,-0.8951887,0.044863027,0.1828534,0.35249698,0.79951805,1.6604555,-0.49749872,-0.41637143,-1.6921424,2.8532248,-3.042511,-3.893983,0.92862046,1.276684,-0.9924379,1.1937757,-2.3435435,0.79709166,2.6498253,1.5153874,-1.6934321,1.4872941,1.7471819,-2.0888033,1.3099992,-0.14695702,2.023709,1.5082306,1.6662141,0.09582963,2.5673609,1.8787115,-0.7673795,2.6090364
against,0.41498563,1.3057938,1.6856728,0.88490576,1.5728192,0.61560726,2.5542927,-0.51603335,0.023574201,1.6156863,1.8149184,1.4034822,-0.30662307,-0.6705957,1.0570867,-1.2031046,0.4753605,-1.8138095,0.16719317,-0.6564599,-2.1174376,-3.1178637,2.9072335,-1.3452259,1.6555111,1.1813924,0.49359775,2.6453495,-1.0594635,2.004179,0.5841548,1.2274278,-0.6920266,1.6323023,1.547103,-1.3785338,-0.5229803,-0.21180731,-1.267901,2.492067,1.2012326,0.51096725,0.38420475,0.6310352,-2.7145393,-0.9243496,-0.6043515,0.047112677,-0.68536717,-2.6381447
n,0.174344,0.87213767,0.6760254,-1.2906802,0.9578599,1.0229299,2.3655472,-0.32601708,0.29697162,-1.0653085,-0.43646088,1.3548205,0.84112996,1.0663043,-3.4346364,1.5356281,2.5622714,-0.18464758,1.4531206,-0.8623771,1.079844,1.356037,-0.09742222,0.31526095,0.37973693,1.019243,-0.9105024,-3.0948858,3.0584905,-2.2776785,-0.15671629,-1.0455958,-3.698737,0.84301573,0.39316654,2.555878,0.58848614,1.5041193,-2.2851682,-0.105535835,-0.9432669,1.7242959,-0.77321947,0.5336614,3.368582,0.49046725,2.931905,0.19953553,0.37067625,0.689165
high,-0.9791418,1.0390689,-0.9315057,0.35421374,-0.9895688,1.1879423,-2.0221438,0.9907682,-0.7525273,-2.227102,0.7267521,0.31587252,0.49100956,-1.6932198,1.0598797,-0.93309575,1.6876268,0.14697853,-0.82526934,1.1131816,3.1367052,-0.5951498,0.2685907,-1.6074938,-0.61988455,0.8948315,0.78088504,-0.31607506,-1.4758728,-2.000278,-3.7745435,1.94383,-1.3609878,-2.1938424,-0.8459646,0.45497534,-0.31874228,0.95770526,-0.4224081,-1.626397,0.3734327,-0.9140463,-2.2135065,1.8720133,1.7631147,2.3055751,-3.439,0.45386362,-0.9862526,2.2217784
links,1.7477942,-1.8997412,-7.344552,-2.090154,-1.0997486,-2.6667495,5.5557375,-0.6448705,-0.9235884,-2.1341362,1.5846534,-3.8836975,3.9257631,1.2272775,2.2904675,2.5123105,-6.6677585,0.91064733,1.3113295,-1.0345675,3.808734,4.6445665,1.5793326,-2.7556496,-1.7986917,-2.9379265,-0.37128362,-0.50109756,-0.495233,0.7688339,3.5902476,-1.9036088,0.4950049,-1.5858718,-4.417959,2.7301998,-3.5888557,0.48961282,-0.76978576,1.5418054,-0.389326,-7.9820004,2.128494,-0.23212354,-0.20817596,2.4898276,2.9667258,-1.4693149,-3.8248343,1.8598282
could,-2.361017,0.5368159,-2.0389953,-0.068589576,3.1849992,-4.2867813,-0.43223128,0.50288385,2.877053,-0.33998784,1.08691,2.415099,-0.09398271,-2.1532464,-3.646028,-5.8787227,-4.522397,-1.6602485,0.030682448,0.92218214,-1.1957732,-4.0810003,-2.1070035,2.8612142,-1.8688556,-2.274922,4.0346107,1.418119,0.4172998,-0.6316535,-0.04861654,3.76672,-1.8918194,0.8677214,2.6970546,1.0784065,1.8420358,-0.5027159,3.2942238,4.816286,3.6415503,-1.4650544,0.13650714,-0.64668965,3.5803154,-1.5265838,-0.13124762,2.973807,0.21790557,2.3619173
based,0.7128759,-0.97387993,-1.6157063,1.4162226,0.49477205,0.19031845,-0.40392694,0.28112814,0.48302883,-1.1751659,-2.2653813,-0.29113948,2.26702,-0.010860783,-1.9958261,0.40141574,-1.3149608,-1.0290838,3.896689,-0.92245185,0.74933296,-0.0063733766,-2.7107172,1.1859689,1.099447,0.09583215,-2.7625248,1.5859135,-1.0529324,0.83127457,1.872358,1.7944036,0.85610133,2.3812187,-2.767271,-1.083299,-0.11462071,-2.4769711,2.1565669,0.15045755,-1.9013594,1.666362,-3.0739927,-0.57829833,-0.4863851,3.508257,-2.1652324,-4.1855016,-0.5632101,0.73199856
those,0.01547439,0.20878768,2.3810756,2.641937,0.7228144,0.084694706,-0.651166,1.7678868,-1.0986437,3.689845,-1.6933604,-0.24583988,1.3379114,0.8993301,-2.1330333,0.3239948,-0.6288476,-1.1040545,-2.8234558,1.1752261,-1.3898076,-2.8586338,-2.8750534,-2.8633358,-2.3997853,-0.32193294,0.5090113,-0.2957668,-0.70276034,-0.3592331,0.088706605,3.0258977,0.75787467,1.1765777,0.065581575,-0.7761161,0.3186198,-1.1712451,-1.545912,-0.056773618,0.6270391,1.064223,2.2065148,0.46312928,1.2854117,0.22298151,-0.49940127,3.9798803,0.027498977,1.7695211
now,-0.11683664,-1.0832926,1.4471669,-0.3495595,1.5834193,-1.3524148,-1.033962,-0.37004384,0.079008184,1.5692803,0.4807235,-0.5012436,-0.02297309,-0.018442724,0.061426546,2.025066,-0.5833022,1.9541314,2.1400468,1.406945,-0.86901265,1.5548697,-0.68608844,0.28125024,0.10658044,0.7533344,-0.57534647,-0.23701312,-1.1915942,-0.5774827,0.16442063,1.5501845,-0.6716275,0.9952893,0.6335307,-0.55750227,0.2022011,0.8306767,-0.20747943,-2.9592054,-0.121095724,-0.505308,-1.1318625,-1.0631115,0.36361888,1.0359509,0.69966793,2.226229,0.3118757,-0.9624329
second,-0.43059903,1.3196741,-0.33828452,-1.3949381,0.0890225,-0.24692212,-1.8978168,-1.6513044,-0.6472227,1.5308461,1.5634676,1.353821,-0.17734598,-0.036998756,1.9549966,1.0592349,0.28565246,0.500818,2.9356265,-0.4230881,1.1153406,-1.0960339,1.6975996,2.6503131,-0.23555624,1.7634547,0.16539496,-2.7157233,-1.248487,-1.388284,-0.787754,-0.11198262,-1.6083456,-1.5409044,-1.4472449,0.35481825,-0.6454217,-2.6196504,-2.4098544,0.6292453,-2.3893561,0.8184232,2.3470745,-0.6811139,-0.23032556,-0.51009816,1.2535859,0.44878158,0.07254288,-2.3363929
de,1.1801623,0.23368348,-0.67678905,-0.38066497,2.6274505,-0.049747005,2.498588,-0.7923087,1.6400659,0.22026226,-2.5058107,0.57564235,1.7454586,1.0869452,-1.5979198,1.0486741,0.4629132,-0.9721937,1.9736422,-2.7425008,-1.4324828,-0.31565842,3.218685,0.9818284,0.014749487,-0.46414146,-4.2237096,-1.8563194,-0.8369016,-1.888857,2.045237,-3.6125703,0.32153353,0.45482066,0.5706444,0.7326851,0.26612535,1.8570434,-2.7040956,-3.226645,-1.7217625,-0.545854,-1.8866806,1.2601417,1.0945731,0.18503995,1.2753389,-1.1417276,-0.49822867,0.3034426
music,2.2853777,-0.662579,-3.2865968,-1.5509479,1.4439995,-0.9217319,-5.0304093,-0.24713366,-0.47186095,1.680767,-1.933825,-4.1589813,-0.95804924,-1.4952989,-2.0774462,1.789124,2.0877223,0.5740391,-0.67931867,-1.0384387,0.10663861,1.6448617,-1.605354,0.12340205,-2.0827227,-0.21080224,-4.023963,-2.4308176,-0.64397764,2.3918748,0.37698486,0.7295578,0.17607073,-1.3462921,1.7671473,1.5676202,-0.72375816,1.7097327,0.4219616,-0.5442208,-0.07620171,0.85913074,-1.7726822,-0.9806652,-2.9676073,0.75098836,0.5686648,-0.44405144,0.8856556,1.266944
another,-2.5131204,0.35290888,-0.8054157,-0.38700494,-1.7177422,-1.2978145,-0.99088687,-0.37589473,-1.7742826,1.0597185,0.2320206,-1.0056133,-1.2565215,0.11646151,-0.4800993,-0.06112889,0.075099945,0.66111404,0.9899124,2.0388484,0.44518372,-0.3533018,0.08159788,1.9421923,0.49756247,0.8942852,-0.826311,-1.4815483,1.82963,0.21498704,1.507368,1.1709468,-0.28890273,-0.057288755,0.33954766,0.03954685,-0.47921306,-1.0791,0.33680642,-0.44421983,-0.13296875,2.3264947,1.9488026,1.5216748,0.011343978,1.8406228,-1.2287215,0.32568264,1.7397081,-2.7902396
large,-0.7846619,0.42549756,0.24138874,-0.6469328,-1.8321348,-0.13560352,0.04676795,1.5213917,-2.6551616,0.5654599,0.7984489,-1.2104595,0.27344456,-0.0987,-3.2760398,-0.52327627,1.1111952,0.3737484,0.23084067,1.6907663,1.4297175,0.6593523,-1.0805824,-1.7600359,-1.2499977,-0.13012397,1.4857849,3.1069617,-4.771753,-1.4192445,-1.0613765,1.9439173,-2.6125739,0.3661585,-2.4306736,1.6404314,0.53777385,0.86564523,-2.2669415,-1.7444351,-1.4229028,-1.4670821,-0.69498074,1.5490137,1.2451034,0.41353244,-1.5247301,1.2611314,0.6899531,1.1676247
she,-2.2175896,2.862127,1.7790014,-2.118301,-0.7091251,0.8521182,-2.104397,-2.7154849,-0.25972793,1.3549186,-3.3548808,-1.9259051,-4.0709205,-0.47229597,2.9787703,-0.7631079,1.5266614,1.2865703,-0.92683756,0.716902,-3.7708688,-2.282835,0.2298951,2.6521533,-2.0372179,2.9934132,0.72852236,-4.1971726,-0.60928285,0.019873777,-0.58365536,1.6754346,2.6726878,2.1967077,1.4994718,-0.10356319,-0.5199748,0.79139084,2.2651825,-2.725822,0.28005356,-0.14329767,0.9889355,3.503791,-0.9142206,-2.5380833,0.25678605,-0.4034627,-1.123826,-0.6056939
f,1.0777234,0.46133938,0.45000437,-1.125781,0.52904713,0.4486705,2.2330313,1.3358847,1.1672575,-2.1032796,0.033245955,3.3270164,0.09288922,0.63569933,-0.5559806,1.45625,1.5789057,-0.90548915,-0.29571676,1.839143,0.13444583,2.4715056,1.420107,-0.18652709,-1.0806818,2.9178731,-0.42565027,-2.9771836,3.3441162,-2.753144,-1.8551428,-0.57401335,-3.2216618,-1.1149054,-1.6714689,1.685306,-0.87069386,0.10593261,-1.2530596,-0.07169006,0.87442535,1.1172645,-2.4722757,-0.75288796,2.6419876,0.6032381,2.7455904,-1.1989337,0.44366264,0.02330148
external,2.7495153,1.6143236,-1.3093227,0.37110436,0.12148119,-0.15094216,0.14059539,8.156519,0.37697133,0.85840714,-2.1086726,2.3765018,-0.47598597,3.9910738,0.8237095,-1.643607,4.2955294,-4.2523785,-2.8537946,-4.1505346,2.0194163,0.8669072,-2.761674,3.182755,1.0424248,-1.1803588,-2.2781513,2.207584,1.5919521,-0.317099,1.2724463,-2.8948567,-0.8327911,0.5931062,4.5292473,-3.1591692,2.730242,-0.33746848,4.0680375,-2.423349,0.9933909,5.0332327,-0.6682148,-1.4400485,2.1497805,0.8996534,-2.1938925,-3.2902641,2.2237904,-3.5715675
german,2.3084414,-0.92346966,0.17474835,-0.33113736,-1.6885473,2.0282457,0.3103692,2.1361022,1.3853116,2.4159575,-1.4446652,3.1342392,-0.7455379,-1.4530163,-1.2682639,0.055089314,-0.73795116,-0.9610102,-0.12804091,-0.8849248,-0.4374587,-1.1987687,1.0315428,-0.27195856,2.7708192,-0.5327528,-2.0967076,-3.2644708,-1.6638489,-1.2269623,-0.50380737,-0.3724632,0.11176022,-2.3923059,1.0134931,-0.22541524,2.666891,1.6429031,0.07073905,1.67586,-1.1482528,-1.2510239,-0.49284652,1.1734574,-0.6464772,2.5324874,0.47436258,-0.25849876,-1.5404303,-1.7331464
different,-1.2570204,-0.3897828,0.12083001,2.9883327,0.4010344,1.8417163,-3.411378,1.8256466,-1.1565379,2.811916,-1.6819414,0.15231977,-0.863843,1.7859479,-4.1553745,1.5059278,1.8951051,-0.9141433,-1.3449572,4.8084145,2.7170625,-0.4613359,-3.388856,-2.546201,-0.677306,0.36035448,0.59880614,1.0596855,0.8635442,0.35714754,-0.43877545,3.5757365,-0.43670556,1.5277145,-3.700283,2.0178773,1.3048792,-1.0165827,1.740993,-0.7625052,-0.4564538,1.8093811,1.4250785,-0.7719373,-0.43028158,-1.2187082,-1.156526,0.6773104,0.22647735,3.1459713
modern,1.6245059,-1.5154265,-0.25726402,0.6919571,1.425685,-1.3329619,-1.614921,0.64001685,0.49177092,3.8198178,-0.69398427,-0.5151206,-0.6301341,-1.265399,-1.2036554,0.92297256,-0.09494709,-1.2230608,-0.28398207,1.3174891,3.426772,0.6196997,-1.4008301,-0.25015235,2.1195123,-1.3659049,-0.68184173,0.32015985,-0.44803387,-0.8863646,0.84979975,1.435097,2.1245213,-1.3461515,-1.0563728,-0.2534875,-1.5055937,1.8794953,-0.42616415,0.46440974,-3.4055066,-0.16583343,-0.9989766,-0.4439508,-0.15027651,0.3890241,-1.2295051,0.36110643,0.48791492,1.2156247
great,0.9531056,-0.6801155,-0.22850372,-0.22982639,1.3718697,-0.95847774,0.22730336,-0.75139266,0.35208514,1.7429794,1.9033157,-0.13290764,-1.5701005,-1.103908,-0.9595994,0.789577,0.16562554,-1.1977469,-0.3937482,-0.051620126,0.80741245,-2.1582367,0.9214199,-0.95825964,-1.7101374,-0.16210043,2.8520236,1.6220264,-4.15208,-2.2717779,1.9577997,-0.5473753,1.7368383,-0.2685317,0.46466038,1.8967044,0.6737666,1.8987557,1.1706816,-1.6723456,-0.50668883,0.45665035,-0.9780068,2.0981286,-0.033434935,-1.2689656,-0.6463772,-0.79819816,0.7088465,-1.7798381
do,-2.743504,0.37150693,1.0041887,-0.88833576,2.3734615,-1.8448166,0.7195953,-1.5360801,-0.10924491,0.3014745,-0.7909851,-1.176013,-2.6021507,-0.4525684,-2.1161618,-2.6035798,-3.8672876,-3.0476246,-1.8241538,-0.52703804,2.5295787,1.1004587,-2.6176467,-4.860503,-1.2634083,0.7619823,1.1974189,0.49020037,2.783531,-0.30572125,-0.8991765,4.08033,0.21714966,2.879198,-0.6068703,1.2225319,-1.8490958,0.794254,-0.027353894,2.0678515,1.3918666,-1.7449497,1.767233,0.3020154,2.7657053,-0.6791207,1.5976015,3.7034318,-5.35335,3.0607805
common,-0.001144947,-2.8408685,0.023916347,1.3667856,3.4632826,0.4318146,-1.0580903,-0.4135792,-0.06492048,1.9714253,-1.054817,-0.14381716,0.19200617,-0.3472356,-0.86132205,-0.50171447,1.4150447,-2.2971876,0.67034227,2.7232606,3.6661975,1.4302574,-3.5866747,-0.09723055,2.2528255,-0.37865785,0.9076847,-0.78414947,-1.4499043,-0.3452034,0.343938,4.2055984,-0.55487466,-0.73165524,-2.0549142,0.3926807,-0.40455362,0.20899583,-1.7975978,0.505484,-1.1275759,-0.00880489,-0.7377309,0.11118365,1.7379603,1.077426,-3.0892985,-0.7783168,-2.0515835,0.8439817
set,0.0025985274,-0.23578972,-0.6498273,-0.47042984,-0.42873782,2.5534873,-0.1894828,-1.0718948,-0.79691905,1.3721552,-0.73961425,0.021614198,-0.031066926,0.7138925,-2.9626641,1.5940077,1.0792242,-0.26540044,2.1085248,0.51517797,0.4698185,-0.66139203,-1.3210119,-0.8530489,-1.1313584,3.5215054,0.21112618,0.47815368,1.0010759,-0.056226343,1.3981547,0.80173486,-2.1344094,2.5034463,1.2411593,2.6000974,1.1274685,-3.5453062,0.36162844,0.8594727,0.27884448,-0.26130915,-0.63134134,-2.6381006,2.2837803,0.5206166,0.96012,-1.461191,1.5767521,0.48418334
list,3.6378014,-1.9888159,-5.760548,0.9513113,-0.94265765,0.40685287,2.558114,1.0019486,-1.0745804,3.471514,-1.5504502,-1.7301816,3.6388485,4.2098365,-1.1619701,2.6789222,1.2214832,1.0171574,-1.6072623,-1.5402231,0.8140104,0.8620729,-3.1446686,-1.1134766,1.4669498,-0.52111846,-1.952847,1.6708997,-0.054303728,-0.6461098,0.47237697,1.0717363,-2.3647587,1.3086218,-1.7667102,-0.61104363,-0.3058743,2.3751915,3.1085398,2.0189135,0.2640019,-1.4337696,1.7261897,-2.257747,2.1271763,-0.79488724,2.1513631,1.0100778,0.8164182,-2.207882
south,-1.1550114,-1.9207327,2.848131,-0.23285031,-0.012666213,-0.3039671,-0.9964382,3.2860587,-2.5705702,2.6539407,4.334698,0.11844443,0.82921535,0.801661,0.6857837,-1.2554321,-2.281396,3.4479165,1.0647596,-1.7207915,1.6030022,-0.5928153,0.37456337,-0.47940233,1.1821107,-0.72029716,-0.85836655,-1.6787537,-1.8248796,-1.5723671,-1.9046702,-2.1955335,-0.24798861,0.13819057,-3.4197087,1.3731496,1.5960815,2.352681,-0.42507297,-0.6599578,0.5479241,2.0703676,-2.7197776,-0.52241516,-0.7829612,0.16099991,1.8579638,0.814118,-2.5255797,-2.796819
series,1.6916397,-1.8139461,0.43544263,0.14253367,-0.7736058,1.7750955,-2.1677756,-0.29509157,-0.578318,-0.5344047,-1.2252272,-1.808616,0.01610242,1.201374,-1.1031892,-0.15179378,0.6653095,-0.87054604,0.13002913,-0.071361996,0.17769809,-0.45786813,1.4465575,1.5694119,-2.0268252,4.05329,-0.51164806,1.6269499,-2.722234,0.7951163,-0.24921232,0.5837546,1.4306983,0.6349791,-1.8330911,1.7000176,-1.4480052,-1.0278056,0.66703224,1.6333355,-0.43623936,0.31083822,-1.0419513,-0.6925509,-0.22678569,-3.730526,5.2548885,-1.7810792,2.3040748,-3.0748613
major,1.7714305,-0.82876664,-0.702689,1.5176882,-0.6388291,-1.6037441,-1.881573,-0.6560581,-0.6279437,1.1458095,-0.0628275,1.5179253,0.14428191,0.5065294,-0.09650297,-0.00020068171,1.0351334,0.5464402,-0.6637968,0.8473882,2.7357876,0.74009955,1.1921376,-0.9518036,0.12485889,-0.66803527,0.6541116,2.2995105,-1.3190763,-1.3076994,-0.93292993,1.6283498,-1.6630945,0.16965735,-1.3064384,0.53479785,0.8465026,1.0242293,-3.0674164,0.015525046,-0.17232798,-1.2470894,-3.3940077,0.34627718,0.28011125,-1.4471831,0.42794356,-4.019683,0.30455953,-1.1140392
game,2.3819706,-2.75967,-0.9067518,-1.7471976,-0.58958864,0.49606204,-1.804584,-0.36645988,1.1396174,1.4410046,-0.097094156,-1.5277252,-0.6130207,0.22328125,1.2578807,-0.6652092,1.2721124,-0.8054227,0.94916457,1.4205178,1.7909402,0.89575285,1.4253905,1.5900584,0.15627176,4.3103604,-0.9605215,-0.21729504,-2.380313,3.9914641,-2.2816849,3.6272967,0.4959024,0.65528715,-0.13098599,2.180015,-2.8305652,-3.826585,-0.12518728,0.16937263,2.6290152,0.47243732,-0.5901198,-1.0162475,2.0406914,-3.511436,1.7527741,-0.9112003,3.1219494,-0.5966218
power,0.0320878,2.4060745,1.2346766,0.25401592,-0.105642155,0.08024573,1.034291,-2.0618367,1.3455169,-1.0903311,1.4026989,-1.4955043,-0.97666657,-2.0335138,0.45032236,3.4488707,-1.4396461,0.039700266,-1.1938602,-0.13883652,-0.3536535,-0.9067985,1.2753001,1.0641154,0.30370885,1.3194826,0.98312175,0.86545813,-1.4974614,-1.4089785,-1.120929,0.23864217,-0.09478664,2.307743,-0.51205504,0.61560076,0.46916613,0.8752402,-0.8262972,3.6731398,0.48683944,0.47857377,0.2576035,-0.9034722,0.17362556,1.6716056,-2.4708557,0.31714827,0.7620779,0.026614461
long,-0.8187858,2.2714617,-0.75431675,-1.581233,0.79313487,-0.50676847,-1.9298818,-1.3248101,-1.6460487,0.31751266,-0.9731812,-0.3226939,0.34310836,1.1780139,-0.49362773,-1.834252,-0.58917886,2.1335921,0.2646319,2.1897526,2.667133,-0.098794036,1.152484,1.2334657,-2.334397,1.1994164,1.3016129,0.20237342,-2.3409386,-5.1121273,-0.02269533,0.6148883,0.009294498,-0.15760356,0.34891474,1.7944231,-1.2443488,1.7587851,-0.89755434,-1.045315,-0.007797352,0.43156424,1.7557774,0.75997615,-2.194836,-1.2091074,-2.0285652,0.35166392,0.5962748,1.3459897
