word,dim_0,dim_1,dim_2,dim_3,dim_4,dim_5,dim_6,dim_7,dim_8,dim_9,dim_10,dim_11,dim_12,dim_13,dim_14,dim_15,dim_16,dim_17,dim_18,dim_19,dim_20,dim_21,dim_22,dim_23,dim_24
follow,0.0033407,0.91533,-1.2207,-0.45773,-0.59682,-0.64277,1.0497,1.7013,-1.3643,0.3601,-0.25219,-0.14811,-3.8711,-1.0949,-1.3944,0.22114,-0.76684,-2.0907,-1.0099,0.20968,-0.27403,-1.8368,-0.4521,0.8915,-1.0369
back,-0.74355,0.715,-0.1593,-0.28136,-0.736,-0.17702,1.0432,0.62863,-1.0324,0.44264,-0.11356,0.30086,-4.7917,-0.22962,-0.21154,-0.14965,-0.31582,-1.3908,-0.736,-0.46094,-0.13124,-0.96047,1.2604,0.2479,-0.44585
people,0.61531,0.40895,-0.34224,0.21094,-0.046403,0.29744,1.9485,-0.91247,-0.85772,0.57293,-0.99537,-0.15858,-5.4328,0.11578,-0.27031,0.35207,0.16624,-0.91364,0.6933,-0.65035,0.77353,-0.087782,-0.43228,-0.99982,-0.68077
really,-0.08943,0.22163,0.18244,-0.83415,-0.44891,0.47993,2.1459,-0.45866,-0.71512,-0.25822,-0.40632,0.80012,-5.3547,-0.75984,0.12148,0.24563,0.2095,-0.44553,-0.01365,-0.44779,0.86121,0.59802,0.11607,0.69295,-0.39653
think,0.32648,0.48392,0.13726,-0.3465,-0.80444,0.13492,1.8195,-0.41097,-0.55192,-0.041287,-0.43644,0.65345,-5.4586,-0.58895,0.071544,0.19618,0.38752,-0.59623,0.091468,-0.52565,0.77938,0.68852,-0.12746,0.1726,-0.60569
please,-0.32909,0.40221,-0.81,-0.37379,-0.91075,-1.4961,1.7134,0.90296,-0.93052,0.23089,-0.30272,-0.23206,-4.2977,-0.94941,-0.27274,0.1943,-0.19176,-1.6868,-0.40934,-0.53334,-0.27725,-0.86553,-0.16371,0.89115,-0.74183
right,-0.43876,0.095692,0.0030075,-0.13195,-0.087741,-0.036863,1.7566,-0.47702,-0.46528,0.46637,-0.87605,0.80857,-5.1846,-0.11673,0.76945,0.12328,0.073833,-0.88051,-0.22639,-0.17336,0.21476,0.17998,0.80019,0.30652,0.159
twitter,1.6952,0.42694,0.14433,-0.16535,1.0463,-0.029846,0.33623,1.5362,-0.58481,0.50349,-0.50595,-0.91136,-3.8011,-0.8685,-0.13552,0.97055,-0.13545,-0.29825,-1.2837,-0.63245,0.44748,-0.92231,-0.4138,0.20287,-0.33432
hate,0.66523,0.73776,0.022958,0.13177,-0.7063,0.64642,2.1068,-0.56058,-0.70352,0.83807,-1.1425,-0.092725,-4.4378,-0.76222,0.18249,0.72472,0.0060011,-0.73652,0.0023592,-0.3483,0.6523,1.0148,0.19504,-0.31584,-0.50971
thanks,-0.80095,0.82385,-0.28273,-0.10817,-0.55175,-0.72222,1.6159,0.9797,-1.001,0.26292,-0.68467,0.50623,-3.8982,-0.56209,0.43343,-0.66157,0.86205,-1.0689,-1.0178,0.05931,-0.35647,-0.43121,-1.1485,1.3683,-0.72813
followers,1.1628,1.2063,-0.98311,-0.68714,0.87228,-0.038465,0.60075,0.75044,-1.6369,0.64954,-0.015009,-0.46255,-3.182,-0.091041,-1.3646,0.42786,-0.41818,-1.7688,-1.0609,-0.089566,-0.64473,-1.4028,-0.11063,0.62345,-1.0737
everyone,-0.66344,1.1679,0.031686,-0.049315,-0.43452,-0.52471,2.1418,-0.32636,-1.7366,0.26686,-0.47925,0.27399,-4.7679,0.045498,-0.20918,0.147,-0.32177,-1.0588,0.13412,-0.33091,0.42165,-0.9311,0.0065537,-0.10001,-0.86712
tonight,-0.86482,0.65099,0.59029,-1.1413,-0.63281,-0.014645,1.6853,-0.41908,-0.59958,-0.61763,-0.59244,0.70116,-4.6682,0.64156,1.1898,-0.16486,-0.11951,-1.2156,-0.8837,0.29483,-0.71793,-0.31835,0.59246,-0.082905,1.1007
first,-0.0048302,0.52898,0.62385,-0.65502,-0.10903,-0.33937,1.7463,0.10884,0.21209,-0.36222,0.24687,0.69705,-4.8934,0.66483,0.32078,-0.20673,0.79626,-0.51975,-0.50631,-0.49261,-0.82211,0.17603,0.069424,-0.26431,-0.58399
photo,-0.43313,-0.91729,0.028901,0.18192,0.53324,-0.59033,1.5667,0.5239,0.30061,-0.52114,0.56095,0.34665,-3.4471,-0.50171,-0.18213,0.62913,0.14185,-0.032045,-2.0394,0.87572,-0.36388,-1.4125,-0.20763,-0.93493,-0.70673
tomorrow,-0.72888,0.67018,0.59031,-1.2582,-0.49123,-0.51539,1.8958,-0.77475,-0.35509,-0.0711,-0.92774,0.11631,-4.6456,0.82867,1.3562,-0.49394,0.091404,-1.2579,-0.9642,-0.16778,-0.79751,-0.44121,0.5125,0.88524,0.73395
thank,-0.89595,0.7029,-0.062201,-0.032215,-0.76887,-0.94539,2.0386,0.52936,-1.2984,0.073917,-0.75875,0.29734,-4.1307,0.1515,-0.029354,-0.74631,0.4362,-0.60568,-0.68405,-0.0013887,-0.27782,-0.31068,-0.99361,1.2176,-0.63259
morning,-1.484,0.89623,0.40684,0.17774,-0.18277,0.19872,2.3773,0.48527,-0.42055,0.48673,-0.93276,0.49597,-3.6331,0.74771,0.4535,-0.8047,0.70003,-1.0404,-0.92182,0.040901,-0.38105,-0.38305,-0.37806,0.90019,0.37246
things,0.60226,0.0034872,0.10318,0.92699,0.22477,0.58987,2.0481,-0.76664,-0.8735,-0.32925,-0.66632,-0.076177,-4.9261,0.34221,-0.21414,0.73769,0.16899,-0.49701,0.57874,-0.51192,0.22427,-0.050183,-0.42841,0.35663,-0.63732
year,-0.049064,0.68725,0.67187,-1.0373,0.096446,-0.37432,1.8354,0.087708,-0.72008,-0.15958,-0.13232,0.51415,-4.5565,1.4328,0.30352,-0.73738,0.45681,-0.94921,-0.40911,-0.067633,-0.79604,0.202,-0.35874,0.13302,-0.26809
something,0.27826,0.10752,0.14319,0.53687,-0.24953,0.62838,1.7486,-0.51831,-0.54393,0.044798,-0.66409,1.0936,-4.9721,-0.36599,0.13586,0.27068,0.37082,-0.6038,0.072578,-0.90211,0.12695,-0.19831,-0.19498,0.72022,-0.6061
thing,0.16975,-0.020645,0.21225,0.064267,0.39214,-0.044754,2.2341,-0.61479,-0.55764,-0.17259,-0.26628,0.44421,-4.8733,0.20317,0.39283,0.84204,0.60424,-0.4735,0.064533,0.10996,0.43413,0.5381,0.099847,0.3911,-0.29941
hey,-0.011587,0.6575,0.19401,0.1987,-0.69354,-0.21891,1.51,1.2904,-1.0422,0.24974,-0.49163,-0.1556,-3.1915,-1.0046,-0.057773,-0.31536,0.4798,-0.47948,-1.0734,0.52967,0.80522,0.041814,-0.49073,0.73534,-0.11157
everything,0.02173,0.20375,0.016315,0.67693,-0.46602,0.15124,1.6915,-0.55429,-1.0803,0.26162,-0.61959,0.91243,-5.1245,-0.25337,0.1094,0.32106,0.012691,-0.37511,0.67951,-0.40901,-0.0015301,-0.37981,-0.15657,0.93747,-0.63504
facebook,1.8545,0.000786,0.33901,-0.30362,1.1392,-0.304,0.053234,0.84017,-0.26918,0.12832,0.1685,-1.1183,-3.5827,-1.1707,-0.15102,0.72618,-0.026316,0.11115,-0.90396,-0.83639,0.30915,-1.4184,-0.46751,-0.32155,-0.63986
phone,0.45656,0.15849,0.98567,-0.36313,0.45298,-0.053306,0.96311,0.14971,0.35909,1.459,-0.42194,0.37889,-4.2793,-1.0524,0.17216,1.0459,1.045,-0.64617,-0.67133,-0.49426,0.31562,-1.182,1.157,0.30366,-1.4771
nothing,0.16153,0.5684,-0.12668,0.35667,-0.42759,0.84419,1.7493,-0.47395,-0.77475,0.2761,-0.63575,0.71921,-4.8104,-0.10104,0.38474,0.46582,-0.023778,-0.07897,0.43896,-0.5548,0.18181,0.34767,-0.20072,0.76552,-0.35511
heart,-0.67666,-0.42667,0.08336,1.1881,-0.11975,-0.19192,1.7635,0.31854,-0.16889,0.0060286,-0.2276,0.44928,-4.422,0.2048,-1.0987,0.32956,-0.43523,0.24524,0.51776,-0.54756,-0.63736,0.62678,0.52751,0.53186,-0.17866
house,-1.1589,0.40706,1.2051,-0.19056,0.11131,-0.051701,0.91339,-0.35861,0.59744,0.18681,-0.18825,-0.42439,-4.6994,-0.0090055,0.40719,-0.27002,0.32667,-0.36875,-0.48711,-0.20568,0.3559,-0.3417,0.27324,-0.3588,0.58548
already,-0.26674,0.95784,0.85408,-1.2863,-0.25857,-0.11652,1.3789,-0.63431,-1.1211,0.44065,-0.12754,0.78805,-4.7377,0.096548,0.55361,0.085504,0.36695,-0.29787,-0.30391,-0.89655,0.068798,0.18418,0.37875,0.78665,-0.020463
actually,0.19143,-0.11166,0.48052,-0.89678,-0.50321,0.2599,2.0882,-0.79426,-0.69209,-0.024274,0.18013,0.48718,-4.9426,-0.60236,0.51938,0.789,0.40785,-0.089267,0.016793,-0.93771,0.543,0.69265,-0.50457,0.52433,-0.60018
though,-0.065511,-0.10522,0.096907,-0.49758,-0.21199,-0.0012482,1.6335,-0.62905,-1.015,0.16611,-0.52628,0.94696,-4.7845,-0.13302,0.99503,0.1845,0.28176,-1.0301,-0.12599,-0.17317,0.30551,0.48396,0.32332,0.61872,0.020781
gameinsight,0.5292,-1.4237,-1.6115,-1.8166,-0.10061,-1.1378,0.59643,-0.77185,-1.5747,-0.68664,0.62987,0.25043,-1.1243,-1.6592,-1.4389,1.5199,0.82417,-0.27687,0.10022,-0.5021,-1.4888,-2.5375,-0.37511,-0.60472,-0.081329
around,-0.85139,0.17936,0.94352,0.24877,-0.45886,0.75664,0.87669,-0.91907,-0.17499,0.74976,-0.69619,0.51807,-4.9989,0.4084,-0.29264,0.60232,-0.10882,-0.95803,-0.072445,-0.70891,-0.09622,-0.40839,0.83019,-0.79145,-0.024732
money,0.36412,1.7364,-0.69661,0.28056,0.7324,0.25299,0.30951,-0.73403,-0.27963,0.40459,-0.042116,0.10481,-4.9592,-0.33304,-0.16283,-0.31812,0.44274,-0.7354,0.23874,0.032485,0.12587,-0.082511,0.39956,0.32139,0.12204
cool,-0.0045673,-0.43031,-0.34886,-0.32651,0.40524,1.2037,1.1036,0.22803,-0.58716,0.0077757,-0.52403,0.24237,-4.1876,-0.66856,0.065196,0.61802,0.65445,-0.77278,-1.118,0.60481,0.51312,-0.065367,-0.31407,0.41616,0.056425
tho,0.23137,0.86772,0.37081,-0.41655,-0.10009,-0.013498,1.0605,-0.11029,-0.63743,0.75196,-0.99764,1.1776,-4.2133,-0.45646,0.45225,0.14002,0.17384,-1.7134,-0.29319,0.37399,0.79122,0.74625,0.81481,0.7435,0.6872
another,-0.23207,0.94237,-0.0056452,0.20526,0.091339,-0.019816,1.6256,-0.147,-0.32503,-0.57219,-0.30231,0.65193,-4.7871,0.36125,0.2056,-0.46181,0.74962,-0.13513,-0.34387,-0.67783,-0.59481,0.1993,0.54726,-0.52304,-0.46974
top,0.58053,-0.454,0.18977,-0.87207,0.87435,0.56002,0.30758,0.31558,0.051025,-0.64132,0.43632,-0.23557,-4.113,0.11087,-0.34303,-0.34626,-0.1184,-0.395,-1.1161,0.50982,-1.0695,0.052526,-0.14947,-0.47273,-0.007771
family,-1.193,0.63069,0.16883,-0.31611,0.017884,-0.2507,1.581,0.3686,-0.2395,-0.024608,-0.32768,-0.22614,-4.3783,0.51803,-0.0087989,0.078987,0.13064,-0.8887,-0.0063441,0.22619,0.29186,-0.27092,-1.041,-0.62446,-0.070521
thought,0.07125,0.41835,0.72041,-0.19193,-0.56052,-0.0046293,1.7527,-0.48958,-0.78358,-0.0059308,-0.1839,0.95593,-4.8464,-0.16972,0.55099,0.32008,0.93997,0.12381,-0.066844,-0.3602,0.94202,0.59635,0.0053392,0.27412,-0.65331
christmas,-1.2683,0.1637,0.94297,-0.24019,-0.059781,-0.6111,2.2597,-0.57582,-1.044,-0.3829,0.041206,-0.3066,-4.0827,0.49312,-0.47918,-0.45086,0.83705,-0.87904,-0.65342,0.67294,-1.1446,-0.50034,-0.41267,0.5155,0.27516
years,0.05831,0.70513,0.90626,-0.44321,0.064851,-0.449,1.4413,-0.32564,-1.0591,0.054169,0.21992,0.4644,-4.5026,1.2741,0.038245,-0.52827,0.025833,0.10357,-0.088506,-0.50977,-0.55164,0.45696,-0.38014,-0.21843,-0.20385
head,-0.96268,0.24157,0.34056,0.33697,0.41297,0.27009,0.9298,-0.40871,0.22449,0.59081,0.0018873,1.0077,-4.6487,-0.29821,0.20738,-0.48601,0.29869,-0.54823,-0.46148,-0.52159,0.19696,1.0243,1.6885,-0.031783,-0.086136
food,-0.57889,0.52137,-0.17892,0.2232,0.61681,0.17616,1.6829,-1.35,0.027486,0.95868,0.22251,-0.82603,-4.3866,-0.5528,0.20004,-0.44304,1.3508,-1.0176,0.069551,0.023407,-0.21827,-0.57156,-0.74594,0.26706,0.96434
trying,-0.40906,0.85294,-0.063391,-0.23778,-0.44943,-0.095257,1.6011,-1.1824,-0.038148,-0.086246,-0.40742,0.3779,-4.8959,-0.83283,-0.14904,0.54551,0.17437,-0.65076,0.13512,-1.5807,0.38357,0.53913,0.52133,0.0027191,-0.48631
without,-0.29748,0.55611,-0.090369,0.62711,-0.094778,0.10076,1.5673,-0.84443,-0.5183,0.45118,-0.024614,0.31293,-4.7617,-0.39703,0.39149,0.58412,-0.38698,-0.0050923,0.49155,-0.73857,-0.809,0.17763,-0.17456,0.090621,-0.73461
high,-0.024792,-0.072225,0.25761,-0.77133,0.39728,1.0745,0.86492,-0.42194,0.7083,0.14877,-0.6198,0.14775,-4.6733,0.46544,0.31998,-0.60974,0.263,-0.088093,0.19876,0.15021,-0.39162,0.2472,0.53907,-0.24039,-0.28683
isso,2.3562,-0.9692,0.43545,0.49056,0.44514,-0.26659,0.27634,0.6845,0.83187,-1.2947,-1.9171,-3.0394,-1.4616,-1.3665,0.16582,-0.76482,-2.7845,0.23988,-1.1919,-1.0118,0.15017,1.1365,0.099309,1.5097,-0.099104
might,-0.26652,0.59649,-0.39599,-0.54127,-0.61456,0.4178,1.5391,-0.98929,0.12961,-0.67149,-0.0044665,0.72973,-4.8653,0.15191,0.02351,0.48883,0.54723,-0.60489,0.19945,-1.3021,0.62846,0.23518,0.55778,0.36314,-0.32201
eat,-0.36896,0.75151,0.20904,0.81553,-0.78291,0.74906,1.4803,-1.4017,-0.041383,0.56439,-0.24758,-0.54959,-4.3121,-1.2073,-0.32702,-0.27267,1.2368,-1.5692,0.065546,-0.65893,0.006824,0.65933,0.13181,0.91552,1.3376
iphone,1.4512,-0.24502,0.18376,-0.57901,1.1378,0.3912,0.14374,0.58136,0.020204,0.59911,0.99498,-0.5904,-3.2137,-1.2328,-0.65261,0.28067,0.40164,-0.079185,-0.55249,0.0041486,-0.75008,-1.6819,0.76214,0.30982,-0.49317
bout,0.17552,1.8703,0.26534,0.65955,-0.36934,0.88778,0.17733,-0.73951,-0.11222,-0.10299,-1.502,0.8959,-4.668,-0.45727,0.28866,0.6642,0.15218,-0.94967,-1.5712,0.53013,1.35,0.48866,1.1783,-0.1252,0.40879
enough,0.065719,0.33664,-0.66608,0.34636,0.085934,0.51693,1.5726,-0.98017,-0.4841,-0.072345,-0.48108,0.41505,-4.6425,0.19041,-0.022051,0.17533,0.54498,-0.79583,0.47123,-0.77382,-0.10413,0.62366,-0.051321,0.39087,-0.47997
white,-0.4473,-0.8417,0.49491,-0.26619,0.4591,0.54742,0.90624,-0.2706,0.37541,0.16718,0.51811,0.11713,-4.666,-0.63828,-0.81939,-0.63082,0.69305,-0.57137,0.17595,1.1584,-0.12216,0.55775,0.50158,-0.74261,-0.18446
told,-0.57892,1.1346,1.0129,-0.062693,-0.56713,-0.84719,0.7593,-0.22346,-0.51923,-0.011842,-0.13563,0.8834,-4.9793,-0.59586,0.32596,-0.18255,0.91633,-0.32391,-0.12817,-0.52687,1.8456,0.79692,0.095418,0.054236,-0.70188
thats,0.34702,0.65298,0.047867,-0.3331,-0.025592,0.44078,1.4383,-0.3412,-1.1201,0.36177,-1.1412,1.1664,-4.5377,-0.4963,0.51741,0.28513,0.66574,-0.45996,-0.1488,0.4492,1.1993,0.72294,0.4881,0.83289,-0.088708
together,-0.54553,0.19803,0.70528,-0.004893,-0.38275,-0.14971,1.3568,-0.59197,-0.63162,-0.16561,-0.68868,0.7025,-4.4512,0.031839,-0.35287,0.68185,-0.53154,-1.0276,0.095073,-0.6751,-0.52726,0.11835,-0.15812,0.18694,0.34118
hear,-0.009402,1.0358,0.47326,0.58531,-0.77138,-0.40981,2.0618,-0.085963,-0.035873,-0.17337,-1.0214,0.84913,-4.4206,-0.27942,0.054748,0.67025,0.24902,-0.21173,-0.22576,-0.70656,0.57711,0.12407,0.5776,-0.099198,0.015637
thinking,-0.29746,0.78793,0.45029,0.371,-0.17863,1.0493,1.7053,-0.91924,-0.30753,0.56657,-0.74642,0.80833,-4.2461,-0.45101,0.54667,0.60748,-0.21891,-0.24926,-0.080301,-0.86897,0.2152,0.13923,-0.53761,0.26389,-0.4062
finally,-0.75371,0.99141,0.88145,-1.3811,-0.54577,-0.36714,1.8654,-0.30522,-0.57373,-0.066751,0.58232,0.71077,-3.9721,0.049785,0.45355,0.029708,0.35338,-0.063991,-0.47864,-0.82756,-0.21188,-0.013916,0.41987,0.96869,-0.1396
seriously,0.026199,0.05695,0.30047,-0.87966,-0.42375,0.28491,2.2415,-0.31252,-0.72916,0.43803,-0.45708,0.57048,-4.0313,-0.74041,0.81312,0.68709,0.26678,-0.73963,-0.16745,-0.79715,0.71653,0.46091,-0.11779,0.3346,-0.56346
hours,-0.091208,0.95147,1.1417,-0.58865,0.11207,0.10658,1.8363,-1.1413,-0.75676,0.67536,-0.45425,0.18928,-3.9292,0.98729,0.73036,0.063893,0.21606,-0.16015,-0.71509,-1.1364,-1.0479,-0.71461,0.62588,0.45426,0.023341
excited,-0.58288,0.21264,0.80878,-1.8699,-0.75279,0.25626,2.4894,0.01159,-0.91351,-0.76168,-0.95069,0.14685,-3.5693,0.41959,0.3255,0.25436,0.65795,-0.86333,-0.78458,-0.70595,-0.74767,-0.048025,-0.56879,0.61453,0.014432
choice,0.93182,0.15413,-0.1873,-0.49729,0.20192,-1.0042,1.6449,0.0011208,-0.86426,-1.5308,-0.047703,-0.34798,-3.4423,0.1073,-1.1769,-0.09,-1.5032,-0.86535,0.32174,-0.013402,-1.0939,0.89455,-0.42639,0.085454,-0.3289
whole,-0.15789,0.68729,1.0572,0.33385,0.17255,-0.035298,1.4947,-0.79266,-0.40108,0.34744,-0.63247,0.27086,-4.9259,0.31323,0.24046,0.31943,0.94097,-0.053345,-0.19703,0.087532,-0.66799,0.42575,0.50878,-0.082606,-0.31309
following,0.0002795,1.3836,-0.37921,-0.29741,0.23421,-0.86315,1.049,0.06558,-1.2956,0.44363,-0.080866,0.60274,-3.4263,-0.19661,-0.23726,-0.095734,-0.37469,-1.0815,-0.68168,-0.85232,-0.35603,-0.91089,-0.3529,-0.094251,-1.2476
city,-0.47779,0.19399,-0.069769,-1.1541,-1.0235,0.63817,0.35973,0.7739,0.85665,0.053793,0.42562,-0.12539,-4.1404,1.0216,1.0751,-0.44911,-0.21962,-0.539,0.012085,0.096717,-0.95972,-0.20216,-0.29058,-1.4314,0.50032
reason,0.43525,0.41565,-0.0049016,0.33494,-0.093569,0.0231,1.8699,-0.57324,-0.61937,0.11542,-0.90317,0.59846,-4.3689,0.15006,0.03712,0.52517,0.052408,-0.22282,0.57383,-0.55142,0.65294,0.43788,0.37033,0.12756,-0.73918
others,-0.68139,0.30709,-0.31248,0.62341,-0.65668,0.37172,0.57474,-0.78384,0.48395,0.6426,-0.93144,0.17376,-4.1585,0.55153,-0.41908,-0.36601,-0.93856,0.020714,0.8258,-1.0031,0.18399,-0.84823,-1.3379,-0.62645,-0.14321
followback,0.3978,0.8438,-1.2481,-1.1352,0.052795,-1.1779,0.21848,1.715,-1.8464,0.34253,-0.29514,-0.0032596,-1.5478,-0.95187,-1.1135,-0.3357,0.24764,-1.4149,-0.70194,0.079506,-0.4259,-2.1583,-0.15854,1.1291,-0.33922
early,-0.4943,1.4358,0.5366,-0.50304,0.36904,0.41312,1.5158,-0.96094,-0.22152,-0.040996,-0.95084,0.37081,-4.0444,1.0315,0.99579,-0.50991,0.51453,-0.53012,-0.84289,-0.81962,-0.48368,-0.21304,0.65785,0.47714,0.3871
tl,0.96366,0.53984,0.28983,-0.204,0.89558,0.57996,0.13911,1.3295,-0.39567,1.1474,-0.81565,-0.032988,-2.3704,-0.48182,-0.7895,1.0276,-0.46481,-0.69115,-1.667,-0.069257,0.17974,-0.30401,0.21371,0.36128,-0.15262
relationship,-0.39927,0.66388,-0.47117,0.8664,0.84573,0.37485,1.5294,-0.070059,-0.1916,0.00083079,-1.0933,0.5399,-4.1536,0.64795,-0.30818,1.5639,-0.47233,-0.66426,0.95186,-0.54655,0.55923,0.48209,-0.79495,-0.12258,-1.6263
unfollowers,1.7786,1.212,-0.54426,-0.72061,1.1047,-1.5166,0.99957,-1.0071,-1.4551,0.51134,0.53151,-0.16902,-1.4278,0.048445,0.17006,0.67377,0.48524,-0.69588,-0.098418,0.020879,-0.1401,-1.7115,-0.23638,-0.56809,-0.70356
found,-0.37,-0.031164,0.85764,0.038775,-0.11446,-0.61154,1.2447,-0.58161,-0.54986,0.46104,0.88408,0.43118,-4.4458,-0.32534,-0.059401,-0.11956,1.4118,0.66232,0.19906,-0.69259,0.34827,-0.2274,-0.10779,-0.33054,-0.098667
season,0.34853,0.58149,0.36469,-1.1334,-0.31172,0.20243,1.7893,-0.15265,-0.38154,-1.1523,0.26419,0.95886,-3.8735,1.2624,0.93331,-0.29367,-0.58902,-0.72573,-0.54558,0.20116,-1.7377,0.66936,0.39875,-0.12239,0.24632
boa,0.53238,-0.59473,0.86688,-0.39784,0.44804,0.26459,0.64058,0.65221,0.72893,-1.471,-2.2056,-2.3393,-1.4621,-0.47586,-0.36827,-1.2315,-1.4995,-0.30411,-1.794,-0.28414,0.048677,0.21054,-0.6269,1.3211,0.5156
chance,0.36328,0.1269,-0.64457,0.15719,-0.1903,0.19015,0.73801,-0.26004,-0.29243,-1.5073,0.18171,-0.89314,-3.8858,0.57362,-0.26139,0.15957,-0.43473,-0.35002,-1.3865,-0.50309,-0.77255,-0.24452,0.38115,0.66513,-0.87657
beat,0.34217,0.97395,0.12035,-0.46513,-0.8971,0.41443,0.69614,0.42862,0.099945,-0.54373,-0.20615,0.7045,-4.2236,-0.10801,0.54096,-0.31654,-0.020132,-0.85553,-0.10074,0.20079,-0.28642,0.77315,1.2873,-0.97314,0.50418
follower,0.39501,1.1017,-0.64256,-1.1657,1.6022,-0.3429,0.1693,0.72666,-1.1074,0.86849,0.61745,0.066188,-2.1503,-0.39153,-1.5102,0.73976,0.36556,-1.3507,-1.3453,-0.50414,-0.58507,-0.9704,-0.39387,0.42582,-1.0679
wit,-0.36857,1.9883,0.62588,0.6126,0.21172,0.87087,-0.43169,-0.1802,-0.041444,0.56349,-1.6666,1.0013,-4.6617,-0.49561,-0.36459,0.39919,0.78771,-0.90378,-0.056799,1.3391,0.29909,0.48888,0.99965,-0.073067,0.75093
fact,0.30673,0.22631,0.11983,0.20555,-0.15293,-0.18333,1.6975,0.3638,-0.35856,-0.023718,0.024788,1.0762,-3.6222,-0.12409,-0.10876,0.35018,-0.071784,-0.3198,-0.0031859,-0.22287,-0.029263,0.60215,-0.98001,-0.046023,-0.98315
brother,-0.74632,0.67652,0.95797,0.14361,0.02808,-0.51116,1.0101,0.65478,-0.60427,-0.36362,-0.68061,-0.31691,-4.0293,-0.73709,0.33912,-0.54796,0.38303,-0.69526,-0.32052,-0.16578,0.65092,0.6075,-0.11483,-0.10159,-0.32912
peoples,1.33,0.3757,0.38365,0.35385,-0.030818,-1.0787,1.6127,0.22355,-1.3829,-1.5167,-0.71385,-0.19114,-3.0008,-0.15458,-1.4638,-0.1163,-2.3221,-1.2228,0.35355,0.53091,-1.1179,1.2255,0.023098,-0.90839,-0.72392
fin,0.53892,0.081146,-0.79432,0.35609,0.23038,0.53213,-0.38549,2.0766,-0.95301,-1.1792,0.44588,-1.9231,-1.8805,1.1764,1.2859,0.78279,0.57756,0.71894,-1.6716,0.34897,0.17215,-0.81285,0.40706,0.44306,1.2715
hour,-0.30289,1.031,0.84472,-0.35299,0.24867,0.13889,1.8252,-0.9867,-0.17896,0.23689,-0.34525,0.11497,-3.7992,0.9557,0.82704,-0.073023,0.37106,-0.33656,-0.92735,-0.76762,-0.94524,-0.58192,0.49053,0.3925,0.15834
thirsty,-0.24921,1.8432,-1.0863,-0.178,0.69776,0.37695,0.87494,-0.79329,-2.606,0.52896,-0.81132,-0.17941,-2.5384,-1.1536,-1.0137,0.086021,-0.59449,-1.8137,0.38174,0.059993,0.91171,0.22987,0.59753,-0.18382,0.42743
fight,0.177,1.0612,-0.37532,0.37692,-0.38193,-0.035887,1.1323,-0.12143,0.21336,0.017709,-0.39995,0.71165,-4.0861,0.26918,0.16057,0.11511,-0.51632,-0.73059,0.065623,-0.76326,0.021604,1.2975,0.48221,-0.74395,0.38602
heard,0.287,1.1403,1.0746,0.036523,-0.45213,-0.32689,1.6444,-0.21533,-0.54148,-0.16618,-0.21257,1.2581,-4.2278,0.048264,0.24089,0.50207,0.83236,0.23397,-0.12121,-0.15136,0.99586,0.36068,0.32045,-0.26932,0.1661
easy,0.083593,0.39824,-0.90454,-0.0050385,0.46496,0.85628,1.2439,-0.90065,0.20512,-0.3293,-0.52603,0.35712,-3.9871,-0.41013,0.17871,0.15792,0.34955,-0.52331,0.14172,-0.50487,-0.33821,-0.21751,-0.072673,0.84147,-0.22719
least,0.49457,0.26938,0.28072,-0.4518,-0.63633,0.21695,1.386,-0.55261,-0.60492,0.37937,-0.0066543,0.33671,-4.3253,0.74009,0.37801,0.10061,0.87957,-0.6611,0.1237,-0.93558,0.11349,0.44064,-0.14545,0.015325,-0.86836
business,0.077507,0.80513,-1.1954,-0.78154,1.3877,-0.018525,0.49208,-0.98179,1.0274,-0.063191,-0.44426,0.055979,-4.6939,0.034159,0.55451,-0.48754,0.28644,-0.059675,0.11087,0.00047241,0.067165,-1.4893,-0.86799,-0.43494,-0.45832
wear,-0.41459,-0.66893,0.072897,-1.2837,-0.34257,0.46651,0.58579,-1.2067,-0.25414,0.084992,-0.042549,-0.54822,-4.8801,-0.90711,-1.3202,0.71405,0.58172,-1.7746,0.27132,0.44514,-0.51733,1.1868,0.74156,0.12872,-0.76915
:o,0.62422,-0.27107,0.08211,0.005107,-0.14493,0.079775,0.57948,2.0657,-0.50427,0.8073,-0.38127,-0.45634,-2.0888,-0.5461,1.2103,0.11439,0.1597,-0.19857,-1.158,0.27436,0.42921,0.32346,0.070645,1.5051,0.18091
football,0.36491,0.46657,-0.64874,-1.6317,-0.10499,0.29539,1.102,-0.37133,-0.37283,-0.80927,0.18891,0.31195,-4.1618,0.65512,1.4357,-0.0057378,-0.3075,-1.2917,-0.39751,0.65063,-0.83692,0.68736,0.19409,-1.3879,-0.064282
learn,0.58035,0.82394,-0.95395,0.19333,-0.050342,-0.20565,1.5672,-1.0476,0.8112,-0.58665,-0.94024,0.38921,-4.6877,-0.3566,-0.21882,0.362,0.21614,-0.39527,0.85753,-1.0633,-0.018846,-0.20455,-0.65078,0.39326,0.076964
knew,0.28602,0.87077,0.90741,-0.093098,-0.75814,-0.37049,1.3324,-0.3301,-0.888,-0.095141,-0.34275,0.93087,-4.4412,-0.3078,0.21559,0.31001,0.8308,0.15952,0.34923,-0.396,1.2716,0.78887,-0.011822,0.19585,-0.37148
worth,-0.26559,1.0267,-0.21582,-0.17478,-0.061777,0.28052,0.73311,-1.3842,-0.84804,0.13089,0.15464,0.45867,-4.3862,0.19371,0.060209,0.18071,-0.1115,-0.039883,0.21777,-0.64575,-0.65452,-0.39837,-0.18885,1.1001,-0.68782
weather,-0.86476,-0.6975,-0.69574,-1.2633,-0.19891,1.0855,1.8611,-1.1699,0.14969,0.4091,-0.93497,0.25987,-3.6783,1.2144,1.5095,-0.38407,0.19425,-0.095738,-0.18508,0.48539,-0.045575,-0.71927,1.2073,0.026715,0.090112
sounds,-0.48018,-0.4813,0.42723,-0.16453,0.16706,0.79156,2.2335,-0.62469,-0.46821,-0.25475,-0.17126,0.89762,-3.6204,-0.66844,1.1453,0.10699,0.81768,-0.047433,-0.14116,0.20972,0.40326,0.23082,-0.069262,0.48581,0.73323
fire,-0.32758,0.14634,0.49409,0.34161,-0.34152,0.11638,0.97545,-0.11533,0.62231,0.099155,0.71008,0.29468,-3.9224,0.22058,0.61609,-0.096445,0.082702,0.20262,0.14968,-0.30828,-0.35875,-0.29814,1.0013,-0.74056,0.84518
crying,-0.71141,-0.031461,1.4791,0.28417,-0.39213,-0.42522,2.1894,-0.56323,-1.3977,0.63534,-0.89835,0.9655,-3.4884,-0.60573,0.36111,0.67512,-0.47096,-0.036578,-0.74852,-1.1892,0.4947,0.81633,0.6957,0.058964,-0.17137
month,-0.33309,1.3413,0.28396,-0.7477,0.55314,-0.57133,1.2026,-0.13058,-0.12514,0.27723,0.0053992,0.39273,-3.6606,1.5906,-0.075937,-0.34245,0.71415,-0.66325,-0.4484,-0.39419,-0.99257,-0.076361,-0.22238,0.96051,-0.12478
hand,-0.60333,-0.45794,-0.10913,0.48616,0.26582,0.097204,0.1379,-0.82368,-0.098109,0.63719,0.74834,1.0099,-4.3704,-0.60692,-0.73595,0.3828,0.57268,0.31521,-0.78625,-0.37303,-0.76766,0.75813,0.98118,0.50311,-0.28853
sound,0.068259,-0.34138,0.5292,0.046622,0.52329,0.91811,1.7084,0.050088,0.62563,-0.022857,-0.54352,0.98915,-3.7053,-0.68173,0.24324,0.5263,0.3938,-0.035467,0.14857,0.00093236,0.13215,-0.097759,0.16954,-0.18933,0.41131
literally,-0.32707,-0.081154,1.1001,-0.62844,-0.42363,0.045287,2.1766,-1.1968,-1.1983,0.45606,0.22344,0.4884,-4.0508,-0.48771,0.39211,1.0889,0.17266,0.37751,-0.16369,-1.0868,0.41764,0.53695,0.49898,0.26026,-0.23867
whatever,0.10416,0.37708,-0.59571,0.43044,-0.45516,-0.21648,1.5967,-0.40531,-0.38382,0.28217,-0.77429,0.38644,-4.2098,-0.4624,0.70796,0.52114,0.24497,-0.65784,0.38764,-0.055783,0.71525,0.48897,-0.07207,0.9235,-0.45282
light,-0.88979,-0.74363,0.1855,0.4798,0.021047,1.113,0.8961,-0.24408,0.77952,0.22079,0.11942,-0.046751,-4.2026,0.32559,-0.23803,0.17227,0.23866,0.33187,0.7146,0.521,-0.68861,-0.26925,0.99232,0.37772,-0.069561
info,0.5271,1.329,-0.37225,-0.8239,0.68935,-0.2847,-0.081304,1.5315,0.48288,0.27428,0.74616,-0.02645,-2.7957,0.2658,0.11024,0.010884,0.14398,-0.37522,-0.74435,0.14349,-1.1941,-2.2784,-1.3302,-0.0020095,-0.46547
serious,0.39127,0.67818,-0.35924,-0.19231,0.6029,1.1135,1.4048,-0.0033025,0.16638,0.5237,-0.87116,0.90984,-3.4945,-0.20573,0.9821,0.63832,0.57208,-0.6294,-0.42466,-0.76455,0.68349,0.5344,-0.16008,0.078071,-0.82467
tout,0.77159,-1.0981,-2.2233,1.328,-0.6298,0.3884,-0.43416,-0.081471,0.18496,-0.37828,-0.19323,-0.89706,-2.0165,0.39805,0.7123,2.075,-0.60737,-0.5792,-3.943,1.5852,0.2974,-0.72704,0.45263,-0.35568,-0.17361
straight,-0.22002,0.73513,0.60993,-0.51851,0.33124,1.0915,0.7029,-0.43426,-0.10485,0.58072,-0.45032,0.80309,-4.0881,-0.08471,0.2072,0.18187,0.40694,-0.78695,-0.092152,-0.33699,-0.031894,0.93914,0.91941,-0.39277,-0.23438
eating,-0.93049,0.5541,0.9343,1.0354,0.05838,1.1454,1.55,-2.108,-0.54344,0.81618,0.27495,-0.36006,-3.6991,-1.3369,0.52501,-0.24255,0.6562,-0.76124,-0.089258,-0.65529,-0.23448,0.52553,-0.55127,0.30052,0.93027
mother,-1.1538,0.35302,0.42336,0.6585,0.41522,-0.59161,1.6598,0.032121,-0.42962,0.18534,-0.30366,0.21844,-3.8577,0.24523,-0.32361,-0.31029,0.70883,-0.083037,-0.051809,-0.053355,0.99868,0.81361,-0.39237,-0.33642,-0.021506
account,0.8481,0.55402,-0.017825,-0.80085,1.212,-1.6228,0.41016,0.17205,-0.6894,0.71763,0.1957,0.47621,-3.6408,-0.7999,0.089744,0.86771,0.58954,-0.17732,-0.7581,-0.54481,-0.23411,-1.0188,-0.59961,0.33831,-1.571
rather,-0.20807,0.25656,-0.70599,0.023463,-0.43903,0.98385,1.2676,-1.3207,-0.21223,-0.39137,-0.48635,0.58485,-4.4237,-0.10583,-0.22426,0.41168,0.51778,-0.45267,0.45065,-1.3642,0.22667,0.44571,-0.17395,-0.03013,-0.55012
type,0.44911,-0.19895,-0.47703,0.21622,0.83392,0.71772,1.0674,-0.23235,0.7977,0.16973,-0.42782,0.6522,-3.873,-0.33917,-0.17546,1.2659,0.68699,-0.3905,-0.2384,0.49339,0.43594,0.2894,0.11263,0.089456,-0.50848
alright,-0.46399,0.55015,0.23156,-0.17287,-0.86612,0.16671,1.779,-0.11196,-1.0391,-0.12751,-1.125,0.60721,-3.2782,-0.55799,0.86114,-0.019914,0.58751,-0.6842,-0.55996,-0.32915,0.96819,0.43231,0.38438,1.0354,0.011732
three,0.74651,0.55743,1.1199,-0.071282,0.020448,0.2907,1.2856,-0.93757,-0.65912,0.20197,0.85972,0.21294,-4.0401,1.1427,-0.069181,-0.75733,0.38232,-0.32294,0.093781,0.065144,-0.92275,0.20484,0.14662,-0.65888,-0.63617
teamfollowback,0.12305,0.85856,-1.8803,-1.2969,-0.43101,-0.46806,0.39267,0.53107,-1.0968,0.74218,0.0021372,0.59889,-1.6328,-0.91141,-1.2509,-0.41836,-1.1104,-1.4719,-0.068373,-0.26162,-0.14365,-2.1112,0.16346,-0.60074,-0.17403
shoutout,-0.23483,1.252,-0.54826,-0.30827,0.70465,-1.222,0.78358,0.22866,-1.6106,0.2067,-0.92474,-0.42725,-2.3129,0.056867,-1.5736,-0.042697,0.069056,-1.3972,-1.3157,0.46885,0.052067,-1.1927,0.078117,0.34205,-0.60137
honestly,0.16889,0.40847,0.099375,-0.67249,-0.58474,0.16742,2.0928,-0.84687,-1.3703,-0.1347,-0.88316,0.48392,-4.1642,-0.43868,0.46523,0.8132,0.14691,-0.42211,0.43554,-0.45779,1.0583,0.68767,-0.19068,0.35595,-0.53704
shopping,-0.87153,0.0038353,0.62383,-0.94453,0.25796,0.65874,0.53978,-0.65661,0.8525,-0.13197,-0.66023,-1.8775,-3.5309,-0.61829,0.29144,-0.32751,0.085737,-1.3261,-0.73404,-0.59408,-0.77177,-1.1259,-0.65975,0.37953,0.65029
instead,-0.26109,0.43097,0.49827,0.19229,-0.17634,-0.034483,1.2107,-1.3609,-0.39437,0.64946,0.0056518,-0.034618,-4.3467,-0.50365,0.52859,0.42823,-0.27398,-0.60894,0.028866,-0.77741,-0.42861,0.16116,-0.27532,0.15168,-0.24497
official,-0.17569,0.61605,0.22807,-0.47727,0.58091,-1.0469,1.1906,1.2583,0.4057,-0.75362,0.52161,0.879,-3.1809,-0.16901,0.026443,-0.093768,0.055551,0.2719,-0.10414,0.31932,-0.83681,-0.60492,0.17548,-1.0507,-0.076183
exactly,0.51486,0.14911,-0.021166,-0.15062,-0.44309,0.10494,1.4501,-0.86128,-1.1499,0.031077,-0.69383,0.94549,-4.093,0.034173,0.55014,0.058078,0.51494,0.056513,0.086744,-0.33226,0.81453,0.20829,-0.28729,0.58806,-0.60575
country,-0.29159,-0.036755,-0.14379,-0.62533,-0.28054,-0.083234,1.0597,-0.56264,0.12039,-0.29531,-0.57192,-0.49519,-4.5127,0.5549,-0.071129,-0.13111,-0.26254,-0.16039,0.70769,0.24018,-0.27281,0.3087,-0.47999,-1.4149,0.68254
become,-0.21112,0.14126,-0.74599,-0.72244,0.29167,0.39773,1.283,-0.40302,-0.22922,-0.53883,-0.27068,0.64217,-4.4822,0.19377,-0.46397,0.3434,0.34473,0.057185,1.3989,-1.4393,0.095111,0.44194,-0.8319,-0.75337,-0.46366
goodmorning,-1.0124,1.45,0.26257,0.1706,-0.036693,-0.45492,1.6303,0.22192,-2.033,0.49273,-1.7827,0.26178,-2.034,0.057195,-0.6061,-0.33495,0.97806,-0.91407,-0.95584,0.69681,0.31173,-0.83739,-0.44503,1.1715,-0.1798
sougofollow,0.17654,0.039845,-1.3996,-2.0067,-0.90004,-1.4435,-0.03264,0.36214,-0.89496,-1.0374,-0.098089,0.58523,-1.1897,-1.3405,-2.3434,-0.72707,-0.0076358,-1.652,0.11556,1.6017,-0.47903,-2.7857,0.70613,-1.1117,1.2838
ate,0.4832,-0.42756,1.7874,-0.044928,-0.963,-0.26455,0.45832,-0.26156,-0.024076,-0.27007,-0.96727,-2.4147,-3.2089,-0.81825,-0.22525,-0.49277,0.54521,-0.27217,-0.60253,-0.66173,-0.44165,1.3034,-0.082947,2.0333,0.10613
months,-0.38587,0.95265,0.76918,-0.6722,0.44117,-0.45616,1.1594,-0.77692,-1.359,0.65743,-0.029589,0.49663,-3.7641,1.2737,0.15856,-0.37666,0.41631,-0.28877,-0.39547,-0.98878,-0.68331,0.12696,0.11259,0.42779,-0.41095
wearing,-1.0235,-0.75779,1.0242,-1.316,-0.16786,0.47738,0.51983,-1.2439,-0.83043,0.33023,0.34814,-0.040118,-4.4564,-1.0982,-0.68257,0.33003,0.14985,-1.0013,-0.22106,0.53258,-0.38499,1.2701,0.53647,-0.66909,-1.1095
chat,0.72234,0.33438,0.24454,-0.11189,0.91475,-0.51871,0.22853,1.1805,0.52257,-0.39032,-0.58948,-0.79707,-2.9794,-1.2378,0.46289,1.1848,-0.094942,-0.82429,-1.2213,-0.2733,-0.11928,-0.95941,-0.057541,0.4684,-0.43568
reading,0.20497,0.68135,0.90055,0.10242,0.25843,-0.10331,1.7554,-0.85618,-0.24578,-0.53101,-0.53819,0.80281,-3.559,-0.12707,0.7496,0.034547,-0.030053,0.38047,-0.36524,-0.83226,-0.80377,-0.61782,-0.89465,-0.16094,-0.50413
whats,0.99083,0.81926,0.75518,0.28614,0.3799,-0.12612,0.33077,0.030267,-0.53795,-0.63712,-1.2923,-0.645,-3.7598,-1.4507,0.46459,0.12509,0.20013,-0.10977,-0.36076,-0.21592,0.70703,-0.47168,0.42395,1.1094,-0.38621
boca,0.24888,-0.97777,0.70641,0.64224,-0.72521,1.0048,-0.90131,2.3996,0.6483,-0.79615,-0.32618,-3.0376,-1.574,-0.33058,0.41053,-0.14323,-1.3733,-0.46097,0.45759,0.11334,0.11665,0.66279,1.5204,-0.13338,0.18365
catch,-0.11525,1.1921,0.4127,0.36934,-0.50001,0.35241,1.4732,-0.2749,0.071919,-0.53507,-0.61169,0.87485,-3.6863,0.2286,0.085026,0.50243,0.12547,-0.76491,-0.67428,-0.54428,-0.14939,0.2989,1.3245,-0.2469,0.19364
death,0.021377,0.10369,0.053792,0.99278,0.053254,-0.63449,1.5244,-0.24008,-0.040619,0.37077,0.32772,0.71652,-3.6274,0.85833,0.44822,-0.096083,0.11771,0.84481,0.12627,-1.0624,0.056151,0.73269,0.14332,-0.97436,0.46834
openfollow,-1.0514,1.3975,-2.2013,-1.471,0.54963,-1.6338,0.59934,1.456,0.10283,0.28748,0.20738,1.0078,-0.68351,-1.3142,-1.6102,0.12063,-0.77237,-1.8104,-1.3801,-0.14528,-0.54683,-1.0609,-0.35666,0.71813,-0.50996
shower,-1.6493,0.33315,0.81582,0.36654,0.47834,0.73602,1.3234,-0.88784,0.38742,0.52625,-0.25308,-0.0075584,-3.4699,-0.3966,0.039903,0.73243,0.91272,-0.52122,-0.75293,-0.58501,-0.52482,-0.06315,1.3302,0.90403,0.36702
art,-0.60111,-0.78449,-0.17668,-0.1603,1.1819,-0.23318,0.85032,-0.11741,0.6122,-0.67264,0.17432,0.074486,-3.7934,-0.14081,-0.16446,0.044825,0.37728,0.72096,-0.053711,0.55805,-0.76145,-1.0378,-1.0496,-0.36435,0.2108
front,-0.64276,-0.23709,0.34453,0.067713,0.17912,0.041389,0.26563,-0.73328,0.58509,0.64473,-0.020828,0.3484,-4.3532,-0.01672,0.076988,0.75669,0.21479,-0.42323,-0.76686,-0.20098,-0.17666,-0.13762,1.2389,-1.1678,-0.5827
crush,0.041472,-0.68354,0.89002,0.079389,0.049475,-0.35581,1.4291,1.2662,-0.27341,0.32642,-0.60209,-0.64343,-2.9005,-0.083994,0.11992,1.499,0.98754,-0.6939,-0.098691,-0.33421,0.20806,0.22803,-0.32057,0.047609,-1.5318
boring,0.54285,0.19521,0.42417,-1.256,0.64294,1.1935,2.006,-0.19171,0.13497,0.6641,-1.9483,0.51929,-2.9851,0.50069,1.0646,0.88739,0.65761,-0.93117,-0.44223,-0.45119,0.13189,0.62025,-0.39046,0.34734,-0.1574
beach,-2.3753,-0.28504,0.75985,-0.97004,-0.77088,0.7374,0.94173,-0.43263,0.58163,0.11714,-0.57438,-0.82711,-3.6898,0.24879,0.50887,-0.27429,0.25912,-0.60635,-0.17212,0.58951,-0.72685,-0.67133,0.28167,-0.75017,1.2983
hurts,-0.41176,-0.52606,-0.25577,0.70467,-0.1817,-0.013467,1.8991,-0.92865,-1.1042,1.0188,-0.74731,1.1093,-3.1707,-0.28182,0.60347,0.5701,-0.3436,0.24565,0.60006,-0.98843,0.23095,1.4029,1.5689,1.1453,-0.31345
heat,0.19675,0.84993,-0.40735,-0.79122,-0.43254,1.0784,0.80974,0.012239,-0.017593,-0.27525,0.033504,0.50346,-3.5626,0.70125,1.024,-0.20978,-0.37778,-0.93486,0.5546,0.31131,-0.73793,0.76567,2.1186,-0.40522,0.050475
child,-0.72576,0.40073,-0.041544,0.92706,0.99429,-0.90944,1.2618,-0.32935,-0.18241,0.41867,0.05083,0.38727,-4.0082,0.18288,-0.16037,-0.05441,0.48821,0.065027,0.48411,-0.63024,0.57902,0.69124,-0.60869,-0.99102,0.22052
mouth,-0.69247,0.015485,0.087218,1.4157,0.62665,0.21719,1.2109,-1.0223,-0.0068606,1.0524,-0.1609,0.86278,-3.7374,-0.78063,-0.067139,0.26446,0.47769,-0.37711,0.13732,-0.60395,0.74122,1.3343,1.5674,0.37091,0.13666
played,0.52887,0.5997,1.0502,-1.0242,-0.86072,0.40999,0.84075,-0.12928,-0.71412,-1.0658,0.1933,1.5332,-4.1827,0.2933,0.84237,0.34721,0.66849,-0.08207,0.41609,-0.21356,-0.5491,1.082,0.68583,-0.75203,0.082578
unfollower,0.77716,1.3897,-0.34285,-0.99627,1.0903,-1.7515,0.9387,-1.6275,-0.9321,-0.24193,1.2122,-0.060032,-1.2358,0.85306,0.12969,0.47532,0.77458,-0.61238,-0.64251,-0.12275,-0.22156,-1.6429,-0.92669,-0.57274,-0.7653
teacher,0.19484,0.33447,0.93546,-0.48329,1.1514,-1.2814,1.5305,-0.3708,0.57756,0.24608,-0.78535,-0.32367,-3.6943,0.12604,1.253,0.014313,1.0713,0.12095,0.07319,-0.47222,0.99402,0.29617,-0.61875,0.097479,-0.90367
coffee,-1.4532,0.25594,0.081679,0.49081,-0.059128,0.63656,1.4566,-1.0607,0.47903,0.47616,0.85016,-0.40645,-3.5843,-0.5237,0.46344,-0.50906,1.2432,-0.54121,0.19375,0.35703,-0.9885,-0.69335,-0.33998,0.71827,1.0704
chelsea,0.5867,0.52568,-0.21607,-1.4259,-1.371,0.44783,-0.49934,1.3785,-0.11744,-0.43738,0.74114,0.40229,-3.1819,0.7274,1.1543,-0.48782,-1.0067,-1.1733,-0.54304,-0.48163,-1.3062,1.0608,-0.46025,-1.0867,-0.85849
tomar,0.48821,0.46763,0.46122,1.0889,0.039891,1.816,-1.25,0.44237,0.88231,-0.86548,-0.26374,-3.4786,-2.505,-0.52981,1.1783,-0.66043,-0.17023,-0.24103,-0.18295,-0.63827,-0.17184,-0.53165,0.12935,1.6132,0.65708
round,-0.74681,0.40575,0.76244,-0.49926,-0.067388,0.67975,0.25426,-0.41372,0.15444,-0.17953,-0.17474,0.29889,-3.9994,0.72436,0.14442,-0.0068141,0.21504,-0.74715,-0.62657,0.19542,-1.0239,0.33997,1.563,-0.33633,0.046848
match,0.39304,0.0012018,-0.96841,-1.1391,-0.71713,0.4382,0.14696,0.079529,-0.052263,-0.66014,0.39686,0.51126,-3.5505,1.4328,0.85057,0.99775,-0.32376,-0.90502,-1.9819,0.4701,-1.4068,0.50179,0.49189,-0.83705,-0.33304
boss,-0.31842,0.68676,-0.51459,-0.34333,-0.2864,-0.20492,0.16199,0.84884,0.28903,0.21677,-0.31534,0.44832,-3.4762,-0.0762,0.88291,-0.14146,0.42844,-0.91535,-0.92923,0.28549,0.34761,0.58546,-0.26337,-0.20295,-0.28849
shows,1.1687,-0.088595,0.88752,-0.4041,0.79915,-0.14131,1.1989,-0.79636,-0.19018,-1.0963,0.012972,-0.42616,-3.8783,0.44686,-0.034906,0.015831,-0.66665,0.0064478,0.0631,-0.60387,-0.31016,-0.074678,-0.3564,-0.62162,-0.065398
breakfast,-1.2631,0.97467,0.58564,0.24308,-0.00048782,0.78041,1.3769,-1.1552,0.31112,0.18297,0.24571,-0.59838,-3.431,-0.57546,0.72326,-0.37095,1.6455,-1.7549,-0.82295,0.014697,-0.52037,-0.16713,-0.91294,1.0092,1.2327
clothes,-1.0323,-0.16899,0.61906,-0.48984,0.78803,0.56856,0.64321,-1.9082,-0.76225,0.65583,-0.085353,-0.50772,-4.1939,-0.73514,-0.82979,0.31707,0.7666,-1.5069,0.04832,0.19709,-0.46408,-0.048761,0.58434,0.31618,-0.62349
throw,-0.093499,0.81163,0.50686,0.70394,-0.47586,0.43752,0.90048,-0.84243,0.23298,-0.060965,0.13304,0.60487,-4.1322,-0.41924,-0.16121,0.18289,0.8187,-1.3616,-0.067428,-0.43454,-0.2258,0.89626,1.9278,-0.19795,-0.11904
thoughts,-0.18828,0.38131,-0.17412,1.2872,0.22122,0.40871,2.0001,-0.93717,-0.29196,-0.37645,-0.77242,0.77244,-3.5705,1.1158,0.33211,0.37446,-0.13665,-0.064286,0.66213,-0.51703,0.309,-0.403,-0.025331,-0.2622,-0.74351
texting,-0.45353,1.4179,0.96606,0.68107,0.57283,0.28627,1.3064,-0.72339,-0.6109,0.86472,-1.5098,0.65145,-3.1998,-1.3259,0.48643,1.1933,-0.42454,-0.63197,-0.10759,-1.0228,0.93809,-0.61211,-0.016724,-0.24139,-1.4808
thursday,-0.81878,0.76539,0.41181,-1.1554,0.22093,-0.73143,1.7047,-0.62448,-0.34001,-0.24932,-0.46008,0.36927,-3.3686,1.1328,0.84949,-0.60852,0.43005,-0.8674,-1.0757,-0.01617,-0.6631,-0.64081,0.65551,0.27387,0.83179
whatsapp,1.865,0.6414,0.56377,0.011889,1.0863,-0.10846,-0.93687,1.5482,-0.41065,0.74116,0.22732,-0.9664,-2.1279,-1.3198,0.25663,0.6442,0.65948,0.27613,-0.59845,-0.73565,0.59431,-1.4736,-0.1373,0.88483,-0.77323
followme,0.1544,0.48936,-1.0324,-1.387,-0.77101,-0.58331,0.37465,0.60974,-0.83457,-0.25333,-0.8683,0.57287,-1.6716,-1.0556,-1.8193,-0.14307,-0.67314,-1.2572,-0.308,0.95253,-0.13801,-2.7955,0.0062109,-0.65481,-0.10622
history,1.2712,0.24266,0.22238,-0.661,0.44286,-0.59389,1.6355,-0.30264,0.28732,-0.59472,0.046785,0.60496,-3.8291,0.9782,1.1357,0.011575,0.12622,0.45198,0.23513,0.040956,-0.88458,0.21585,-0.5444,-0.55018,-0.14772
shout,-0.63385,1.4862,0.044072,0.053509,0.21276,-0.63619,1.1462,0.044281,-1.047,-0.27095,-0.8015,0.2522,-3.0719,-0.099022,-0.83805,-0.028291,0.032069,-1.2078,-0.63921,0.1341,0.21111,-0.37752,0.34497,-0.30442,-0.075099
cake,-1.0327,0.06449,0.807,0.89793,0.055082,0.49512,1.4572,-0.53937,0.073718,0.11263,0.9535,-0.22359,-3.2569,-1.0959,-0.24933,0.15011,1.5693,-1.3038,-0.43958,0.86215,-0.90223,0.25763,-0.58111,1.1424,0.80876
collected,0.24111,0.041231,0.12541,-0.41972,-0.00040917,-0.014043,-0.20279,-2.262,-0.78036,-0.38037,1.3979,0.39997,-2.0051,0.38144,-1.4026,0.36226,0.95433,0.64345,1.0492,-0.90257,-0.62438,-0.83396,-0.24754,0.48473,-0.59433
giveaway,-1.0576,0.66019,-0.5696,-1.0472,0.43966,-1.1471,0.75647,-0.16051,-0.41967,-1.0576,1.5009,0.5285,-2.7632,-0.19861,-0.9569,-0.57237,-0.0018325,-1.1161,-0.083512,0.79158,-2.1001,-1.4273,0.037155,1.3818,-0.20555
write,1.1652,0.63324,0.47338,0.45205,0.27021,-1.008,1.5281,-1.1739,0.25396,-0.82042,-0.78121,0.78792,-4.1194,-0.74266,-0.22126,0.49526,0.66434,-0.0075929,-0.35686,-1.0826,-0.15331,-0.28006,-0.47192,0.59004,-0.61437
winter,-0.99541,-0.58091,-0.20015,-1.1311,-0.23323,0.8997,1.2102,-0.96783,-0.26246,-0.3539,0.20175,0.38503,-3.5827,0.76316,-0.031194,-0.092785,0.49201,0.050903,-0.63634,0.6413,-1.4666,-0.17529,0.39575,0.00067332,0.9363
historia,0.99868,-0.74351,0.79117,-0.57371,1.0044,-0.019384,0.15108,2.6473,-0.43323,-1.3994,-0.090104,-2.4276,-0.99361,0.67873,1.1466,0.66626,-0.45645,1.8303,0.15299,-0.10758,0.059124,0.034066,-0.25189,0.094869,0.42352
thinks,-0.51213,0.13056,0.507,-0.28644,-0.22644,-0.46383,1.293,-0.54318,-0.61711,-0.16926,0.18555,0.77829,-4.3367,-0.97841,0.5822,0.21215,-0.022632,-0.16435,0.39875,-0.34916,1.8047,0.96536,-0.20982,-0.32909,-1.2659
ton,0.43216,-0.2635,-1.3114,1.7118,-0.01547,0.13062,-0.45569,0.32537,0.41762,0.21788,0.45757,-0.15591,-2.4304,-0.27115,0.44916,0.72143,0.97076,-0.65752,-3.1843,0.90574,-0.17089,-0.66892,0.66089,-0.64332,-1.0086
bought,-0.66179,0.43535,1.5052,-0.68893,-0.30125,-0.21441,0.40812,-0.96543,-0.85913,-0.076279,1.2827,0.15245,-4.4121,-0.94613,-0.38073,-0.19172,1.5766,-0.44434,-0.053447,0.31281,-0.23784,-0.065015,0.20808,0.42424,-0.58455
track,0.042984,0.88204,0.267,-0.63249,0.76634,0.15671,0.81545,0.074775,0.3738,-0.69143,-0.20714,1.0119,-3.7433,0.066671,0.29328,0.76843,0.094764,-0.29037,-0.051424,0.41253,-0.9114,-0.26743,0.7729,-0.53608,0.33772
south,-0.50147,-0.040454,0.12161,-1.0343,-1.0182,0.030346,0.50544,-0.39517,0.84947,0.1335,-0.34451,-0.23021,-4.1389,1.0818,0.78309,-1.0244,0.0010851,0.1336,-0.043421,0.31936,0.03477,-0.50326,0.24435,-1.7112,0.50379
hermosa,-2.0862,-1.2116,0.39716,-0.35493,0.81508,0.17783,0.3147,3.3498,-1.5264,-1.5121,-0.26207,-2.2461,-0.83244,-0.24752,-0.40444,0.040282,0.18024,0.44494,-0.086716,1.1106,1.5079,-0.83998,-0.14311,1.1959,-0.195
fashion,-1.0618,-0.74601,-0.28375,-1.2646,1.2012,0.11948,0.75129,0.22459,0.42224,-0.77092,0.35408,-0.22724,-3.4628,-0.54871,-0.81186,0.16895,0.0011222,-0.7451,-0.14037,1.1259,-1.1187,-0.78684,-1.2874,-0.84603,-0.25663
born,-0.67841,0.19366,0.30038,-0.099048,-0.26179,0.072268,1.0632,-0.044228,-0.72025,-0.438,-0.056681,0.48254,-3.732,0.67991,-0.8788,-0.30631,0.11481,0.3509,0.62715,-0.44231,0.35452,0.78197,-0.65872,-0.62894,0.55722
follows,0.027824,0.59168,-0.10201,-0.33742,0.44085,-1.1133,0.73067,-0.32137,-1.9225,-0.6204,-0.092059,-0.020257,-2.8655,-0.55659,-0.86508,-0.033953,-0.94234,-1.0687,-0.33671,-0.57372,0.28199,-1.081,0.61982,0.37657,-1.2807
tears,-0.56525,0.068957,0.42862,1.552,-0.46803,0.096009,1.9082,-0.58971,-0.87585,0.40541,-0.068809,1.2181,-3.3164,0.74132,-0.40421,0.56543,-0.40628,0.46795,0.35835,-0.70962,-0.2792,0.86337,0.99686,0.47448,0.021637
watched,0.32954,0.57315,1.8943,-0.76485,-0.89993,-0.26658,1.9934,-0.4641,-0.97626,-0.83539,-0.097686,1.099,-3.6037,0.13745,0.43009,0.77513,1.1387,0.68771,-0.48186,-0.48434,-0.23986,0.50446,-0.10909,-0.47322,0.30123
service,-0.30753,0.88404,-1.0297,-0.61819,1.0883,-0.51168,0.20697,-0.43241,1.2657,0.45289,0.51967,0.050615,-3.8389,0.59332,1.0632,0.32348,0.85886,-0.043038,-0.57752,-0.17569,-0.33373,-1.6769,-0.46403,-0.25104,-0.54795
tw,1.2534,1.2174,0.15624,-0.10868,0.044345,0.063571,-0.71972,2.8634,0.29285,-0.23214,-0.45825,-0.67069,-2.0814,-0.42252,0.50317,0.70704,0.36832,-0.31434,-0.39909,0.88317,-0.18368,-0.52589,0.57521,1.5783,-0.73092
artist,0.025554,0.46689,0.32267,-0.73581,1.1213,-1.0129,0.96834,0.29861,0.18415,-1.4883,-0.15976,0.66522,-3.5934,-0.30633,-0.8745,0.1386,-0.30433,-0.27797,0.13761,0.75173,-0.45556,-0.057721,-1.1327,-1.1266,-0.071033
winning,0.063161,0.98775,-0.36752,-1.1315,0.10847,0.063775,0.97525,-0.58848,-0.82768,-1.0065,0.44988,0.51593,-3.9802,0.75763,0.61877,-0.51523,-0.38782,-0.93298,-0.15198,0.38975,-1.0961,0.7075,0.27971,-0.39143,-0.45937
earth,-0.33573,-0.52958,0.12754,0.38944,-0.34348,0.10132,1.5368,-0.15455,0.20551,0.21389,0.1052,0.39473,-3.499,1.1765,-0.66216,0.5492,0.21916,0.57466,0.94694,-0.10122,-0.2059,-0.51519,-0.25807,-0.50856,0.24833
finished,-0.39264,0.98318,1.5835,-0.92851,0.070209,0.049189,1.4713,-1.2691,-0.22709,-0.46263,0.19796,0.71533,-3.5684,0.099945,0.8439,-0.10481,0.47307,0.76827,-0.93415,-0.80438,-1.0955,0.19601,-0.046317,0.89503,0.032714
horrible,0.21438,-0.66014,-0.16823,0.27111,0.75163,1.4539,1.3342,0.45775,-1.0655,-0.43815,-0.3065,-1.0593,-3.0458,0.15611,1.9577,1.2217,0.35779,0.4452,-0.34816,-0.47898,0.62939,0.82832,0.74702,0.15725,-0.10929
tha,0.14541,0.88744,0.35771,0.59968,-0.36686,0.040829,-0.1343,0.0038612,0.89678,0.60253,-1.6821,0.3699,-3.9482,0.88589,-0.8261,-0.10631,0.75911,-0.17122,-0.7637,0.9781,0.032373,1.6305,1.3716,0.21801,-0.31628
health,-0.50245,0.73513,-2.0223,0.035111,1.2962,-0.48859,0.94489,-1.1285,1.0489,0.30981,0.20555,-0.40283,-3.898,0.61878,1.01,-1.4251,0.0042893,0.38252,0.77385,-0.4758,-0.19673,-0.66318,-0.99531,-0.14017,0.049816
fresh,-0.9285,0.21614,0.026411,0.28695,0.36358,1.2041,0.84635,-0.44372,0.37128,0.0071578,0.27459,0.25177,-3.4353,-0.57679,-0.20675,-0.49983,1.0908,-0.68712,-0.11609,0.53449,-0.76656,0.17587,0.043756,0.29726,0.57398
tbm,1.3769,-0.8932,0.2817,-0.35732,-0.040625,-0.64691,-0.23812,0.59023,0.61132,-1.2276,-1.5992,-2.6311,-1.4353,-1.8125,-0.42575,-1.2818,-1.9393,-0.15846,-1.3207,0.067619,0.0016989,0.55314,0.075402,2.3137,0.20551
fear,0.34901,0.30926,-0.80943,1.495,-0.66837,0.40203,1.7135,-0.63232,0.13892,0.22926,-0.32921,0.75148,-3.5653,0.7832,-0.090396,0.6436,-0.4382,0.82941,1.3351,-1.0171,0.0089844,0.70354,0.026537,-0.50671,-0.3056
honest,0.045128,0.35828,-1.1219,-0.080907,0.67977,0.30182,1.2288,-0.44192,-0.91295,-0.44178,-1.1636,0.6767,-3.5537,0.10936,-0.46606,0.64404,0.36961,-0.40332,0.32351,-0.7707,1.1337,0.40322,-0.72449,0.058686,-1.2545
march,-0.49991,0.50075,-0.03019,-1.3245,-0.17469,-0.79618,1.5146,-0.13458,-0.061996,0.12421,0.16973,0.36251,-3.0282,1.9831,0.093954,-0.55977,-0.18624,-0.31241,-0.71372,-0.13311,-0.96943,-0.92285,0.028216,-0.28174,0.22877
players,0.92866,0.72802,-0.52351,-1.4832,-0.00094552,0.38935,0.27315,-0.61414,-0.49954,-0.83551,0.47096,0.44344,-4.1297,0.7303,0.70066,0.029244,-0.2581,-1.3786,0.6304,-0.027787,-0.88323,1.0347,-0.041421,-1.2988,-0.96979
choose,0.0083701,0.34513,-0.84528,0.066952,-0.37061,-0.43915,1.2058,-0.7652,0.11774,-0.76853,-0.50942,-0.19276,-4.1139,-0.34271,-0.93036,0.41134,0.042738,-0.80496,0.82584,-0.68941,-0.10578,0.040933,-0.44437,0.34397,-0.88031
shoot,-0.11891,0.71501,0.73317,-0.11079,-0.0033952,-0.12924,1.0041,-0.048679,0.52301,-0.05362,0.01503,0.80499,-3.4188,-0.018921,-0.00012056,0.77689,0.64383,-1.181,-0.90116,-0.14035,-0.42169,0.15361,0.59726,-0.55434,0.020806
bot,0.56601,0.12731,-0.3279,-0.028099,0.051303,-0.35351,0.72046,1.1771,0.50724,0.19381,-0.41146,1.3407,-1.3985,-0.59603,-1.2277,-0.60713,-0.43011,-0.25133,-0.021151,0.82933,0.11821,-1.3439,-0.38575,0.50761,-0.05012
hilarious,0.49131,-0.60914,0.78052,-0.80065,0.90338,-0.11482,2.1985,-0.57149,-1.2778,-0.6736,-0.60044,1.4886,-2.8662,-0.80629,0.96298,0.5112,0.5285,-0.29295,-0.75236,-0.061051,1.0312,0.2832,-0.37604,-0.30948,-0.12308
thankful,-1.5817,1.1934,-0.50159,0.072795,-0.32589,0.10494,1.7157,-0.6976,-1.9022,-0.14361,-1.2185,0.043884,-3.5217,0.92279,-0.70194,-0.019674,0.25228,-0.073215,0.68774,-0.55256,0.16208,0.044736,-1.0709,0.52915,-0.41683
caught,-0.5676,1.0308,1.0898,0.050014,0.15663,-0.094723,1.1283,-0.56651,-0.48151,0.81052,0.33153,1.2479,-3.4592,-0.5177,0.32478,0.62884,0.37452,0.22173,-0.16186,-1.2065,0.83222,0.81365,0.95466,-1.01,-0.094161
office,-0.37218,0.3608,0.39346,-1.0362,0.81756,-0.43873,0.46278,-0.47501,1.3921,0.47833,0.14137,-0.093291,-3.7895,0.29779,0.87511,-0.51239,0.65852,0.0068109,-0.42191,-0.5459,-0.22178,-1.1347,-0.23231,-0.51381,-0.45113
seconds,0.82094,-0.22677,0.48257,0.17242,-0.75677,-0.079568,1.7126,-0.73884,-1.2817,0.37736,0.22949,0.61394,-2.8817,0.31429,0.10816,0.28964,-0.23726,-0.33611,0.053211,-1.1799,-0.92799,-0.46688,1.3254,0.17679,-0.7023
tbh,0.34607,-0.1766,0.27412,-0.65055,0.017419,-0.2685,1.6049,-0.45136,-1.3126,0.013737,-0.99288,0.7557,-3.3361,-0.61053,0.6538,0.80067,-0.031056,-1.2088,0.036773,-0.18688,0.3451,0.57143,-0.36312,0.67304,-0.57852
coach,-0.32431,0.60788,-0.4037,-0.95895,-0.31788,-0.23623,-0.17378,0.53778,0.094678,-1.2879,0.4431,0.74955,-3.8334,-0.1137,1.5714,-0.64043,0.29227,-0.77248,-0.49959,0.10898,0.068503,0.72868,-0.071418,-0.95804,-0.89536
fighting,-0.3286,1.1874,-0.20121,0.53896,-0.30103,-0.0038795,1.4943,-0.18801,-0.11949,0.46841,-0.53027,0.97315,-3.1748,0.41732,0.082693,-0.14431,-0.9059,-0.55655,0.19184,-0.67453,-0.020831,1.1033,-0.36247,-0.63041,0.32451
attractive,-0.15989,-1.38,-0.46164,-0.54125,0.82811,0.9038,1.5821,-0.96135,-1.6072,-0.33851,-0.48359,0.33524,-3.4502,-0.90231,-0.4847,0.47829,0.024129,-0.83291,0.75487,-0.41278,0.76207,1.1239,-0.36969,-0.29658,-1.4827
booty,-1.2759,0.43065,0.019919,0.42788,1.528,-0.015327,0.7856,-0.35104,-0.48629,0.21887,-0.20361,0.65942,-3.0586,-1.2139,-0.82365,-0.063029,0.45136,-1.3628,-0.3883,0.8873,0.43502,1.6224,1.675,-0.43014,0.57917
hermano,-0.65221,0.48815,0.42024,0.18563,0.1408,-0.3121,-0.98708,3.1948,-1.3583,-1.0131,0.30267,-2.3477,-1.4391,-0.8211,1.4062,-0.12117,0.41973,0.10483,-0.0033114,0.13237,1.3281,0.02584,0.61982,0.45363,0.53674
sean,1.0045,0.38473,0.23437,1.0208,-0.34721,0.83182,-0.21198,1.8105,-1.8279,-1.5633,0.51948,-0.31015,-2.4808,-0.13088,0.70789,-0.1068,-0.029448,-1.0807,0.75206,0.26138,0.39548,0.27914,-0.61399,-0.27882,0.14137
four,0.58806,0.39977,0.84307,-0.063675,-0.16753,0.37486,0.93533,-1.0507,-0.57041,-0.027532,0.76356,-0.10157,-3.6861,1.3102,0.0082721,-0.51605,0.34933,-0.18487,-0.19589,0.31658,-0.99501,0.065084,0.34442,-0.99523,-0.42175
count,0.36356,0.82645,-0.18201,0.16448,-0.13462,-0.094857,0.88207,-1.19,-0.47288,0.31592,0.42089,0.3391,-3.4529,0.21674,-0.5834,-0.050428,-0.1051,-0.73683,0.42569,-0.33646,-0.72037,0.31767,0.34675,0.51504,-0.1402
heaven,-1.0253,-0.31834,0.52448,0.62207,-0.69459,0.1572,1.3117,-0.1201,-0.24046,0.12091,-0.16287,0.56657,-3.3038,0.25795,-0.2798,0.4258,0.37237,0.17042,0.48171,-0.013374,-0.29946,-0.15225,-0.26492,0.48228,0.8368
scary,0.17994,-0.57694,0.83298,-0.18335,0.23584,0.96756,2.4071,-0.43545,-0.31162,0.087948,-1.1125,0.6993,-3.0468,-0.10877,0.9278,1.0455,0.75207,-0.11061,0.16354,-0.017512,0.64305,0.52858,0.30863,-0.38665,0.48076
relationships,0.34753,0.96756,-0.83281,0.45733,1.1598,1.0311,1.4437,-1.3766,-0.4632,0.054187,-1.3152,0.09704,-3.6095,1.0224,-0.45522,1.6134,-0.91147,-0.61292,1.7352,-0.61014,0.23049,0.21651,-0.89552,-0.29515,-0.61392
turned,-0.58976,0.16351,1.213,-0.43141,0.13011,0.15107,1.0589,-0.896,-0.62264,0.20822,0.21937,1.084,-3.9974,0.096777,0.39257,0.42594,0.78264,0.21843,0.31109,-0.78987,0.39336,0.40831,0.56625,-0.39079,-0.21147
facts,0.85247,-0.22076,0.011022,0.3823,0.51051,-0.3286,1.2454,0.24611,0.032764,-0.93185,0.055352,0.090545,-2.8406,-0.46562,-0.43535,0.09306,-1.18,-0.16207,0.3098,-0.09866,0.33044,0.53683,-0.94278,0.047016,-0.90598
father,-1.2006,0.59454,0.27821,0.86424,0.021296,-1.1184,1.1299,0.26826,-0.41652,-0.22056,0.203,0.57734,-3.8551,0.58745,-0.21923,-0.30499,0.75124,0.31219,0.29848,-0.43404,1.0534,0.85965,-0.90158,-0.47079,-0.37878
north,-0.63433,-0.10921,0.18588,-1.1485,-1.2371,0.059973,0.44818,-0.57546,1.036,0.55754,-0.14212,0.11916,-4.0766,1.1592,0.96385,-1.0751,0.072889,0.082322,0.10785,0.32655,0.20089,-0.89903,0.45692,-1.7969,-0.052046
reasons,0.80098,0.65709,-0.48551,0.32469,0.47926,-0.17366,1.786,-1.2606,-0.63473,-0.46124,-0.42287,-0.080201,-3.527,0.32713,-0.15349,-0.045381,-0.17459,-0.23084,0.65017,-0.29495,0.42561,-0.037146,-0.53642,-0.31798,-1.2393
whenever,-0.47558,0.40807,0.27766,0.51451,-0.68124,-0.57891,1.8553,-0.66821,-0.34955,0.20241,-0.58195,0.28852,-3.6269,-0.52803,0.20851,1.0891,0.45915,-0.78132,0.23743,-0.9334,0.42769,-0.21752,0.60027,0.18558,-0.6927
lights,-0.85097,-0.42152,1.326,-0.13128,-0.62242,0.39746,1.2528,-0.61511,0.45056,-0.31783,-0.34301,-0.2863,-3.6237,0.21411,-0.48978,0.50751,-0.68765,-0.094328,0.56599,0.26151,-0.82699,-0.68715,1.3926,-0.24623,0.29694
feat,-0.74394,-0.19184,0.64183,1.0467,-0.53572,-0.1984,0.56944,1.2957,0.81984,-1.2989,-0.40469,1.1792,-2.6097,-1.4365,-0.18516,-0.01776,-0.75385,0.67804,-0.27589,0.75813,0.16709,-0.050842,0.23142,-0.85087,0.7052
hermoso,-1.2628,-0.88129,0.0067416,0.40231,1.0341,-0.15835,-0.083737,3.2081,-1.7856,-1.7852,0.91707,-1.6074,-0.44445,-0.4844,0.95169,-0.33715,0.41177,-0.36765,-0.83388,-0.35494,0.47021,-0.0014045,1.07,0.78665,1.041
everywhere,-0.044119,-0.5135,0.20058,-0.16952,-0.20174,0.21978,0.84292,-0.6123,-1.2632,1.1645,-0.45212,0.087902,-2.9077,-0.39555,0.50566,1.0176,-0.20052,-0.916,1.023,-0.49128,-0.15098,-0.39681,0.44786,-0.22478,0.80725
confused,0.20062,-0.25641,0.28745,-0.47947,0.27697,0.3756,1.6418,-0.64137,-0.83247,0.43777,-1.3069,1.0325,-3.1162,-0.43718,0.29939,0.22477,0.42488,-0.13024,0.24584,-0.89579,1.1125,0.47297,-4.4347e-06,0.014274,-0.4804
brothers,-0.42029,0.66578,1.2996,0.024282,-0.23939,-0.19579,1.0185,0.33655,-0.59955,-1.0235,0.076424,-0.29332,-3.2969,0.069219,-0.67314,0.01654,-0.08565,-0.57847,0.59471,0.38701,0.20007,0.31525,-0.19351,-0.91503,0.43971
completely,0.067162,-0.47794,-0.083599,-1.0124,-0.17569,0.83655,1.1572,-1.3077,-1.0314,0.25218,-0.11255,1.0458,-3.8369,-0.19657,0.23889,0.88225,0.49131,0.82169,0.69078,-1.7241,0.10478,-0.045817,0.13771,-0.080621,-0.98934
release,0.40815,0.8683,-0.0080022,-0.23987,0.21431,-1.0758,1.0619,0.053956,0.81245,-0.78886,0.76977,1.2186,-3.4993,0.66176,-0.16499,0.055358,0.068936,0.12018,-0.22751,-0.48973,-1.1694,-0.56897,0.25517,-0.4511,-0.18325
somewhere,-1.2207,0.24452,0.73456,0.060484,-0.94007,0.30293,0.92924,-0.85364,-0.095655,0.48787,-0.95185,0.46773,-4.1868,0.11455,0.55127,0.73099,0.32974,-0.44861,0.25552,-0.83749,0.041164,-0.68175,0.35445,-0.16383,0.15674
fool,-0.2875,0.70136,-0.053231,0.53328,0.1847,0.043655,0.66766,-0.29819,-0.12127,0.12744,-1.3963,1.339,-3.6382,-0.21475,0.16296,0.34167,0.32164,-0.42494,0.20903,-0.1431,1.5817,0.87796,0.51432,0.10648,0.19072
writing,0.47162,0.66614,0.70081,0.22768,1.5459,-0.36022,1.7913,-1.4681,0.2308,-0.81623,-0.68465,0.81374,-3.4263,-0.48557,0.77121,0.17818,0.10702,0.58844,-0.64797,-0.88656,-0.70526,-0.50338,-1.2819,0.30536,-0.54335
usually,0.034289,0.17377,-0.41827,-0.4276,-0.10436,0.93517,1.849,-1.4892,-0.16769,-0.31248,0.0073328,0.38948,-3.7615,0.44704,-0.32349,1.2373,0.32766,-0.41888,0.83309,-1.0101,0.99446,0.034381,-0.31239,0.56341,-0.59989
famous,0.039869,0.082689,0.19099,-0.49366,0.22099,0.30519,1.2337,0.17109,-0.11226,-0.053095,-0.28459,0.35004,-3.2753,-0.72902,-0.2271,0.85738,0.69781,-0.92372,-0.29794,0.15974,0.3467,0.52696,-1.3404,-1.0554,-0.63587
toca,0.18456,0.4263,0.47789,0.25387,-0.14668,0.78343,-0.10615,1.8496,0.44459,-1.7612,-0.032623,-2.8665,-1.0723,0.11795,1.0457,0.55391,-0.37425,0.54896,-0.25627,-0.085146,-0.39387,-0.14373,0.75987,1.2971,1.3549
acting,0.052382,0.70743,0.448,-0.41754,1.0628,0.75339,0.85226,-0.43025,0.22719,-0.053197,-1.255,1.141,-3.5264,-0.51987,0.23522,0.8797,-0.21993,-0.54243,-0.047995,-0.49577,0.85709,1.3881,-0.66864,-0.44075,-0.56514
often,0.043623,-0.42988,-0.8168,-0.093511,-0.19595,0.62685,1.5326,-1.3656,-0.22624,-0.20569,0.042017,0.47914,-3.7139,0.4994,-0.39773,1.1578,-0.03029,-0.15746,1.2516,-1.6536,0.59399,-0.16196,-0.82308,0.27985,-0.71606
performance,-0.061537,-0.22383,0.26648,-0.64877,1.0662,-0.12977,1.1463,0.099069,0.5093,-1.6321,-0.019711,0.58263,-3.5154,0.66394,0.51503,0.53479,-0.53347,-0.0050854,-0.56047,0.23826,-1.2561,0.18834,-0.21685,-0.3822,-0.45664
french,0.032345,-0.23005,-0.23824,0.21445,-0.016903,-0.40386,1.2358,-1.0788,0.5573,-0.37364,0.48901,-0.32968,-3.6225,-0.78053,0.299,-0.43676,0.80754,-0.23902,-0.67589,0.90773,-0.15814,0.5248,-0.74391,-1.0375,0.52758
hat,0.12782,-1.3741,-0.2691,-1.8568,0.43623,0.64086,-0.58174,-0.46048,0.029651,-0.21927,1.0443,1.0684,-3.0252,-1.1388,-0.15265,-0.42817,1.3622,-0.053427,-1.2111,-0.29012,-0.019759,0.78843,0.11146,0.004119,0.16901
reality,0.43862,-0.015304,-0.23216,0.37073,0.59433,-0.048274,1.3368,-0.088604,-0.11646,-0.76304,-0.74811,0.11079,-3.4392,0.32851,0.38304,0.83053,-0.40193,0.20066,0.81153,-0.52704,-0.21561,-0.14561,-0.03104,-0.34831,-0.10453
action,0.32668,0.13222,-1.0072,0.039418,0.6719,-0.20832,1.08,-0.16197,0.92399,-0.32308,0.26439,0.81291,-3.3277,0.57036,0.3416,0.71646,-0.34915,0.00021202,-0.1148,-0.22729,-0.79288,0.0079339,-0.26529,-0.79078,0.0046833
tous,0.92965,-0.12339,-2.1698,0.87893,-0.72688,0.57383,-0.15757,-0.20646,-0.53828,-0.66929,0.23996,-1.0466,-1.4497,0.62863,0.29123,1.5643,-0.92073,-1.0308,-3.5063,1.6695,0.46881,-1.2169,0.048551,-1.0259,-0.31217
basically,0.10155,0.29879,0.86955,-0.94176,-0.084589,-0.27671,1.6418,-1.2734,-1.2425,0.33412,0.14184,0.45175,-3.7,-0.5741,0.44415,0.58785,0.2303,0.3363,0.15089,-0.42222,0.41328,0.5221,-0.27462,0.016932,-0.62635
sigh,-0.064906,-0.068692,0.045796,-0.1352,-0.33921,-0.1869,2.0157,-0.30695,-0.57793,0.70605,-1.1024,0.6367,-2.6485,-0.062111,0.7697,0.35408,0.38852,-0.69563,-0.1723,-0.89372,0.26682,0.10256,0.26332,0.98885,-0.16172
argentina,-0.27073,0.38372,0.18891,-1.2852,-0.77133,-0.25838,0.0012678,1.9221,-0.64225,-0.8569,0.29261,-1.9232,-2.4372,0.52307,0.85019,-0.23369,-1.2787,-0.12687,0.87711,0.27588,-0.34398,-0.50094,0.038049,-1.0912,0.40273
ideas,0.44718,-0.15463,-0.091087,0.59785,1.5199,1.1169,0.36175,-0.24884,-0.81853,-1.2022,0.20377,-1.2674,-3.4163,0.89619,0.29395,0.46895,0.62795,-0.43023,1.3666,-0.11776,0.037592,-1.7202,-1.1257,0.21561,-0.49251
tb,1.0418,-0.27265,0.21825,-0.65194,-0.056783,-0.037894,-0.51548,1.1252,0.67496,-0.69168,-0.54942,-1.834,-2.0523,-0.72969,0.21908,-0.85525,-0.94595,0.21759,-0.46916,0.27346,-0.21359,-0.13171,0.35781,1.7851,-0.29847
haters,1.4431,0.69025,-0.14233,0.09138,-0.35043,0.066962,0.63872,0.47704,-1.1988,0.48296,-0.73507,-0.54797,-2.9244,-0.18596,-0.68836,1.3674,-0.80209,-1.0843,0.57206,0.022485,0.048123,1.3948,-0.28984,-0.29731,-0.52033
spanish,0.70687,0.27737,0.29135,-0.32655,0.53873,-0.6552,1.3572,-0.252,-0.31642,-0.42327,-0.42736,-0.94879,-3.5532,-0.41173,1.2858,-0.14992,0.71925,-0.16208,0.62338,0.38048,-0.045843,0.47896,-0.52391,-0.79807,0.27835
thankyou,-1.0148,0.63602,-0.32181,-0.10618,-0.78187,-1.1146,1.4299,0.76108,-1.6094,0.31389,-0.84797,0.41291,-2.341,-0.28066,0.21862,-0.62994,1.0663,-0.76411,-0.96146,0.37067,-0.29075,-0.014232,-1.6547,2.0954,-0.57089
apparently,0.064398,0.15736,0.6581,-0.66324,-0.46587,-0.47057,1.4282,-0.94465,-0.82479,0.4744,0.51497,0.3877,-3.7751,-0.41114,0.82111,0.19181,0.62215,0.066903,0.09596,-0.61224,0.45109,0.351,-0.20295,-0.43811,-0.6543
crack,0.034745,0.33101,0.19566,0.098956,0.82131,0.38986,0.25083,0.31054,-0.78801,-0.31732,0.43446,-0.94569,-2.8173,-1.0493,1.0235,-0.33736,0.21296,-0.5419,0.16642,-0.16589,0.36591,0.40401,1.3286,-0.14232,0.45473
tree,-1.5226,-0.68566,1.1082,0.63482,-0.11657,0.46269,1.1379,-1.1312,0.665,0.14649,0.31165,-0.01846,-3.5233,0.18662,-0.54836,-0.54557,0.74326,0.13081,0.011478,0.33892,-0.54205,-0.10345,0.34124,0.08645,0.53662
thru,-0.47535,1.4591,0.80636,0.63028,-0.027425,0.13492,0.03255,-0.81331,0.15986,0.62555,-1.1095,0.72907,-4.2011,0.55834,-0.035074,0.49191,0.51908,-0.46322,-0.18285,-0.3671,-0.41865,-0.66771,1.3072,-0.094336,0.1178
earlier,-0.26113,0.40345,1.1443,-0.41922,-0.022028,-0.3973,0.77348,-0.91986,-0.7429,0.47288,-0.25045,0.89724,-3.7292,0.24486,1.5853,0.32482,0.78159,-0.44149,-0.73541,-0.72117,0.07419,-0.43432,0.41985,0.10919,-0.044016
beats,0.51567,0.93263,0.31675,-0.41754,0.091966,0.44361,0.11941,-0.30724,-0.13135,-0.93968,0.36934,0.86371,-3.6143,-0.59383,0.44174,-0.065254,0.15925,-0.44078,0.39021,1.0339,-0.72262,-0.40073,0.70166,-0.64843,0.26424
easily,0.37945,-0.39129,-0.76653,-0.58858,0.058445,0.90238,0.9779,-0.88878,-0.65978,-0.19867,-0.28618,0.99965,-3.5359,-0.2344,-0.24922,0.96548,0.25937,-0.42306,1.7598,-1.8199,0.12013,0.038816,0.29139,0.2147,-1.0045
usted,-0.38635,0.24203,-0.56507,0.36288,0.27187,-0.34529,-0.90464,2.9433,-0.63427,-0.61121,0.43575,-2.6471,-1.2659,-0.57238,1.5107,-0.12659,0.19447,0.48449,0.62189,-0.38673,2.0278,-0.49977,-0.12791,0.82576,-0.51015
texas,-0.43933,0.59484,-0.21573,-1.063,-0.68292,-0.12815,0.42667,-0.35689,0.3395,-0.024025,-0.0058822,-0.53376,-3.6359,0.47907,1.2912,-1.2059,0.0095156,-0.40329,0.36027,0.24772,0.18636,-0.068714,0.38414,-1.6705,0.63536
olympics,0.1217,-0.083583,0.043455,-1.7671,-0.31688,-0.55056,1.3655,-0.87097,-0.52207,-0.56577,0.053372,0.42362,-3.4565,0.59013,0.54907,0.4295,-0.53818,-0.66683,-0.13851,0.1125,-1.4011,0.56526,-0.10435,-1.291,0.32752
holding,-1.1848,0.27513,0.49909,0.58169,0.069497,-0.079172,0.69749,-1.083,-0.16125,0.55638,0.19053,0.59271,-3.542,0.13479,-0.36436,0.23156,-0.35137,-0.17598,-0.21793,-0.96499,-0.0056965,0.53965,0.65249,-0.66048,-1.0342
chick,-0.65836,0.46099,0.38178,-0.081939,0.77903,0.020124,0.41713,-0.40115,-0.54424,0.059658,-0.41962,0.65221,-3.7716,-1.1714,-0.3584,0.77892,1.0567,-0.65683,-0.40829,0.94454,0.86823,1.0069,0.21079,-0.50646,0.38946
ea,0.40862,0.62833,-0.20849,-0.41521,-0.25733,0.14413,-0.20449,1.9508,0.76384,0.32332,-1.0511,-0.069816,-1.862,-0.50643,0.81751,-0.51462,0.41685,-0.60181,-0.31527,0.40304,-0.2959,-0.3189,-0.49874,1.4466,-0.34028
clear,-0.43212,-0.38297,-0.68571,0.062526,-0.07393,0.936,0.54701,-0.49014,0.8828,0.35383,0.050707,0.80763,-3.697,0.3489,-0.20597,-0.011939,0.26052,0.22147,0.35086,-0.38385,-0.76061,-0.32848,0.87175,0.39457,-1.1324
cook,-0.74302,0.97194,0.30526,0.26471,-0.17254,0.37304,0.025409,-1.0575,0.059584,-0.3049,0.27091,-0.10807,-3.641,-0.86877,-0.06168,-0.65966,1.5298,-1.0464,-0.39893,-0.082569,0.95264,0.48914,-0.77895,0.5389,0.77497
hermana,-0.95956,0.23465,0.89449,0.039939,0.0048155,-0.04719,-0.75874,3.0188,-1.205,-0.73733,-0.076877,-2.7611,-1.4542,-1.1757,0.55959,0.55779,0.53222,0.62577,0.13848,0.82531,1.5459,-0.21172,0.24289,0.95805,0.33116
tht,0.52076,1.7794,0.4848,0.25791,-0.13458,0.17994,0.13389,-0.38016,-0.12945,0.22901,-1.5866,1.08,-4.4146,-0.26599,-0.16444,0.55439,1.1462,-0.28234,-0.019726,0.57551,0.93188,0.69807,0.84533,0.88169,-0.36526
iphonegames,0.58672,-1.863,-1.257,-2.3173,-0.693,-0.36371,0.029119,-0.42389,-1.8286,-0.087726,0.59032,-0.21753,-1.4293,-1.4436,-1.7803,2.0129,0.34931,-0.24462,0.81495,-0.31027,-2.3995,-2.5736,-0.67946,-0.93378,-0.50872
learned,0.51448,1.1276,0.31921,0.20284,-0.34432,-0.074948,1.3767,-1.2654,-0.45853,-0.50039,-0.5483,0.82765,-3.9009,0.32691,0.17389,0.159,0.43104,0.51287,1.0553,-0.72443,0.36235,0.35904,-0.62698,0.45132,-0.17361
healthy,-1.2018,0.29865,-1.3141,0.47531,0.84162,1.322,1.4045,-1.4882,-0.26373,-0.37219,0.058341,-0.38926,-3.468,-0.12946,0.1403,-1.0662,0.48846,-0.87117,0.81184,-0.67912,-0.66368,0.30836,-1.252,0.90532,0.2924
hip,-0.18404,0.85597,0.1009,-0.048,1.2539,0.083976,0.89761,0.21399,0.073385,-0.85271,-0.51859,0.73885,-3.0107,-0.55907,0.14871,0.36964,-0.27905,-0.072857,-0.063019,0.69974,-0.26631,0.44646,0.85493,-0.7592,1.0222
thanksgiving,-1.2037,1.4408,0.30581,0.17194,0.17356,-0.28371,1.7217,-1.3005,-1.2577,-0.58394,0.045501,-0.4519,-2.8615,0.85765,0.26661,-0.7324,0.62441,-1.2884,-0.63727,-0.082257,-0.5311,-0.1837,-0.68585,-0.10761,1.1028
congratulations,-0.6638,0.47381,-0.061235,-0.77713,-0.36119,-1.0177,1.5723,0.24023,-1.54,-1.2515,-0.074866,0.45308,-2.8548,0.99245,0.30276,-1.1285,0.36127,-0.43263,-0.40142,0.34802,-0.70314,0.38132,-0.85417,-0.0258,-0.88853
officially,-0.63353,1.2111,0.67082,-2.3081,-0.12948,-0.45425,1.3896,-0.45571,-0.73533,-0.44175,0.91558,0.85836,-3.3941,0.1947,0.26885,0.06522,0.24847,0.35594,0.00494,-0.94842,-0.089146,0.29321,0.17267,-0.19745,-0.11463
wifi,1.0436,0.34963,0.53401,-0.50679,0.99889,0.37622,-0.17858,0.34774,0.59996,1.4162,0.0070862,-0.96253,-2.5824,-0.68466,0.44308,0.89373,0.98579,0.050084,-0.060701,-0.29792,-0.38006,-1.0661,0.60984,0.40913,-0.30669
hes,-0.39113,0.4952,0.62509,-0.59949,0.17472,0.18181,0.80448,-0.13031,-1.3493,0.036938,-0.51896,0.88089,-3.586,-0.69365,0.21403,0.44458,0.29457,-0.34499,-0.58979,-0.41891,0.91755,1.314,-0.12019,0.11869,-0.66157
reach,-0.21599,0.99234,-0.86448,-0.21059,-0.53163,-0.38302,0.27811,-0.49974,-0.063538,-0.11285,-0.25029,0.31553,-3.8225,1.0802,-0.63356,0.17267,-0.06752,-0.45797,0.28527,-1.1732,-0.8917,-0.49739,1.035,0.16493,-0.86525
chicas,0.73241,-0.017844,0.41656,-0.3048,-0.1287,0.96038,-0.1773,2.2291,-2.2222,-1.2971,0.52981,-2.4871,-1.0084,-0.55039,0.3636,0.64836,0.56676,-0.77606,0.82652,1.2539,0.16155,-0.8394,-0.71484,0.18101,0.77932
toy,-0.5956,-0.67774,0.63825,-0.55081,0.33101,0.39515,0.5764,0.80873,-0.085752,-0.37013,0.3577,-1.2089,-2.4995,-0.76751,0.48339,0.84769,1.4479,-0.15244,0.40267,0.17948,-0.11275,-0.51884,0.97762,0.65335,0.30348
east,-0.69502,0.48603,0.020037,-1.1529,-1.1195,0.21278,0.40979,-0.38457,0.92504,0.26902,-0.59263,0.3452,-3.9348,1.3147,1.1234,-0.98923,-0.10801,0.028428,0.10828,0.61285,-0.13693,-0.81203,0.41728,-1.5927,0.40449
snapchat,0.79545,0.49694,0.36042,0.11185,1.0345,-0.98715,0.43755,-0.68577,-1.023,-0.17335,-0.46189,-0.023235,-2.9946,-1.3596,0.1255,1.7539,0.76198,-0.71166,-1.0884,-0.45685,0.42995,-0.64762,0.14015,-0.24521,-0.95324
showing,-0.23096,0.099645,0.44077,-0.41452,0.54368,-0.30361,1.0658,-0.94774,-0.58937,-0.032086,-0.36888,0.72195,-3.6645,0.15551,0.15736,0.32158,-0.22502,-0.2685,-0.16435,-0.27505,-0.32169,0.44547,0.027876,-0.68736,-1.0626
foot,-0.52096,-0.68852,-0.86368,0.54909,-0.15779,0.6725,0.19645,-0.97248,0.14686,0.45268,0.70344,0.19737,-3.3847,-0.033716,0.42751,0.80294,-0.11909,-0.27919,-1.6573,0.45093,-0.51752,0.48213,1.9662,-0.78004,-0.21465
known,-0.09395,0.38754,-0.051054,-0.079027,0.026966,0.067305,1.0562,-0.79597,-0.48468,-0.20536,0.21395,0.99644,-3.7529,0.64462,-0.46016,0.58227,0.88441,0.37977,1.1179,-0.73551,0.95237,0.62255,-0.79689,-0.57314,0.15727
bear,-1.5646,-0.62552,0.27984,0.63867,-0.40258,0.03106,1.0839,0.12634,0.41947,0.037711,0.38884,-0.1514,-3.1673,-0.49903,-0.30546,-0.20674,0.68202,-0.86757,0.15494,0.085202,-0.041513,0.8758,0.032103,-0.12559,0.077444
tight,-1.382,-0.19885,-0.1134,-0.011618,0.50905,0.84503,0.7376,-0.64791,-0.81288,0.40996,-0.4695,0.83718,-3.1402,-0.2098,-0.83715,0.011353,0.1284,-1.26,-0.25414,0.041979,-0.14515,1.1593,1.4457,0.29601,-0.51852
tough,-0.0093584,0.37535,-0.70229,-0.56439,0.27183,1.133,0.99244,-0.56332,0.3838,-0.51475,-0.81619,0.83519,-3.6287,0.52682,0.6875,0.071864,0.12215,-0.8637,0.23268,-0.6432,0.14348,0.96373,0.29395,-0.28421,-0.7202
shooting,-0.13589,0.8578,0.95783,0.053662,-0.13092,0.18787,1.1334,-0.023128,0.75189,0.53075,0.46296,0.92493,-2.9189,1.3274,0.98295,0.18623,0.11594,-0.18643,-0.70874,-0.37611,-0.37091,0.2924,0.088371,-1.7603,0.049645
hearing,-0.14626,1.079,0.40236,0.57878,0.10733,-0.60017,1.6527,-1.1271,-0.16465,0.11212,-0.64386,0.88052,-3.2355,0.1749,0.96793,0.39544,-0.2487,0.55117,-0.28175,-0.99031,0.21479,0.3162,0.21337,-1.0287,-0.90771
followmejp,0.44235,-0.057642,-0.97391,-1.6506,-0.85135,-1.2975,-0.21357,-0.096097,-0.68249,-1.1249,-0.4662,0.58564,-0.99749,-1.2799,-2.5139,-0.31821,-0.0011421,-1.584,-0.0385,1.4719,-0.22701,-2.8997,0.33764,-1.1785,1.02
brought,-0.84396,0.76446,0.77445,0.16235,-0.4879,-0.53208,0.88745,-0.98889,-0.70878,-0.11224,0.61608,0.54174,-4.163,0.081621,0.096462,0.017295,1.2265,-0.0031203,0.24729,-0.054904,0.06522,0.23366,0.12131,0.054101,-0.069229
search,0.55447,0.66123,-0.16846,-0.30429,0.88848,-0.96663,0.97486,-0.10052,1.5415,0.35717,0.070688,0.14557,-3.2437,-0.18392,0.22468,0.35452,0.48685,-0.080458,0.056278,-0.75711,-0.39263,-1.3741,-0.62989,-0.42877,-1.0259
user,1.3684,-0.0175,0.18439,-0.099826,1.8532,-1.1886,0.17059,0.42307,0.6154,-0.55661,-0.1908,-1.1043,-2.6535,-1.4463,-0.14067,-0.12293,-0.33451,0.098061,-0.25334,-0.77808,-0.15077,-1.1084,-0.15894,0.89311,-1.4058
champions,0.39933,0.25652,-0.44272,-1.4527,-0.56875,0.64782,0.039008,1.1292,-0.73323,-0.85429,0.98442,-0.71105,-2.6179,1.76,1.1351,0.35781,-1.0154,-0.26488,-0.17907,0.011729,-1.8739,0.58179,0.10527,-1.0563,0.070061
headache,-0.48087,0.74019,-0.3386,0.71515,1.0438,0.93304,2.1314,-1.0623,-0.4704,0.87225,-0.6702,0.73866,-2.1271,0.49736,1.5526,0.13295,0.66702,-0.0074115,0.056568,-1.047,-0.026823,1.4079,1.6634,1.6237,0.62116
international,-0.89482,0.51628,-0.86724,-1.2114,0.069812,-0.74398,0.46937,-0.015775,1.3139,-0.19923,0.2186,-0.077425,-3.3219,0.99001,0.51605,-0.81578,0.12504,0.41948,-0.27313,0.49342,-0.90269,-0.85127,-1.1816,-1.5458,-0.0020096
building,-1.0035,0.18889,0.19124,-0.35136,0.76388,0.1834,0.74345,-1.0172,1.353,0.39287,0.062046,0.3024,-3.7981,0.9113,0.47817,-0.15115,0.092584,0.53515,0.34286,-0.39228,-0.38551,-1.009,-0.18895,-0.86529,-0.1834
field,-0.60287,0.34907,0.20192,-0.84443,0.18103,0.50397,0.71678,-0.87399,1.0939,-0.45231,0.14506,0.45068,-3.8565,0.99648,1.2523,-0.56486,0.086606,-0.40726,0.20552,0.13306,-0.63202,0.3332,0.77849,-0.64029,-0.17808
hits,0.27691,0.49333,0.77319,0.07385,0.14356,-0.0048456,0.94135,0.0015563,0.30498,-0.23535,1.1792,0.78154,-2.8634,0.85568,0.33159,0.059945,-0.43001,-0.10883,-0.051266,-0.055019,-0.77687,-0.047292,1.0712,-0.70084,0.023318
currently,-0.88092,0.7129,0.47005,-1.3317,0.031921,0.51777,1.1753,-0.99955,-0.037769,0.24079,0.51178,0.54446,-3.4594,-0.118,0.45726,0.15529,-0.4203,0.60801,-0.17665,-1.0342,0.012322,-0.76317,-0.31755,-0.43048,-0.48698
fox,0.31969,-0.052008,0.89795,-0.49538,0.13835,-0.47876,0.40003,0.50656,0.31632,-0.81338,0.41782,-0.4945,-3.0073,-0.40346,0.57355,-0.44735,-0.6014,0.27903,-0.072222,0.19807,0.2222,0.10022,-0.1543,-1.3163,0.10569
hearts,-0.58488,-0.41458,0.20054,0.99344,-0.54434,0.24596,1.2199,-0.26351,-0.4237,-0.21891,0.054026,0.70742,-3.3472,0.94348,-1.3302,0.51246,-0.45499,-0.036278,1.1241,-0.019213,-0.88827,0.50193,0.29389,-0.11334,-0.21343
incredible,-0.68562,-0.39552,-0.11847,-0.75484,0.27783,0.25338,1.7037,-0.39405,-1.0975,-1.4803,0.18884,0.847,-3.2802,0.7237,0.20855,0.068895,0.35764,0.065895,0.1461,0.18414,-0.98001,-0.12166,-0.70218,-0.53236,-0.46245
tio,0.16568,-0.073276,0.51949,-0.43714,-0.23517,-0.10118,-1.2534,1.8782,-0.57579,-0.93226,-0.40473,-2.2626,-1.5901,-1.0168,1.4805,-0.64413,0.10679,0.10651,-0.82848,0.15763,0.60739,1.0307,0.27954,1.1036,0.25481
bottle,-1.3031,0.73146,0.35862,1.0607,-0.049877,0.50347,0.19,-1.2482,0.19514,0.27216,1.4056,0.2356,-3.7196,-0.60568,-0.050725,-0.046154,1.3924,-0.23019,0.20008,0.83375,-0.93528,-0.12324,1.1244,0.88602,0.62126
force,0.15631,0.013738,-1.7266,0.57051,-0.47576,0.12873,0.39548,-0.64122,1.2017,-0.09198,-0.01001,-0.0076453,-3.6316,0.66942,0.16705,1.0965,-0.26822,0.16849,-0.42866,0.1125,0.2163,-0.14893,0.64806,-1.1032,-0.23776
halloween,-0.6275,0.01068,0.89596,-0.078441,0.35409,0.040225,1.4814,-0.3862,-0.64727,-1.0237,0.17771,-0.99695,-2.6779,0.13002,0.067651,0.72532,0.48682,-0.59809,-0.34923,0.56638,-0.97586,-0.14969,-0.32104,-0.1434,1.3698
emotional,-0.68043,-0.28195,-0.83583,0.76122,1.0825,1.0543,1.9467,-0.78643,-0.040333,-0.55536,-1.0846,0.61714,-2.9697,1.0793,0.60617,1.1904,-0.16809,0.40447,0.30319,-1.029,-0.023736,0.77388,-0.028523,-0.32724,-1.0551
turning,-0.65242,0.68691,0.9087,0.11172,0.20982,0.65861,1.1384,-1.3712,-0.50464,0.25437,-0.51312,0.62979,-3.4792,0.029986,0.068749,0.048105,-0.35351,-0.086811,0.11662,-0.754,-0.039605,0.045399,0.60691,-0.44073,-0.54429
teach,0.31695,0.93504,-0.41568,0.43496,-0.22606,-0.88376,1.1964,-0.96352,0.89855,-0.6673,-1.2908,-0.014593,-4.1323,-0.62994,-0.034787,0.28535,0.46581,-0.42013,0.7314,-0.69317,0.17699,0.61726,-0.95371,0.31003,0.08349
completed,-1.0655,0.79293,0.047537,-0.39789,-0.56114,0.30029,0.53122,-1.6316,0.64634,-0.6416,1.6357,0.1875,-2.7374,1.072,-0.22864,-0.065883,0.75561,0.99825,0.11458,-1.4111,-1.4176,-0.37019,-0.56926,0.36134,-0.14982
ish,0.46616,0.32765,0.080557,-0.26026,0.1934,0.68046,0.96598,0.70567,0.82006,1.1483,-1.2319,0.96872,-2.5101,-0.38766,0.75846,0.40706,0.67142,-1.0169,-0.69145,0.1646,0.792,0.89668,-0.011114,0.86039,-0.27244
anche,-1.3084,-0.057228,0.1836,-0.41923,-0.23878,-2.0341,-0.50725,0.83594,-0.4421,1.2167,0.24917,-2.8039,-0.7708,0.092055,-0.4608,1.6163,-1.0868,0.99837,-2.8236,-0.93584,0.013183,-0.18549,0.51078,-0.28827,-0.43097
offer,-0.20076,0.86823,-1.0303,-0.58842,0.016799,-0.097908,0.089365,-0.84421,0.45914,-0.48716,0.89277,-0.068556,-3.9576,0.23347,0.15622,-0.53437,0.86924,-1.0714,-0.059642,-0.67934,-0.76786,-1.0789,-0.53375,0.29745,-1.3559
theres,0.32949,0.69008,0.65382,0.12105,-0.71851,0.20489,1.5707,-1.1928,-0.79502,0.23473,-0.84267,0.22689,-3.8926,0.030837,0.4962,0.64696,0.79175,-0.30083,0.23668,0.003597,0.3832,0.23563,0.4069,0.25865,-0.51138
closed,-0.96939,0.80901,0.5084,-0.9617,-0.32464,0.023435,0.69449,-1.0296,0.84906,1.4191,0.046106,0.49086,-3.1326,0.99442,0.62809,-0.1434,0.12735,-0.40354,-0.15246,-0.62806,-0.03201,-1.3955,0.88227,0.061328,-0.61036
factor,0.27225,0.097316,0.50088,-0.68556,0.28619,-0.57316,0.78167,0.68137,-0.16444,-1.3054,-0.20389,0.04848,-2.6222,0.30233,0.43057,0.7041,-0.89723,-0.27632,-0.14767,-0.2543,-0.97801,0.58417,-0.38916,-0.44183,-0.14388
whoever,-0.064065,1.1155,-0.20908,0.37,-0.59288,-0.98931,0.9104,-0.35201,-1.1255,0.20773,0.43676,0.32977,-3.793,-0.35258,-0.16646,0.62106,0.29442,-0.23914,0.28236,-0.048412,0.87068,0.067643,0.032548,0.067685,-1.0263
busca,0.015777,-0.15708,-0.42541,0.43755,0.60456,0.13855,-0.95463,1.9919,0.68771,-1.1518,0.75422,-2.9263,-1.0458,-0.21689,0.4108,-0.35419,-0.45619,0.018899,0.73702,-0.87085,0.94622,-1.0376,-0.3194,-0.18671,-0.11544
fea,-0.9591,-1.1652,-0.17866,-0.29438,0.57212,0.94532,-0.12029,2.5406,-0.95389,-0.44056,-0.22094,-2.2678,-1.1148,-1.2885,0.80909,0.55704,0.44474,0.68363,0.45257,0.83818,1.6086,-0.04286,0.15402,0.9479,-0.74872
ratchet,-0.076,0.46773,0.68977,-0.38042,1.307,0.39503,1.1049,-0.79541,-0.41292,0.2217,-1.4528,0.4649,-3.2745,-0.95585,-0.18076,0.041843,0.44305,-0.81058,-0.10691,0.86053,1.0906,0.85624,0.7018,-1.0068,0.15592
creer,0.4489,0.66441,-0.63031,1.1528,-0.18274,1.0303,-0.2759,2.5758,-1.1667,-1.648,0.4773,-2.3268,-1.016,0.079499,1.2188,1.4437,-0.41588,0.75918,0.3189,-0.65855,0.83804,0.027713,-0.37143,0.89938,-0.19995
christian,-0.59648,-0.29098,-0.20802,0.14822,-0.036951,-0.76505,0.2305,0.34476,-0.13318,-1.2304,0.017162,-0.6415,-3.5734,-0.27687,0.33252,-0.30128,-0.17074,0.3381,0.48062,0.5721,0.47483,0.33317,-1.3858,-1.0565,-0.0077088
learning,0.09664,0.83379,-0.32987,0.1909,0.73248,0.049558,1.4523,-1.6956,1.2215,-0.65237,-0.99456,0.12352,-3.8914,-0.1727,0.46747,0.24244,-0.21526,0.80736,0.8613,-0.57204,-0.67943,-0.70231,-1.524,0.19218,-0.24073
title,0.85013,0.45262,-0.0070575,-0.87738,0.42448,-0.83659,0.80416,0.37408,0.43085,-0.63936,0.11939,1.1342,-3.2065,0.93146,0.36542,-0.0031931,0.1979,-0.32954,0.29672,0.48869,-1.3787,0.75234,0.20334,-0.67998,-0.89194
seas,-0.97627,-1.0319,-1.3771,0.72227,0.1082,0.56118,0.42151,1.518,-0.66328,-0.82885,0.1629,-2.642,-1.9488,-0.225,1.4338,0.078967,0.14698,-0.21398,0.58965,-0.6354,1.2131,-0.063929,0.88764,0.31543,-0.75212
bunch,0.56082,0.80477,0.79247,0.10346,0.52153,0.83565,1.2691,-1.2287,-1.181,0.28112,-0.50994,-0.097936,-3.4858,-0.28679,0.099666,0.1508,0.77034,-1.3048,0.25258,0.62222,0.067965,0.27173,-0.28159,-1.0389,-0.49877
playlist,0.25804,0.080107,1.0918,0.15539,0.77215,-0.13619,1.334,0.58927,0.63531,-1.0561,-0.241,0.31741,-2.4095,-0.68424,-0.042286,0.78638,0.0023807,0.38894,-0.87222,0.16617,-1.1276,-0.49496,-0.10326,-0.52421,0.49438
memory,-0.15052,0.11715,0.20136,0.5803,0.55746,0.10647,1.2709,0.22814,0.84408,0.29926,0.2837,0.83607,-3.0703,0.47152,0.23862,0.68228,0.30492,0.60721,1.0182,-0.0055087,-1.2888,-0.27773,0.27011,0.6263,-1.1964
studying,0.40691,1.2089,0.5965,-0.29256,0.48318,0.21959,1.8981,-2.1561,0.0649,0.40378,-1.6235,-0.10844,-3.0552,-0.092744,1.6702,0.078501,-0.056263,0.47804,-0.50056,-1.164,-0.68896,-0.18535,-0.733,0.83163,0.21069
breath,-0.94296,0.13406,0.2423,1.5744,-0.23682,0.31562,1.7821,-0.92026,-0.045905,0.56448,-0.20314,1.0611,-2.8341,-0.0080071,-0.47848,0.50247,0.13682,0.15717,0.054677,-0.77379,0.32908,0.78482,1.4684,0.65601,0.31804
wrote,0.36458,0.43925,1.6547,0.076038,0.18822,-1.2789,1.3297,-0.61964,-0.46727,-0.48419,0.15306,1.3969,-3.3459,-0.34191,0.10838,0.23939,0.74326,0.90386,-0.23436,-0.41827,0.63795,0.14405,-0.63717,0.087106,-0.6644
feed,0.40006,0.5952,0.014079,0.64087,0.44429,-0.42291,0.88752,-1.197,0.22312,0.35806,-0.09029,-0.24014,-3.3165,-0.85586,-0.19323,0.24249,0.48649,-0.57708,0.17982,-0.49334,-0.11281,-0.52004,0.3777,-0.34141,0.29216
allowed,0.14004,1.0486,-0.35919,-0.82062,-0.21611,-0.23073,0.88462,-1.1149,-0.082402,0.63792,0.34227,0.20401,-3.2331,-0.42125,-0.51449,0.69806,0.10314,-1.1405,0.4798,-1.1851,0.10748,0.48642,-0.40171,-0.59404,-0.43838
clearly,0.20899,0.14959,0.011943,-0.74398,-0.17418,0.21884,0.87884,-1.0073,-0.67558,0.016839,-0.13176,0.88836,-4.1199,-0.26615,0.573,0.64019,0.14679,0.33895,0.44849,-0.66739,1.0661,0.76617,-0.22374,0.059192,-1.1928
cheap,-0.034523,0.1348,-0.43486,-0.8488,0.77365,0.61573,0.17661,-1.2218,-0.070786,0.21771,0.22762,-0.32301,-3.7099,-1.1076,-0.010573,-0.43292,1.3923,-0.78987,0.71724,0.58525,-0.41512,-0.87484,0.23896,-0.1817,-0.77602
university,-0.59489,0.32037,0.25788,-1.9004,-0.6242,-0.24373,0.53484,-0.60437,1.4528,-0.07736,-0.14153,-0.33205,-3.3471,0.89397,1.6222,-1.5817,0.067911,0.20891,0.22955,0.20345,-0.10707,-0.23097,-1.6214,-1.3422,0.0019191
government,0.88242,0.5105,-1.4473,-0.41412,0.11322,-1.3965,0.32364,-1.4395,1.0118,0.64873,0.5213,-0.46679,-4.0729,0.72555,0.46628,-0.88781,-0.17716,0.59876,0.80908,-0.81167,0.65514,0.18001,-0.51455,-1.542,-0.74876
shorts,-0.18394,-1.1456,0.88659,-1.2649,0.54173,1.1458,-0.13861,-1.203,-0.63693,-0.034028,0.19687,-1.3221,-3.3731,-0.64719,-0.68084,0.52191,0.35721,-1.7418,-0.028056,0.74857,-0.96416,0.81835,1.3568,0.22949,-0.33079
community,-0.70663,0.55072,-0.96001,-1.0145,1.0279,-0.63263,0.47598,-0.59153,0.87087,-0.44774,-0.21057,-0.56575,-3.7946,0.71036,0.50328,0.0041152,-0.12263,0.086328,0.40863,0.22013,-0.22086,-0.99054,-1.4351,-1.3066,0.27218
breathe,-0.51857,-0.18892,-0.059963,0.9596,-0.97759,-0.090467,1.6294,-0.57969,-0.57091,0.28746,-0.81939,0.62932,-2.8408,-0.70959,-0.30524,1.1241,-0.080619,-0.053081,0.53138,-1.1873,0.043986,0.43711,1.3139,0.52196,0.51422
whether,0.40797,0.36078,-0.70557,0.24847,-0.813,-0.24289,0.95694,-1.3941,0.30774,-0.51379,-0.61718,0.29426,-4.3279,0.30992,0.33105,0.32429,0.18555,-0.25502,0.47457,-1.0376,0.55332,0.13398,-0.43558,-0.056518,-1.2792
bomb,-0.12323,0.4115,0.40971,0.41575,0.0023178,-0.29275,1.1094,-1.0405,0.52352,1.3059,0.81929,0.15664,-2.8042,0.021268,0.29332,-0.28791,1.1082,-0.41967,-0.022094,-0.11172,0.4906,0.505,0.72468,-1.0265,1.1786
heavy,-0.57092,0.023807,-0.13601,0.17461,0.49529,1.4702,0.78091,-0.04721,0.58612,0.13018,-0.10268,0.25427,-3.0934,0.46661,0.53102,0.2282,0.37807,0.22963,0.73154,-0.17207,-0.63859,0.19741,1.2854,-0.18731,0.22031
earned,-0.45103,1.5766,-0.77914,-0.46222,0.78449,-0.43671,0.0347,-1.5831,-1.2199,-1.0547,1.5096,1.2421,-2.9692,0.59466,-0.28671,-0.3994,1.0688,0.21763,0.31146,-0.3441,-1.2532,0.096816,-0.19856,0.83525,0.12647
friendship,-0.67621,-0.018164,-0.29532,0.69354,0.43832,-0.12195,1.4766,-0.32451,-0.54809,-0.12534,-0.504,0.66364,-3.2259,0.77231,-0.58,1.2585,-0.22979,0.041676,0.89967,0.25494,-0.35492,0.27094,-1.045,0.3568,-1.3045
folback,-0.35638,1.9419,-0.81711,0.054194,-0.55381,-1.8625,-1.0845,1.8507,0.25512,0.42085,-0.18303,0.23409,-1.216,-0.8267,-0.39367,-0.51182,0.99567,-1.4077,-1.1536,-0.1668,-0.66639,0.34454,-1.2894,2.2255,-0.44116
hates,-0.39741,0.37299,0.52512,-0.14921,-0.40647,-0.35524,1.5292,-0.87196,-0.63475,0.20905,-0.065642,0.17479,-3.4099,-0.84826,0.55659,0.3396,-0.44659,-0.35123,0.92734,-0.25465,1.5539,0.76954,-0.29661,-0.47986,-1.03
teachers,0.7682,1.1755,0.23926,-0.93527,0.94909,-0.76385,1.2647,-1.7697,0.51997,0.34161,-1.2709,-0.73907,-3.5666,0.39182,0.40663,-0.22831,0.3031,-0.60183,0.63095,-0.69982,0.77951,0.28881,-0.90221,-0.64375,-0.49253
based,0.57621,-0.0097165,-0.8488,-0.4566,0.64321,-0.36241,0.76386,-1.1653,0.52051,-0.29119,-0.38324,0.51776,-4.0247,0.12245,0.50445,0.12173,0.26848,0.32907,0.76059,0.27292,-0.16881,-0.7274,-1.1385,-0.33372,-0.61351
within,-0.034387,-0.17522,-0.2983,0.57293,-0.18368,-0.23531,0.44919,-1.1047,-0.10747,0.37375,-0.25745,0.66629,-4.0148,1.4028,-0.009727,0.30309,-0.087954,0.54564,1.0026,-0.85701,-0.99548,-1.0688,0.023127,-0.11647,-0.64209
header,0.34983,-0.52837,0.68038,-0.15636,1.2774,-0.95308,0.52056,0.90851,-0.50844,-0.77192,0.091754,0.33642,-2.2375,-1.1528,-0.40586,0.46044,0.19671,-0.59284,-0.87242,0.067254,-0.40575,-0.2044,0.48028,1.0031,-1.7771
bright,-1.2485,-1.1716,0.45603,-0.048772,-0.19996,1.2849,1.1186,-0.81055,0.010184,-0.40632,-0.66735,0.42452,-3.3121,0.21106,-0.912,-0.27111,0.32562,-0.049839,0.52616,0.49468,-0.49639,0.04397,0.7803,0.53041,-0.59931
hice,0.44057,0.79236,0.65813,0.41597,0.84451,0.2538,0.10963,2.2868,-0.95673,-0.91795,1.1186,-2.342,-0.67431,-0.24961,1.0221,1.2199,0.60555,1.2457,-0.12016,0.391,0.39599,0.20256,1.0457,1.6572,0.033433
freedom,-0.092769,0.50162,-1.1099,0.3995,-0.058503,-0.75029,1.0521,-0.4672,0.39741,0.11788,-0.40779,0.48629,-3.4503,1.0567,-0.29543,0.0017459,-0.51337,0.59462,1.1181,-0.20546,-0.43685,0.083623,-0.6968,-0.71334,0.31455
beast,-0.59395,-0.037255,0.42709,-0.3192,0.15983,0.047251,1.5194,0.67141,0.39332,-1.141,0.14388,1.8149,-2.6431,0.13504,-0.21329,-0.25125,-0.23582,-0.38851,-0.34104,0.62116,-0.39049,0.58603,0.3712,-0.50558,-0.040608
tony,-0.5263,0.36402,0.2369,0.20377,-0.51755,-0.20041,-0.17058,0.97558,-0.070983,-1.5437,0.26232,0.39445,-3.1837,-0.52021,1.2467,-0.38004,-0.41259,-0.11459,-0.076193,0.20835,0.40211,0.36826,0.095333,-0.69073,-0.5796
amount,0.84433,0.37287,-0.7362,0.8842,0.88633,0.78877,1.7007,-1.7881,-1.0014,-0.09088,0.5243,-0.25625,-3.3597,0.96199,0.31279,0.14523,1.135,-0.060202,0.1364,-0.26009,-0.55658,0.47742,0.052099,0.43293,-1.5195
countkun,1.2055,3.7751,1.8076,-2.1117,2.9524,-3.7257,-2.37,2.3788,0.2449,-0.65901,-3.7472,0.86611,0.29606,1.5671,-1.2384,-0.40216,0.67595,1.7661,0.74932,3.4055,-3.21,-1.8062,-1.1862,-1.9503,-0.70067
anywhere,-0.57989,0.10288,-0.22214,-0.44588,-0.80379,-0.014267,0.41286,-1.1543,-0.25005,0.64594,-0.59298,0.26474,-3.9861,-0.29206,0.48241,0.78047,0.48259,-0.71406,0.58431,-0.80872,-0.31131,-1.0723,0.26309,0.028972,0.00821
security,0.37301,0.64326,-0.78782,-0.30667,1.0736,-1.0177,0.34477,-0.73636,1.7463,1.0288,0.56903,0.25466,-3.5931,0.29576,0.50653,-0.10519,0.15474,0.47143,0.52457,-0.48716,0.095259,-0.70774,0.14212,-1.3216,-1.0752
teams,1.1619,1.1112,-0.6372,-1.924,0.034611,0.75957,0.03847,-1.0669,-0.29597,-0.71527,0.12779,0.4313,-3.937,1.2251,0.83133,0.10608,-0.24198,-0.95151,0.37402,0.23313,-1.0174,0.60809,0.0037572,-1.0246,-0.535
taught,-0.010431,0.96466,0.30254,-0.16944,-0.17319,-0.77678,1.0658,-1.0047,-0.42843,-0.60198,-0.50421,0.6099,-3.8569,-0.1213,-0.14455,0.59844,0.18507,0.39065,1.1521,-0.046171,0.88594,0.86789,-0.96746,0.17545,0.10952
tbt,-0.97526,0.46033,1.2511,-1.4496,0.17084,-0.50332,1.262,0.0012365,-1.2958,-0.059066,-1.3525,0.15982,-2.289,-0.15144,-0.27576,0.14434,0.69323,-0.88943,-0.43566,1.0478,-0.026479,-0.37173,0.26291,-0.60569,0.43965
ground,-0.67421,-0.082579,0.16297,0.46588,-0.40933,0.3898,0.59636,-1.1704,0.5407,0.73551,0.24485,0.55897,-3.5033,0.80551,0.24962,-0.27076,0.070563,0.035162,0.21526,-0.51271,-0.64404,0.34991,1.0876,-0.66048,0.13278
users,1.9424,0.59644,-0.033088,-0.58114,1.2308,-0.76804,0.13462,-1.2025,0.1603,0.026477,0.37387,-0.75452,-2.8446,-0.55903,-0.57444,-0.14485,-0.22114,-0.51719,0.90418,-1.1267,-0.017353,-1.9337,-0.18692,-0.37947,-1.0742
crees,0.50162,-0.65679,-1.1905,0.17174,-0.083339,-0.19709,0.095743,2.6323,-1.0889,-1.1813,1.1721,-2.4774,-0.83406,-0.50931,1.2775,0.28817,0.37831,0.77184,0.84292,-0.096486,1.1211,-0.4338,0.0085001,1.0184,-0.61535
hill,-1.223,-0.2588,0.86705,-0.041346,-0.89586,0.36802,0.62996,-0.32414,1.289,-0.86554,0.18163,0.26591,-3.5542,0.35045,1.1798,-0.79317,-0.16949,0.24211,-0.045336,0.31585,0.081719,0.19739,0.19631,-0.68027,0.55595
yellow,-0.53491,-1.3423,0.68075,0.012481,-0.093696,0.7887,0.68167,-0.2631,0.36418,0.10612,0.55277,0.14424,-3.272,-0.42571,-0.67086,-0.35659,1.0157,-0.3433,0.45087,1.3671,-0.82037,0.49453,1.0454,-0.16113,-0.41696
seat,-1.272,0.15273,0.29701,-0.43893,0.43261,0.045192,-0.029994,-0.39776,0.84685,1.0102,0.30362,0.11627,-3.3693,0.080301,0.14686,0.36894,0.56315,-0.77037,-0.091194,-0.1768,-0.44137,-0.2617,1.4627,-0.41447,-1.0632
horror,0.67846,-0.26964,0.61851,0.046141,0.61987,0.051023,1.8133,0.8274,0.30019,-0.5699,-0.15057,-0.38452,-2.1337,-0.017248,0.89657,1.1567,0.14458,0.61671,-0.13564,0.067028,-0.63978,0.69494,-0.69101,-0.037431,0.98344
twit,1.1942,1.1003,0.4401,-0.017207,1.1411,-0.39989,-0.16731,1.9121,-0.25838,0.87476,-0.11677,0.036429,-1.556,-0.30346,-0.59166,0.71883,0.73487,-0.60889,-0.92734,0.19104,-0.31403,-0.29607,-0.83522,0.34329,-0.61968
third,0.085616,0.48898,0.65162,-0.47037,0.19569,-0.20498,0.96364,-0.46656,0.24734,-0.59121,0.21246,0.47333,-3.6391,1.4016,0.47408,-0.61512,0.63638,0.15388,-0.16804,-0.45614,-1.0895,0.57791,0.64438,-0.7808,-0.85564
education,0.39388,0.78487,-1.3961,-0.60382,1.3577,-0.83924,0.45893,-1.4246,1.0915,-0.060802,-0.71102,-0.039473,-3.9293,0.83086,0.7263,-0.71564,-0.17165,0.59538,0.54924,-0.17349,-0.004416,-0.43568,-1.5045,-0.37329,-0.087829
california,-0.95349,0.073125,-0.0664,-0.48184,-0.85223,0.19155,0.52994,-0.32808,0.65057,0.090458,0.36989,-1.0424,-3.2984,0.53371,0.98643,-0.97965,0.072934,0.073817,0.71516,0.19983,0.18494,-0.83666,-0.079473,-1.3997,0.88417
chilling,-1.8387,1.107,1.3475,-0.36767,0.15793,0.93733,0.58819,-0.75674,-0.44996,0.23464,-1.311,0.4208,-2.9875,-0.40366,0.61179,0.704,0.5612,0.035,-0.77477,0.059437,0.42556,-0.23551,0.2349,0.063967,1.0007
wassup,-0.71602,1.8456,0.47027,-0.31308,-0.058547,-0.15901,0.26011,0.052394,-0.50002,0.18834,-2.0353,0.86495,-2.9346,-1.005,0.42889,-0.24564,0.88076,-1.2783,-0.35446,1.1341,1.6475,0.057129,0.77653,0.37595,0.80022
mustfollow,0.68662,1.6798,-1.7009,-1.6839,-0.36701,-1.3788,-0.66456,0.21739,-1.5028,-0.077008,-0.64613,1.1132,-1.4628,-0.79296,-2.7947,0.12441,-0.68433,-1.117,-0.23185,0.98718,-0.56814,-2.4857,0.25014,-0.52995,0.54747
chose,0.19542,-0.50315,-1.6325,1.1018,-0.55991,-0.14199,0.57415,-0.59728,-0.33896,-1.1259,-0.093189,-0.33224,-3.2034,0.45779,0.41277,1.7446,-0.17851,0.097116,-2.2293,0.42593,0.75542,0.065477,-0.12146,-0.051298,-1.2454
nearly,-0.042535,0.3722,0.79526,-0.48189,-0.32715,0.037379,0.64487,-1.4342,-1.437,0.53887,0.80894,0.38957,-3.3874,1.0295,0.367,-0.21048,0.77747,0.472,-0.036499,-1.4795,-0.44968,-0.021919,0.4073,0.062371,-0.5899
bathroom,-1.5658,-0.26484,1.5847,0.1462,0.93996,-0.082921,0.84346,-1.6724,0.88326,1.4608,-0.22589,-0.24122,-3.4764,-0.57879,0.12875,0.93083,0.75347,-0.15399,-0.40597,-0.34876,-0.0063565,-0.43815,0.93782,-0.41066,-0.25289
screaming,-0.76104,0.43708,1.5529,0.47673,-0.21192,-0.14425,1.7523,-1.0432,-0.73191,0.99731,-0.64456,0.83082,-2.7526,-0.38869,0.053606,0.7249,-0.50388,-0.30797,-0.44039,-0.85265,0.57582,0.75004,0.9236,-1.1786,0.096071
character,0.5993,-0.55861,0.18074,0.45625,0.62302,-0.40111,1.4738,-0.31692,0.36197,-1.3075,0.096759,0.86533,-3.6391,-0.024438,0.28217,0.92142,0.079902,0.60671,0.78855,0.29486,-0.40294,0.75807,-0.98066,-0.18989,-0.8555
voteonedirection,0.45674,0.99364,-0.075806,-1.2084,-0.92855,-1.5962,0.33349,0.019988,-2.311,-0.38732,-0.60432,-0.40936,-1.32,0.2985,-0.60433,-0.32746,-0.67447,-1.1044,-0.48085,0.46858,-0.37807,0.2374,-0.30761,-0.43761,-0.063055
bother,-0.049382,1.1073,-0.21622,0.087279,-0.46545,-0.12126,1.2585,-1.1725,-0.20953,0.22705,-1.4609,0.16459,-3.6701,-0.89951,0.31589,1.3176,-0.24859,-0.72872,0.076572,-1.2781,0.79221,0.20692,0.1219,0.7067,-0.85647
exciting,-0.21138,0.16162,-0.19884,-1.2013,0.28798,0.77517,1.954,-1.0524,-0.45519,-1.3961,-0.51846,0.42474,-3.2391,1.0122,0.80343,0.19218,0.50631,-0.37094,-0.37619,-0.15522,-0.89939,-0.7648,-0.99338,0.45151,-0.40039
ando,0.46146,-0.45291,0.78197,-0.80312,-0.18365,1.0616,-0.37322,1.1681,-0.77433,-0.4128,-0.32747,-2.3347,-0.55978,-0.91086,0.70389,0.38989,0.52627,-0.0024799,-0.14227,-0.96638,0.99435,-0.69354,0.97221,1.4221,0.33977
chase,-0.52809,1.0737,-0.36008,0.57722,-1.0952,0.10455,0.39023,-0.5443,0.37025,-0.42822,0.0063389,0.4186,-3.5818,-0.22671,-0.11608,0.36709,-0.20004,-0.84647,0.82879,-0.051092,0.40476,0.23368,0.74129,-0.8235,-0.13672
catching,-0.14188,0.88883,1.3195,0.57634,-0.34837,0.28797,1.6101,-0.39044,-0.88626,-0.75781,-0.26042,0.16898,-2.5418,0.10691,0.72806,0.88389,-0.1266,-0.02555,-0.10684,-0.57038,-0.87508,0.25728,0.60625,-0.54839,0.38058
perfection,-0.68196,-1.3351,-0.88513,0.73049,0.089632,-0.42095,1.5046,-0.43984,-1.2864,-0.85572,-0.17841,0.65621,-2.8113,-0.41474,-0.13839,0.95237,-0.81819,0.18919,-0.32499,0.4941,-0.13208,0.31281,-0.4686,0.10634,-0.47598
prayers,-1.6185,1.478,-0.29737,1.2488,-0.71793,-1.041,1.504,-0.37539,-1.2056,0.010382,-0.72122,0.56636,-2.9864,2.1311,0.43137,-0.35664,-0.099877,-0.079206,0.36781,-0.71637,0.69569,-0.024503,-0.43681,-0.53923,-0.56105
charge,0.52018,0.71569,-0.43393,-0.070486,0.21289,-0.09351,-0.12033,-0.49451,1.1285,1.0188,0.27286,0.33837,-3.1479,0.04399,0.60497,0.71002,0.62366,-0.37529,-0.65918,-1.0838,-0.054417,-0.50033,0.86459,-0.20472,-0.9137
cooking,-1.1888,1.153,0.66922,0.62743,0.94893,0.46621,1.1505,-1.8302,0.4669,-0.16438,0.18825,-0.16127,-3.1952,-1.0819,0.48869,-0.55207,1.1058,-0.75737,-0.3993,-0.11797,0.012328,0.22247,-1.2079,0.49736,1.2224
cree,0.14631,-0.46585,-1.0532,0.11571,0.059106,-0.17811,-0.53928,2.7425,-0.11212,-1.0574,0.7018,-2.0726,-1.6726,-0.66355,0.98629,0.76085,-0.13439,0.59498,1.0344,-0.089771,1.855,0.094811,0.31325,-0.10865,-0.56098
ficou,0.90637,-1.9371,1.6916,-1.1762,0.73085,-0.27423,-0.43595,0.79003,1.1644,-1.6156,-0.6079,-1.7682,-1.0059,-1.7537,-0.42298,-0.71652,-1.6655,0.22995,-1.1579,-1.3828,0.1788,1.0548,0.97006,1.2204,-0.03322
autofollow,0.54793,1.5681,-2.2203,-1.3572,-0.050302,-0.97884,-0.17517,0.96923,-0.84667,0.1974,-0.43583,0.9698,-0.9409,-0.88472,-1.9938,0.47373,-0.70332,-1.4002,-0.23695,0.72636,-0.72461,-2.3139,0.28829,-0.17118,0.41051
inch,-0.30785,-0.8442,0.24157,-0.43176,0.53846,0.64148,-0.66965,-0.65173,1.6916,0.064637,0.78015,0.4788,-3.4494,-0.39287,-0.53042,-0.47287,0.80106,0.84209,0.31236,0.88059,-1.5734,-0.16045,1.7212,0.33617,-0.97421
olympic,-0.22994,-0.020158,0.093238,-1.4939,-0.0025367,-0.28751,1.2029,-0.66309,0.23475,-0.88302,0.68752,0.33463,-3.172,1.1436,0.048702,0.032824,-0.098118,-0.65373,-0.039682,0.59613,-1.7214,0.91132,0.053109,-1.8862,-0.14287
sunshine,-2.1705,-0.60799,0.0086593,0.62832,-1.3159,0.092958,1.6931,-0.33576,-0.91725,-0.31463,-0.54184,-0.0057657,-2.7501,0.35592,-0.53763,-0.51698,-0.0042491,-0.36356,0.41174,0.48358,-0.64938,-0.86609,0.53595,0.88383,-0.26391
oficial,0.32986,0.21502,0.51164,-0.99885,1.7546,-0.98148,-0.50058,2.1968,0.32712,-1.818,0.34192,-1.0871,-1.1924,-0.55861,0.26587,-0.15983,-1.0735,0.80412,0.24786,-0.16339,-0.27615,-0.96903,0.47595,-0.76279,0.97308
threw,-0.33219,0.73081,1.8742,0.6127,-0.57258,0.21694,0.28674,-1.0554,-0.24754,0.40661,0.36412,1.0776,-3.7693,-0.16704,0.41351,0.18943,0.97106,-0.61577,-0.17089,-0.46628,0.14432,0.99998,1.9091,-0.33152,-0.40875
wishes,-0.78888,1.0303,-0.02858,0.29035,-0.50543,-0.66286,1.4177,-0.17694,-0.94035,-0.3166,0.39662,0.33048,-2.7048,0.99151,-0.93558,-0.37604,0.13757,-0.96892,0.4,-0.066077,-0.34232,0.1138,-1.5883,0.71941,-0.47296
cheat,1.0233,1.1347,-0.5439,-0.079916,0.24283,-0.18221,0.81109,-0.60676,0.27278,0.33868,-0.13178,0.52401,-3.1163,-0.79226,-0.43626,1.4268,0.37052,-1.14,0.9847,-0.68758,0.24271,0.74318,0.073489,-0.38298,-0.45715
hemos,1.011,0.52567,0.48863,-1.2974,0.409,0.16325,-0.70609,1.9206,-1.3831,-1.4529,1.4376,-2.4645,-0.68545,1.7388,1.0487,0.18372,0.91561,0.87203,0.34188,-1.0226,0.71372,0.46768,0.044681,0.85227,0.38805
tongue,-0.71957,-0.48157,0.039795,1.5783,0.57839,0.077249,1.167,-0.92575,0.10819,0.84262,0.24146,1.0826,-3.0011,-0.61163,-0.75578,0.4324,0.29718,-0.15495,0.15427,-0.47429,-0.10542,1.6224,1.6538,0.46404,-0.32146
personality,0.0092384,-1.3353,-0.78732,0.31797,1.3224,0.6224,1.5364,-0.77949,-0.24777,-0.56824,-0.38105,1.1123,-3.1835,0.2048,-0.18553,1.1082,-0.097798,-0.21224,0.87033,0.51705,0.58875,0.49177,-0.22153,0.096806,-1.7314
wasnt,-0.19723,1.2209,0.98832,-0.88394,-0.22959,0.18633,0.41597,-0.84471,-0.86304,0.081498,-0.74442,1.1758,-3.9853,-0.32586,0.52534,0.90485,0.60356,0.28288,-0.23017,-0.49614,1.3228,0.81028,0.40374,0.62913,-0.28538
fi,0.18764,0.84045,-0.55691,0.3193,-0.1961,-0.28057,-0.82549,0.5897,1.232,0.55051,-1.2362,-0.68201,-2.6688,-0.1401,-0.15518,-0.12508,0.51831,-0.10848,-0.27978,-0.073025,0.14975,0.51268,0.21699,0.96505,0.2662
although,-0.47981,-0.24958,-0.5352,-0.24695,-0.74497,0.79271,1.5165,-1.0668,-0.47177,-0.63945,-0.28092,0.44515,-3.3474,0.85392,0.61478,0.38608,0.39716,-0.18092,0.54161,-0.88767,0.27453,-0.15111,-0.66646,0.6024,-1.1117
released,0.46739,0.61359,0.97002,-0.82501,0.20637,-1.2464,0.93042,-0.39995,-0.1225,-0.68921,1.3787,1.61,-3.1119,0.51665,0.18667,-0.02009,0.33846,0.45829,-0.0081954,-0.87476,-0.77465,-0.64454,0.21498,-0.65599,0.078994
nothin,-0.0028683,1.5775,0.44186,0.56675,-0.24617,1.0752,0.26687,-1.0238,-0.44146,-0.046232,-1.5248,0.73524,-3.8147,-0.13236,-0.2322,0.64267,-0.062964,-0.076461,0.26529,0.39599,0.71591,0.75397,0.77144,0.83966,0.49411
information,0.4918,0.52183,-1.1841,-0.031988,1.1468,-0.61078,0.48485,-1.1636,0.73446,0.076003,0.12772,0.4865,-3.4833,0.52375,0.41481,0.10604,0.70972,0.55721,0.14742,-0.46564,-0.071301,-1.9889,-1.0767,-0.14101,-0.81463
andy,-0.57088,-0.00074694,0.73557,0.0093077,-0.94394,-0.3516,-0.08214,0.94076,-0.50013,-1.4806,0.46177,0.23092,-3.1124,-0.48862,1.258,-0.40447,-0.12444,-0.24098,-0.21627,0.22509,-0.093677,0.53575,-0.33018,-0.12045,-0.85043
cheating,0.25507,1.0114,-0.2113,0.30292,0.83691,-0.10705,0.75291,-0.89422,-1.0498,0.85738,-0.6693,0.91129,-2.9694,-0.56383,0.35352,0.93254,-0.805,-0.40997,0.50472,-1.0331,1.1018,1.6229,-0.0096097,-1.2616,-1.1107
created,0.24106,-0.3075,0.045214,-0.19064,0.40512,-0.72002,0.78697,-0.99581,-0.43739,-0.26186,0.59552,0.84554,-3.7379,0.11866,-0.42013,0.33076,0.75248,0.98193,1.1901,-0.32141,-0.33355,-0.17086,-0.83435,-0.24344,-0.43446
throwing,-0.23866,1.1842,1.3916,0.74779,0.011273,0.78086,0.66253,-1.6621,-0.21509,0.51076,0.34251,0.84372,-3.2809,-0.39703,0.44033,0.067792,-0.093714,-0.88673,0.011797,-0.26121,-0.14047,0.97321,1.1483,-0.89509,-0.34518
chorar,1.0816,-0.53565,1.0153,1.4666,-0.97937,1.1077,-0.019692,0.21962,0.27232,-1.5233,-1.2231,-2.176,-0.79526,-0.95458,-0.61835,-0.04449,-3.0191,0.65853,-0.67613,-1.7854,-0.35978,0.84978,0.35569,1.6522,0.50041
share-worthy,2.2252,1.3504,-0.18903,-3.7596,1.1349,-2.2197,1.1343,-1.7621,-0.39542,-3.6827,0.23364,1.9062,0.20231,0.49336,1.4194,-0.18181,-0.43605,-0.31205,-0.38928,0.23758,-0.66809,-0.69815,-1.0899,-2.1269,0.50784
bora,-0.38313,0.2939,0.32173,-0.25958,-0.65188,0.14744,-0.052356,0.5315,1.1188,-1.407,-0.91209,-1.6494,-1.3643,-0.67335,-0.12802,-0.76925,-1.119,-0.78991,-0.9563,-0.17278,-0.88817,-0.4418,-0.81943,0.7054,0.89645
background,0.30702,-0.47801,0.6118,0.042445,1.3022,-0.71796,1.2288,-0.037334,0.82665,0.17348,-0.23496,0.58626,-2.8582,-0.81627,-0.020886,0.79446,0.33105,-0.37758,-0.25281,0.10826,-0.43479,-0.23341,-0.11411,0.11947,-1.1792
thousand,0.8735,0.76848,1.3188,1.5366,-0.60574,0.22429,1.2107,-0.7143,-1.1699,0.17688,0.3628,0.35896,-2.6437,1.0937,-1.378,-0.1132,-0.27441,-0.034526,0.71333,0.082859,-1.1246,0.063665,-0.10244,-0.15105,-0.88924
heads,-0.64824,0.55806,0.51306,0.10594,0.20375,0.41453,0.51802,-1.4014,-0.091344,0.50885,0.24107,0.63781,-3.3482,0.070388,-0.047112,-0.22957,-0.30914,-0.71758,0.14115,-0.21972,0.0056252,0.87172,0.96888,-0.82028,0.21139
homem,1.0741,-1.5782,0.32786,0.91157,0.57568,0.03131,-0.4208,0.73044,1.4662,-0.85288,0.040288,-2.8883,-0.88715,-1.4474,-0.50791,-0.90721,-1.8068,0.10303,-0.44457,-1.5855,0.67631,1.7152,-0.24615,-0.50025,0.44222
rolling,-0.32809,0.50278,1.1317,0.42469,0.076118,0.60335,0.58398,-0.32409,0.14124,-0.033964,0.48468,0.33608,-2.8413,-0.4248,0.068844,0.44012,-0.11881,-0.043511,0.24492,-0.0071564,-0.46236,-0.027249,1.0335,-0.46916,0.65465
creepy,-0.22932,-0.9582,0.84149,-0.012861,0.83687,0.47533,1.9645,-0.58496,-0.7661,0.084724,-1.0227,0.18201,-2.624,-1.0077,0.61857,0.89897,1.1308,0.15405,-0.034749,-0.15969,0.97764,0.50288,-0.066228,-0.62685,-0.35551
opportunity,-0.5964,0.97554,-1.5907,0.0637,0.37329,-0.44397,0.82938,-0.91208,0.48701,-1.1615,-0.16801,0.40747,-3.7195,1.2862,0.43264,-0.14142,0.57727,0.30438,0.79184,-1.1025,-0.28151,-0.85913,-0.77827,0.12496,-0.60914
higher,0.4543,0.28726,-0.62819,0.18894,0.62448,0.65986,0.32606,-1.3855,0.53443,-0.0874,-0.11415,0.55514,-3.49,1.3696,-0.017523,-1.1098,0.0056048,0.15964,0.98337,-0.9619,-0.68474,-0.080939,0.85224,-0.011555,-0.83695
texted,-0.71517,1.3194,2.1341,-0.093292,-0.36413,-1.1787,0.52746,-0.27188,-1.6151,0.24181,-0.62325,1.2137,-3.1094,-0.72252,0.52023,0.38219,1.109,-0.32288,-0.25109,-0.78972,2.0354,-0.024684,0.48621,0.51343,-1.244
photography,-1.1189,-0.79851,0.1904,-0.69415,1.2006,-0.62236,1.0785,-0.6017,0.99825,-0.88909,0.2285,0.46547,-2.7889,-0.69743,0.060046,0.052499,0.10293,0.031101,0.15401,0.59925,-0.75561,-1.8123,-1.287,-0.64401,-0.34783
thick,-0.87775,-0.64087,-0.20872,-0.20609,0.97663,1.4422,0.38642,-1.3003,-0.49205,0.50827,-0.80474,0.58657,-3.3811,-0.86364,-1.0823,-0.68104,0.6422,-0.94057,0.28302,0.99462,0.73761,1.5193,1.1425,-0.027036,-0.14366
creative,-0.41253,-0.0096956,-0.70466,-0.46463,1.5188,0.72656,1.1312,-0.80049,0.77339,-0.9922,-0.63165,0.26772,-3.2877,-0.24779,-0.23076,0.16642,0.21973,0.3871,0.70592,0.086358,-0.49021,-0.95597,-1.4105,-0.30542,-0.72072
sougo,-1.3038,1.3243,-1.5008,-2.3194,-1.4188,-0.47441,-0.44173,0.71205,-0.3045,-0.87056,-0.49531,0.54009,-2.0506,-1.3505,-2.4142,0.56893,-0.92986,-1.5702,0.25678,1.006,-0.8103,-3.1315,1.4278,-1.1154,0.30742
charger,0.41995,0.20773,0.39065,-0.1741,0.42164,0.12098,-0.097716,-0.26586,1.3889,1.6291,0.34145,0.34846,-3.0415,-0.85202,0.59333,1.207,0.84228,-0.156,-0.11007,0.25039,-0.89304,-0.8557,2.0142,0.74651,-1.3697
cleaning,-1.6697,0.84609,0.90783,-0.0018154,1.3206,0.77955,0.8217,-2.0625,0.92271,0.87838,-0.14056,-0.16759,-3.2057,-1.0316,0.82382,0.02547,0.36343,-0.10129,-0.0088641,-0.61842,-0.49038,-0.79294,0.23718,0.40059,-0.13889
throat,-0.83987,-0.015158,0.11967,1.1853,0.66566,0.20996,1.4272,-1.0287,-0.17167,1.1285,0.072065,0.7935,-2.6039,-0.56368,0.66087,-0.031779,0.19912,-0.021847,-0.0059966,-1.0979,-0.099569,1.9452,2.2872,0.88974,0.027238
willing,-0.52574,1.044,-1.3802,-0.13005,-0.64905,-0.12246,0.62836,-0.97709,0.18801,-0.73287,-0.237,-0.030717,-3.7912,0.71615,-0.89835,0.57575,0.43305,-0.56274,1.1406,-1.7992,0.40733,0.56934,-0.36998,0.33858,-1.0388
services,-0.51398,0.67094,-1.3458,-0.78218,1.0763,-0.59789,-0.55136,-1.5635,1.4981,-0.02892,0.38081,-0.45138,-3.8249,0.47763,1.0824,-0.35438,0.41273,0.0067651,-0.00628,-0.24494,0.030407,-2.4144,-1.0448,-0.51042,-0.73771
forreal,-0.15937,1.1259,0.25548,-0.36125,0.030775,0.012,0.83904,-0.59946,-0.90099,0.59976,-1.9004,1.0374,-3.1645,-0.68993,0.97423,0.59351,0.23804,-1.3224,0.024219,0.23195,1.4296,0.64641,0.96968,0.54276,0.94496
bouta,-0.73354,2.4536,0.91292,-0.86133,-0.41524,0.6703,0.47585,-1.0253,0.43879,-0.31257,-0.91118,0.79756,-2.9896,-0.94503,0.094833,0.28216,0.87606,-0.9895,-0.82495,-0.68778,1.131,0.7075,1.9432,0.37231,1.0468
county,-1.2193,0.25505,0.28578,-1.2109,-0.81677,-0.1947,0.0030627,-0.91832,1.3886,0.11834,0.09409,-0.21537,-3.7763,1.5703,1.805,-1.9141,0.20614,0.2962,-0.060825,0.69552,1.3253,-0.15283,0.079992,-1.6425,-0.13791
received,-0.61139,0.82989,-0.42419,-0.54827,0.86598,-1.2698,0.5119,-0.88056,-0.88342,-0.69243,1.2331,0.90715,-2.9844,0.70011,-0.18142,-0.35518,1.4972,0.5927,-0.085368,-1.1839,0.022076,-0.76875,-0.7432,0.34478,-1.0343
washington,-0.1191,0.26218,-0.16353,-0.72116,-0.78119,-0.42623,-0.10097,-0.2505,0.75413,-0.47336,0.3879,-0.1336,-3.4461,0.89002,1.4017,-1.3791,-0.41759,0.41946,0.22955,-0.15579,0.46612,-0.60972,-0.11067,-1.4612,0.13497
thomas,-0.41657,-0.70474,-0.21367,0.42747,-1.0633,-0.16528,-0.67266,0.42237,0.29699,-1.6956,0.31194,0.69081,-3.2524,-0.53279,1.0406,-0.56352,-0.69181,0.27357,-0.92081,0.41603,0.36869,0.39414,-0.63785,-0.34884,-0.61012
becomes,-0.65562,-0.48346,-0.47729,-0.49043,0.36332,-0.025192,1.3923,-0.66275,-0.38386,-0.24323,0.16477,1.157,-3.4492,0.55174,0.31714,0.38321,0.17722,1.0231,1.2804,-0.9768,0.31796,0.53669,-0.24504,-0.4053,-1.0519
hacerlo,0.037234,0.46063,-0.61088,1.0474,0.26806,1.0587,-0.48659,2.2699,-1.1177,-1.0471,0.72252,-2.2405,-0.69851,-0.0085106,1.5231,0.89786,-0.76894,0.48397,0.77146,-1.4282,-0.26631,-0.83817,-0.36395,1.463,-0.16882
constantly,-0.45431,0.88273,0.11556,-0.091248,0.0010977,0.58083,1.5485,-1.4023,-0.34801,0.55847,-0.52134,0.33457,-3.2572,-0.77474,-0.20863,1.6808,-0.85499,-0.064676,0.70789,-1.8218,0.89736,-0.010291,-0.030834,-0.2898,-1.1793
twitcam,0.023774,0.57115,1.4181,-0.43772,0.019653,-1.1486,0.34336,0.78297,-0.90491,-2.123,-0.74756,-1.1975,-2.1272,-0.33187,-0.04016,1.2151,-0.77261,-0.26002,-1.1739,-0.19804,-0.62477,-0.45258,0.015257,0.17573,0.065383
houston,-0.86454,1.0386,0.30597,-0.91243,-0.6128,-0.052723,-0.007816,0.084784,0.41012,-1.0049,-0.24234,0.46162,-3.3841,0.48406,1.3784,-1.0034,-0.20156,-0.27544,0.096303,0.42308,0.32782,-0.73207,0.24933,-1.3622,0.63034
accounts,1.3827,0.88035,-0.11609,-0.80768,1.4938,-1.3545,0.40064,-1.2229,-1.3139,0.62441,0.12137,0.2075,-2.9444,-0.99679,0.022551,0.56241,-0.066386,-0.63209,-0.01809,-0.30586,0.14143,-0.95853,-0.67197,-0.48559,-1.4029
ear,-0.84017,-0.34902,0.37742,1.1326,0.71168,-0.19998,0.91513,-1.0366,0.16378,0.99508,0.19178,0.97192,-3.0419,-0.88342,-0.44333,0.56899,0.26431,0.18634,0.24186,-0.29616,-0.45502,0.9024,2.0054,0.5642,-0.47548
option,0.37271,0.3081,-1.2371,0.046245,0.67748,-0.17995,0.4387,-1.1069,0.18141,-0.12171,-0.0040669,0.080019,-2.9962,0.43636,0.60081,0.74266,0.43647,-0.5039,-0.15617,-0.65193,-0.21946,-0.46512,-0.016261,0.24022,-1.1909
allow,0.41695,0.90495,-1.3357,0.22041,-0.55925,-0.78381,0.70238,-1.2627,0.58125,0.23952,-0.31017,0.073445,-3.7925,0.16904,-0.32999,0.47526,0.20769,-0.44035,1.0697,-1.2833,0.44655,0.09402,-0.17581,-0.14398,-0.74018
research,0.38054,0.56599,-0.81505,-0.52665,1.3219,-0.60271,0.98022,-1.3781,1.6391,-0.043452,0.020539,-0.067625,-3.3916,0.48226,1.0773,-0.58704,0.62386,0.81116,0.23743,-0.71056,-0.25032,-0.65448,-1.4903,0.019451,-0.44786
heading,-1.5795,0.84257,0.69586,-1.1456,-1.2274,0.39023,0.96992,-0.70535,0.44568,-0.07356,-0.24319,0.38571,-3.1449,1.051,0.65782,-0.41428,0.041651,-0.4743,-0.61286,-0.75614,-0.52196,-0.82072,0.35896,-0.64367,-0.093597
