word,dim_0,dim_1,dim_2,dim_3,dim_4,dim_5,dim_6,dim_7,dim_8,dim_9,dim_10,dim_11,dim_12,dim_13,dim_14,dim_15,dim_16,dim_17,dim_18,dim_19,dim_20,dim_21,dim_22,dim_23,dim_24,dim_25,dim_26,dim_27,dim_28,dim_29,dim_30,dim_31,dim_32,dim_33,dim_34,dim_35,dim_36,dim_37,dim_38,dim_39,dim_40,dim_41,dim_42,dim_43,dim_44,dim_45,dim_46,dim_47,dim_48,dim_49
would,0.7619,-0.29773,0.51396,-0.13303,0.24156,0.066799,-0.54084,0.2071,-0.28225,-0.11638,0.21666,0.54908,-0.36744,-0.10543,0.81567,1.1743,0.56055,-0.3345,0.099767,-0.87465,0.12229,-0.18532,0.086783,-0.36343,0.008002,-2.2268,-0.20079,-0.10313,0.24318,-0.39819,3.7136,0.59088,-1.1013,-0.25292,0.0057067,-0.60475,0.35965,-0.059581,-0.029059,-0.3989,-0.52631,0.12436,0.13609,0.12699,-0.23032,-0.044567,-0.6545,0.43088,-0.22768,0.4026
first,-0.14168,0.41108,-0.31227,0.16633,0.26124,0.45708,-1.2001,0.014923,-0.22779,-0.16937,0.34633,-0.12419,-0.65711,0.29226,0.62407,-0.57916,-0.33947,-0.22046,-1.4832,0.28958,0.081396,-0.21696,0.0056613,-0.054199,0.098504,-1.5874,-0.22867,-0.62957,-0.39542,-0.080841,3.5949,-0.16872,-0.39024,0.026912,0.52646,-0.022844,0.63289,0.62702,-0.22171,-0.45045,-0.14998,-0.27723,-0.46658,-0.44268,-0.43691,0.38455,0.1369,-0.25424,0.017821,-0.1489
year,-0.098793,0.26983,0.35304,-0.10727,-0.015183,0.053398,-1.0824,-0.53005,0.0095416,0.070428,-0.08925,-0.62666,-0.52662,-0.56571,1.8044,0.01686,-0.44871,-0.04146,-1.1136,0.17488,0.49561,-0.38238,0.30185,-0.70675,-0.35891,-1.5164,-0.024403,-0.54107,-0.36163,0.52803,3.6553,0.71214,-0.16995,0.36368,0.3399,-0.48186,0.10936,0.61428,0.15697,-0.70716,-1.2359,-0.014258,0.095588,-0.30634,-0.49741,-0.049394,-0.16697,0.11972,-0.37511,0.098348
people,0.95281,-0.20608,0.55618,-0.46323,0.73354,0.029137,-0.19367,-0.090066,-0.22958,-0.19058,-0.34857,-1.0231,0.743,-0.5489,0.88484,-0.14051,0.0040139,0.58448,0.10767,-0.44657,-0.43205,0.9868,0.78288,0.51513,0.85788,-1.7713,-0.88259,-0.59728,0.084934,-0.48112,3.9678,0.8893,-0.27064,-0.44094,-0.26213,0.085597,0.022099,-0.58376,0.10908,0.77973,-0.95447,0.40482,0.8941,0.65251,0.39858,0.20884,-1.3281,-0.10882,-0.22822,-0.46303
government,0.38797,-1.0825,0.45025,-0.23341,0.086307,-0.25721,-0.18281,-0.10037,-0.50099,-0.58361,-0.052635,-0.14224,0.0090217,-0.38308,0.18503,0.42444,0.10611,-0.1487,1.0801,0.065757,0.64552,0.1908,-0.14561,-0.87237,-0.35568,-2.435,0.28428,-0.33436,-0.56139,0.91404,4.0129,0.072234,-1.2478,-0.36592,-0.50236,0.011731,-0.27409,-0.50842,-0.2584,-0.096172,-0.67109,0.40226,0.27912,-0.37317,-0.45049,-0.30662,-1.6426,1.1936,0.65343,-0.76293
years,0.16962,0.4344,-0.042106,-0.63324,-0.1278,0.53668,-1.0662,-0.32629,-0.50079,0.10247,-0.021968,-0.35105,-0.64153,-0.42454,1.3836,-0.13543,-0.24754,0.22156,-0.65563,0.44424,0.17017,0.35816,0.56379,-0.48044,-0.14765,-1.629,-0.31308,-0.47217,0.02659,0.47603,3.4619,0.12069,-0.045344,-0.47303,0.28569,-0.077584,-0.16447,0.7181,0.2617,-0.16841,-1.245,-0.076188,0.17493,0.24507,-0.63801,-0.21096,-0.49918,-0.50108,-0.7704,-0.32234
three,0.40545,0.43805,0.36237,0.25683,0.38254,0.68255,-0.97853,0.12741,-0.46129,-0.54809,-0.35384,-0.56697,-0.65756,0.50184,0.53248,-0.77956,-0.089944,-0.37572,-1.1097,-0.30734,-0.022657,0.11632,0.67704,-0.051499,-0.59719,-1.02,0.24289,-0.60216,-0.35183,-0.54053,3.9844,0.41521,0.040419,0.26909,1.1193,0.52924,0.37308,0.28924,-0.14714,0.23566,-0.72709,0.053276,0.45373,0.20374,-0.13384,0.015313,-0.22037,-0.15662,-0.30289,-0.77536
city,0.43945,0.43268,-0.36654,0.27781,0.062932,-0.80201,-0.93041,0.016388,-0.5503,-0.16278,-0.40351,-1.3975,0.32079,-0.88954,-0.18853,0.11516,0.045326,0.83002,-0.87595,0.77653,0.55948,0.074721,-0.84672,0.4098,-0.59774,-2.062,-0.15894,0.57979,0.2827,-1.0213,3.2488,0.50029,0.11559,-1.1707,0.19016,0.36888,-0.042018,0.028234,0.54125,0.8489,-0.66711,0.60799,0.23787,-0.65378,-0.7055,0.5165,-1.078,-0.71524,0.48402,-0.3256
country,-0.13531,0.15485,-0.07309,0.034013,-0.054457,-0.20541,-0.60086,-0.22407,0.42615,0.0418,0.1217,-0.55817,-0.08953,0.0089426,0.59164,0.34329,0.64798,0.30052,0.48494,0.16524,-0.073664,0.31182,-0.083803,0.27026,0.10724,-1.7704,-0.36235,-0.15811,0.060038,0.67873,4.0124,0.43091,-0.26325,0.0561,-0.40052,-0.088487,-0.55339,-0.17892,-0.57372,-0.19628,-1.1624,0.12145,0.55842,-0.6194,-0.20974,0.49895,-1.0743,-0.028168,-0.18904,-0.6769
four,0.33375,0.44809,0.54759,0.21497,0.32637,0.70326,-0.95872,0.057798,-0.43454,-0.55322,-0.40482,-0.65793,-0.75076,0.58097,0.51968,-0.86607,-0.10026,-0.11609,-1.2668,-0.46131,-0.10421,0.13894,0.70448,-0.0040651,-0.56479,-0.99797,0.30126,-0.53745,-0.42073,-0.49521,3.9051,0.43253,0.017059,0.31489,1.2546,0.52463,0.46232,0.29622,-0.23879,0.12913,-0.75519,-0.065684,0.52592,0.20047,-0.15982,0.18293,-0.29966,-0.1926,-0.30174,-0.80437
back,0.0046218,-0.25678,0.3532,-0.82697,0.099033,-0.27524,-1.2297,0.37345,-0.44635,-0.36967,-0.12421,0.20837,-1.1801,0.045587,0.47457,0.40557,0.046003,-0.62809,-0.70816,-0.42283,-0.24011,0.44871,0.14759,-0.17298,0.31948,-2.0483,0.43036,0.44567,0.52804,-0.72942,3.5192,0.72008,-0.19861,0.42855,0.029422,0.15914,-0.16062,0.3479,0.35462,-0.53138,-0.28746,0.35596,-0.083996,-0.0064132,-0.32994,0.055304,0.50614,-0.80837,-0.33017,-0.62638
south,-0.039674,0.47097,-0.31102,0.38088,-0.59254,-0.38231,-0.68876,0.15252,0.46303,-0.9099,-0.38665,-0.82695,0.035915,-0.93486,-0.82315,0.37535,0.93198,0.19098,-1.01,0.59531,-0.1818,0.34694,0.096477,0.48152,0.19392,-1.9725,0.77759,0.16259,-0.68996,-0.12239,3.5077,-0.23937,0.12591,0.22983,0.5462,-0.74276,-0.30525,-0.19996,-0.77648,-0.13621,-0.54883,0.068693,0.88314,-1.0529,0.18614,0.88575,-0.43661,-0.49549,-0.10562,-0.77821
including,0.48518,0.56214,0.064657,0.44652,-0.29881,0.91376,-0.84552,-0.93462,0.093077,0.05312,-0.25653,-0.16388,-0.084874,-0.084588,0.28105,-0.55097,-0.022583,0.078236,-0.32487,-0.28224,0.51683,0.22509,0.20189,-0.21816,-0.81741,-1.0254,-0.27715,-0.80942,-0.61824,-0.22689,3.47,0.17391,0.13567,-0.41534,0.61925,0.50792,-0.08481,-0.10788,-0.23281,0.50943,-0.37383,0.59976,0.55221,-0.078815,0.47338,0.070097,-0.8109,0.0085293,-0.43153,-0.40666
international,-0.1666,0.68994,-0.76138,0.55857,-0.28302,-1.0075,-0.35157,-0.46751,0.99938,0.21826,0.87406,0.22722,-1.0739,0.32807,0.14755,-0.10786,0.57761,0.065902,-0.73381,-0.29534,1.1916,0.70041,-0.77054,0.04179,-0.84269,-1.6856,0.33451,-0.6543,-1.2509,0.34069,3.3936,0.81089,-0.48503,-0.85079,-0.49627,-0.45548,-0.17286,-0.10367,-0.28043,0.035118,0.09691,0.0286,1.0817,-0.47067,-0.0069481,0.48139,-0.34924,0.91937,-0.082162,-0.46327
officials,0.99818,-0.44131,0.39641,0.36621,-0.23042,-0.84895,-0.82396,0.63432,0.078578,-1.0304,-0.11953,-0.44399,-0.19639,-0.080367,0.5077,0.38944,-0.32942,-0.12153,0.083004,-0.62174,0.16542,0.3213,0.31803,-0.46028,-0.4711,-2.6599,0.14648,0.33607,-0.83768,-0.20686,3.1996,0.23469,-0.65633,-1.075,0.047687,-0.20781,-0.0088134,-0.47237,-0.07229,0.4267,-0.81364,0.49956,0.70998,0.2002,0.68304,-0.30359,-1.1561,1.613,-0.043788,-0.46821
high,-0.65758,1.2502,0.19082,-0.6742,-0.10125,-0.046932,-0.27648,-0.48253,0.39254,0.3704,-0.24111,-0.6429,0.27676,-0.62422,-0.52203,0.29799,-0.1996,0.36884,-0.81686,-0.48865,0.11511,0.066147,-0.38797,-0.18239,-0.5759,-1.8776,0.61045,0.43434,-0.090497,0.17718,3.4808,0.026707,0.60486,-0.7885,1.248,-0.32864,-0.15526,0.12868,0.65885,-0.27297,-0.69856,0.46953,0.19621,0.40444,0.061996,0.046055,0.72038,-0.45636,-0.19089,0.099351
told,0.37633,0.058652,0.17005,0.46863,0.95799,-0.82027,-0.83683,0.53315,-0.22664,-1.1505,0.11026,0.22662,-0.8068,0.12202,0.91294,0.39002,-0.0051597,0.11369,0.45456,-0.11737,-0.074381,1.5088,0.46655,0.04601,0.68558,-2.2872,-0.081728,0.5556,-1.1222,-0.042912,2.5651,-0.12145,-0.42656,-0.11731,-0.51801,-0.51683,0.58125,-0.20616,0.67072,0.8228,0.21314,1.3662,-0.18691,-0.78497,0.73258,-0.51869,-1.5369,0.84913,0.51594,0.87639
house,0.60137,0.28521,-0.032038,-0.43026,0.74806,0.26223,-0.97361,0.078581,-0.57588,-1.188,-1.8507,-0.24887,0.055549,0.0086155,0.067951,0.40554,-0.073998,-0.21318,0.37167,-0.71791,1.2234,0.35546,-0.41537,-0.21931,-0.39661,-1.7831,-0.41507,0.29533,-0.41254,0.020096,2.7425,-0.9926,-0.71033,-0.46813,0.28265,-0.077639,0.3041,-0.06644,0.3951,-0.70747,-0.38894,0.23158,-0.49508,0.14612,-0.02314,0.56389,-0.86188,-1.0278,0.039922,0.20018
another,0.50759,0.26321,0.19638,0.18407,0.90792,0.45267,-0.54491,0.41816,0.039569,0.061854,-0.24574,-0.38502,-0.39649,0.32165,0.59611,-0.3997,-0.015734,0.074218,-0.83148,-0.019284,-0.21331,0.12873,-0.2541,0.079348,0.12588,-2.1294,-0.29092,0.044597,0.27354,-0.037492,3.458,-0.34642,-0.32803,0.17566,0.22467,0.08987,0.24528,0.070129,0.2165,-0.44313,0.02516,0.40817,-0.33533,0.0067758,0.11499,-0.15701,-0.085219,0.018568,0.26125,0.015387
thursday,0.34342,-0.0021396,0.13418,0.78442,0.19498,-0.77762,-0.9624,0.62947,-0.41662,-0.72578,-0.49985,-1.2452,-0.55666,0.14902,0.89182,0.18417,-0.97099,-0.9284,-0.84065,-0.1079,0.66416,0.78649,0.080791,-0.71197,-0.18755,-1.9347,0.80128,0.59395,-0.74196,0.35172,3.2666,0.23248,-0.45759,0.083574,-0.15469,-0.74315,0.42618,-0.12616,0.10464,0.078468,-0.40594,0.59607,0.18638,-0.58798,0.78014,0.23112,-0.66715,0.89743,0.35014,-0.3778
north,0.30059,0.55598,-0.040589,0.020289,-0.57624,-0.24619,-0.85377,0.37889,0.46139,-1.1689,-0.52015,-0.78857,0.048843,-0.99449,-1.0834,0.6583,0.71529,0.48547,-0.90564,0.6705,0.27951,0.085327,0.094497,0.52371,0.074894,-2.1416,0.58129,0.57789,-0.065808,-0.43003,3.418,-0.63184,0.11221,-0.25144,0.5589,-0.82333,-0.39141,-0.45547,-0.75951,0.22251,-0.52216,-0.25439,0.67537,-1.017,-0.134,0.641,-0.33782,-0.10768,-0.61803,-0.38883
security,0.52125,-0.0033878,0.81485,0.049424,0.50668,-0.95911,0.31231,-0.45548,0.52073,-1.5376,-0.44826,-0.36463,-0.80871,0.25262,-0.16081,0.5605,-0.01623,-0.23822,0.83667,-0.031576,0.45841,0.70073,-0.44999,-0.563,-0.63356,-2.0531,0.55847,0.040415,0.15785,0.53227,3.4865,0.24928,-0.91953,-1.1876,-0.18295,0.76939,0.29916,-0.72577,-0.65898,0.39304,-0.3436,0.36399,0.85622,-0.3089,0.21141,-0.32681,-0.56317,1.2145,0.18532,0.06321
season,-1.0386,0.5232,-0.73141,0.22199,-0.35843,-0.16097,-1.7882,0.34459,-0.48096,-0.15844,0.2141,0.10096,-1.5051,-0.023355,1.7033,-0.48881,0.03145,-0.16398,-2.2933,0.33231,-0.79011,-0.8724,0.86738,-0.06443,-0.39736,-0.49269,0.091015,0.16807,0.7277,-0.17243,3.0362,1.6277,0.23501,-0.10369,0.60074,0.71933,0.44086,1.2389,0.15929,-1.2127,-1.2541,-0.7432,-1.0108,-0.36778,-0.8631,0.79232,0.63128,0.18791,-0.024801,0.42411
early,0.35948,-0.16637,-0.30288,-0.55095,-0.49135,0.048866,-1.6003,0.19451,-0.80288,0.157,0.14782,-0.45813,-0.30852,0.03055,0.38079,0.16768,-0.74477,-0.88759,-1.1255,0.28654,0.37413,-0.053585,0.019005,-0.30474,0.30998,-1.3004,-0.56797,-0.50119,0.031763,0.58832,3.692,-0.56015,-0.043986,-0.4513,0.49902,-0.13698,0.033691,0.40458,-0.16825,0.033614,-0.66019,-0.070503,-0.39145,-0.11031,0.27384,0.25301,0.3471,-0.31089,-0.32557,-0.51921
around,0.77604,0.22584,0.45044,-0.70814,0.14959,-0.76201,-0.59769,-0.37123,-0.49107,-0.81828,-0.61185,-0.96962,-0.02998,-0.26391,0.69513,0.38294,0.067117,0.42452,-1.2652,-0.54603,0.65743,0.30119,0.63752,0.40919,0.29723,-1.1203,0.1117,0.49074,0.43661,-0.40743,3.6976,0.3907,0.10636,-0.035762,-0.4579,0.19091,-0.38336,0.060834,0.20348,0.60765,-0.19867,0.21351,0.31352,0.472,-0.23803,-0.12381,0.43955,-0.97437,-0.78565,-0.8177
however,0.43833,-0.15784,-0.12393,-0.11901,0.14659,0.35156,-0.45865,0.18337,-0.63247,-0.11755,0.59893,0.346,-0.46169,-0.58537,0.41869,0.53485,-0.056069,-0.42462,-0.45327,-0.32637,-0.16922,-0.31311,0.44623,-0.13493,0.36838,-1.5683,-0.30225,-0.093721,-0.04807,0.37704,3.4781,-0.27603,0.064955,-0.81474,0.1966,-0.29855,0.31998,0.24164,-0.5128,-0.10399,-0.11611,0.025575,-0.29849,-0.0033247,-0.20456,-0.079099,-0.38462,0.12374,0.14642,-0.15032
family,1.1636,0.90386,-0.74277,0.49272,1.88,0.9285,-1.0429,0.01343,-0.51903,-0.68762,0.0083396,0.50754,0.51792,-0.75577,1.0241,0.1761,-0.91889,0.21455,0.19232,0.19562,0.0044282,0.40701,-0.3812,0.51286,0.14278,-1.4652,-0.55194,-0.8362,0.41877,0.40793,2.5335,-0.20787,0.088761,-0.10973,0.52074,0.026259,-0.65515,-0.1425,0.44071,-0.047796,-0.23276,0.17212,-0.16844,0.60122,0.47156,0.11336,-0.96031,-1.3412,-0.021467,0.049217
top,-0.66508,0.78362,0.74452,0.68549,0.648,-0.52191,-0.52026,0.2572,-0.13776,-0.66091,-0.43022,-0.30704,-0.88624,1.4324,0.31653,-0.44287,0.30271,-0.013176,-0.365,-0.62942,-0.0053265,-0.1942,0.6366,0.3765,-0.98731,-1.6796,-0.31415,-0.054224,-0.90695,0.17036,3.4054,0.38219,0.13579,0.38695,0.30863,0.23611,-0.4158,0.66128,-0.022794,-1.0259,0.036685,0.52651,0.17759,-0.24752,0.50828,0.18699,-0.13874,0.25994,0.0064557,-0.19891
university,-1.1082,1.2916,-0.78751,-0.45955,-0.40788,-0.53387,-0.91468,-0.48577,-0.31858,-0.33494,0.50093,-0.50392,0.029449,-1.1748,-0.47245,0.27201,-0.11093,1.0152,-1.0427,1.4929,0.70221,0.72141,-0.10898,-0.0019169,-0.076224,-2.5398,0.12008,-0.86093,-2.122,-0.90913,2.6149,-0.049744,-0.096555,-2.2488,-0.060325,0.0083282,-0.10552,1.2435,1.7389,0.66512,-0.11836,-0.061496,-0.2916,0.37698,-0.097014,0.48428,0.3657,0.26268,-0.54315,0.035944
known,0.60235,0.55267,-0.64274,0.14886,0.092301,0.3393,-0.48568,-0.6582,-0.18414,0.17073,0.51478,0.3889,0.27442,-0.09793,-0.16511,0.0063649,0.37423,0.63685,-0.57512,0.3156,-0.50853,-0.43966,0.28977,0.6577,-0.27955,-1.5924,-1.1654,-0.21556,-0.37168,0.028765,3.1339,-1.249,-0.1385,-0.59966,0.37827,0.17479,0.025081,-0.16408,-0.2026,0.29866,0.020548,0.34711,-0.36064,0.1478,0.39642,-0.15146,-0.54655,-0.81723,0.025965,-0.053947
month,0.46281,0.00041144,0.32206,0.052119,0.2574,-0.20206,-0.95958,0.080315,0.07142,-0.18973,-0.29623,-1.0933,-0.39617,-0.19416,1.6158,0.20214,-0.89728,-0.62867,-0.7007,0.19352,0.85183,0.11041,0.15913,-0.56004,-0.62643,-1.7449,0.51275,0.025222,-0.40847,0.80248,3.42,0.31542,-0.3881,0.46212,0.28418,-0.60805,0.27313,0.033328,0.02098,-0.49465,-0.86607,0.31712,-0.0041658,-0.38582,0.071257,-0.26801,-0.21712,0.61648,-0.23407,-0.13272
found,0.95528,-0.01161,0.074285,0.12251,0.70818,0.74145,-0.81545,-0.23535,0.53243,-0.32104,0.32033,-0.24647,0.27388,-0.21989,0.64789,0.16764,-0.082653,-0.19715,-0.52546,-0.30905,-0.58658,0.29096,0.86158,0.13299,0.11463,-1.6544,-0.65505,0.61209,-0.10833,-0.39034,2.9539,-1.21,0.35207,-0.97542,0.45638,0.33947,0.13437,0.32874,0.58773,0.1244,-0.027672,0.30578,0.67546,0.62237,0.5234,-0.020469,-0.42501,-0.26861,0.27789,-0.71997
official,-0.21603,0.33854,-0.045154,0.7077,0.52752,-0.77189,-0.37859,0.01496,0.44067,-1.0734,0.25733,-0.27296,-0.26133,0.077519,0.89039,-0.18416,-0.73166,-0.11566,0.28548,0.30915,0.26044,0.11257,0.25141,-0.28005,-0.092009,-2.1169,-0.31785,0.13818,-1.063,0.40867,3.2536,-0.37485,-0.47284,-0.21328,-0.26352,0.1336,0.61055,-0.5932,-0.55243,0.4227,-0.12348,0.39028,-0.088546,-0.75717,0.21848,-0.60385,-0.9513,1.5525,0.65175,-0.43781
based,0.44515,0.14297,-0.31849,0.93227,0.15758,0.10426,-0.86868,-1.0764,0.55314,0.30039,0.50631,0.014296,-0.31297,-0.28746,-0.57734,0.033763,-0.22912,0.45513,-0.57208,0.12396,0.76135,0.20192,-0.31061,0.27998,-1.039,-1.6102,-0.96987,-0.50075,-0.68246,-0.13174,3.2179,-0.80151,-0.12665,-0.67749,0.35736,-0.91313,-0.55365,-0.070563,0.20915,0.11336,0.66136,-0.087329,0.41196,-0.080373,-0.061894,0.38201,-0.21459,0.86345,-0.11521,0.54568
third,-0.29329,0.24741,0.38114,0.66685,0.828,0.60294,-0.91257,0.52368,0.14178,-0.30512,0.14389,-0.6499,-1.1039,0.2591,0.51173,-0.69929,-0.04061,-0.87886,-1.2485,0.19964,-0.25412,-0.58236,-0.31967,0.041768,0.088083,-1.3633,0.26619,-0.66122,-0.053167,-0.09926,3.3406,0.24938,0.11115,0.66586,0.4321,-0.30615,0.44014,0.80759,0.017952,-0.51661,-0.25567,-0.26593,-0.16342,-0.53087,-0.62928,0.29726,0.28643,-0.36534,0.26795,-0.17126
right,-0.31905,-0.09507,-0.049458,-0.45461,0.81447,0.5573,-0.37148,0.22142,-0.18506,-0.058731,0.19556,0.25934,-0.92544,0.60346,-0.11877,0.33422,0.5861,-0.93036,0.057848,-0.3782,-1.1279,0.11801,-0.26057,0.043562,0.25741,-2.2502,0.14761,0.43313,0.6941,-0.94411,3.5944,0.47921,-0.61145,0.16474,-0.68397,-0.091051,0.39399,0.1769,0.33553,-0.13054,0.12659,0.26288,-0.47432,0.79129,-0.75714,-0.117,-0.093022,-0.23004,0.081364,-0.035147
countries,0.56599,0.26921,-0.050632,-0.26219,-0.078157,0.042565,0.12923,-0.50756,0.47105,0.026793,0.67335,0.076484,0.27775,0.37278,0.5604,0.27349,0.78066,-0.53707,0.68602,-0.0069331,0.10441,-0.28288,1.049,0.22643,0.038323,-1.2473,0.60024,-0.59904,-0.51407,0.39366,4.2808,1.3038,0.078842,-0.27142,-0.36369,-0.62316,-0.65936,0.2368,-1.4842,0.4032,-1.1575,-0.28149,2.1609,-0.61081,0.081813,0.87071,-1.1518,0.90462,-0.57503,-0.82891
business,0.023693,0.13316,0.023131,0.49833,0.026874,-0.43252,-1.1364,-0.82001,0.22388,-0.032119,-0.069651,0.39857,-0.58275,0.095008,-0.023643,0.23237,-0.42441,0.65709,0.57802,-0.51602,1.8253,0.12951,-0.61773,0.39281,-0.35754,-1.6778,-0.45201,-0.47075,0.19487,0.35828,3.6034,0.32865,0.47288,-0.33787,-0.46234,-0.51628,-1.3755,0.70789,0.4648,-0.16186,-0.0961,-0.28523,0.30047,0.50902,0.081356,-0.015639,-0.51021,0.34585,0.24201,0.82237
months,0.66834,-0.21732,0.37639,-0.47502,-0.023343,0.30418,-0.85643,0.28393,-0.10913,-0.10303,-0.078653,-0.72692,-0.7649,-0.23649,1.5266,0.22007,-0.84737,-0.50695,-0.54568,0.20532,0.61807,0.37876,0.73665,-0.63081,-0.4291,-1.4922,0.42842,-0.025046,0.25997,0.94781,3.4953,0.2549,-0.17717,-0.13937,0.26627,-0.23262,-0.086835,0.36772,0.13767,-0.50294,-1.2415,0.093426,0.028504,-0.153,-0.10935,-0.51973,-0.12963,-0.01076,-0.475,-0.082577
think,-0.1166,-0.010887,0.044444,-0.39349,0.77743,-0.35689,-0.42073,-0.12338,-0.58818,0.3166,-0.3084,0.4558,-0.83117,0.0231,0.88091,0.71288,1.1223,0.13017,0.017489,-0.82336,-0.65853,0.63098,0.34655,0.25429,0.9928,-2.2232,-1.1191,0.26796,0.71472,-0.76952,3.0569,0.75397,-0.34325,-0.60568,-0.4142,-0.8,-0.17019,0.35416,0.29577,-0.51743,-0.48561,0.0161,0.10267,0.52783,0.32212,0.26552,-0.23728,0.44057,0.0064518,1.2454
service,0.13409,0.68926,0.45086,0.052204,-0.30604,-0.5801,-1.128,-0.030769,1.0378,-1.3936,0.18124,0.38504,0.27184,-0.1356,-0.19343,-0.40629,-1.5941,0.33679,-0.035998,-0.10354,1.0248,-0.036901,-0.58559,0.51458,-0.1289,-1.6363,0.042835,-0.71684,0.23651,0.34811,3.5559,0.38361,0.087215,-0.49308,-0.24096,0.24726,0.59281,-0.37768,-0.23602,0.2935,0.93289,-0.24058,0.24401,0.23104,-0.62022,-0.16006,-0.40435,0.29695,-0.006097,0.94897
children,0.53888,0.50514,-0.045316,-1.3606,0.6785,1.4193,-0.8518,-0.66912,0.45732,-0.15827,-0.037624,-0.20835,0.54524,-0.64056,1.2267,-0.26497,-0.45656,0.27901,0.3855,0.14437,0.0026343,1.7084,0.56702,0.60751,0.43173,-1.1765,-0.45223,-0.98725,0.19464,-0.64467,3.1015,1.0881,-0.17687,-0.81104,0.28289,0.65915,0.38012,-0.27123,0.6249,-0.054019,-0.6409,0.10671,0.79348,0.10989,0.66735,-0.065263,-0.63952,-1.249,-0.034498,0.18429
office,0.25481,0.054909,0.32375,0.21429,0.48137,-0.75424,-0.78087,-0.29439,0.024477,-1.2903,-0.69475,-0.33993,-0.3687,-0.0011398,0.51126,0.27465,-0.86396,0.070632,0.62489,-0.043111,1.0666,0.24161,-0.536,-0.31515,-0.74103,-2.104,0.024429,0.43665,-0.68109,0.19043,2.8783,-0.25616,-0.56676,-1.1168,-0.29901,0.29706,0.40172,0.21947,0.64514,-0.18449,-0.28797,0.59847,-0.27569,-0.0049195,-0.7356,-0.15342,-0.99148,-0.045975,0.72543,0.41688
following,0.39504,0.17819,-0.58475,0.053913,-0.3867,0.27252,-0.57967,0.41618,-0.40824,-0.38266,0.19381,-0.2418,-0.86562,-0.41553,0.67027,-0.10716,-0.77751,-0.92425,-0.88645,0.37344,0.47515,-0.38801,0.27171,-0.22085,-0.34034,-1.2374,-0.0046157,-0.27729,-0.26562,0.91297,3.611,-0.16625,-0.20335,-0.59424,0.27874,0.1012,0.52864,-0.25221,-0.5081,-0.14184,-0.43874,-0.25075,-0.61961,-0.3705,-0.26175,0.11614,0.0738,0.2144,0.23219,-0.60179
expected,0.75231,0.016437,0.90861,0.15883,0.154,-0.58219,-0.66016,0.068855,-0.10327,-0.1327,0.13106,-0.57297,-0.026791,-0.13023,0.94727,1.0802,-0.16297,-0.77721,-0.38655,-0.83849,0.45062,-0.40128,0.11282,-0.8071,-0.03594,-1.1959,0.39782,-0.11803,-0.56312,0.6788,3.6006,0.94536,-0.34436,-0.026178,0.30608,-1.0147,0.17467,0.24028,0.048675,-0.48288,-0.95961,0.41725,0.036905,-0.59706,-0.13813,0.083673,-0.17355,0.76521,-0.28484,0.31663
washington,-0.5102,1.0375,0.10136,0.00097878,-0.067061,-0.496,-1.2587,0.061059,-0.090142,-0.68128,-1.2128,-0.13272,-0.37778,0.091412,-0.065661,0.2295,-0.10412,-0.70233,0.093941,0.47418,0.66055,0.34302,0.0033139,-0.26057,-0.29605,-2.5996,0.52698,0.22915,0.25215,-0.49094,2.3924,-0.0042369,-0.26823,-1.2988,-0.3363,-0.66419,-0.55199,-0.0021881,-0.016903,0.11451,-0.40708,0.33462,0.56522,-0.56362,0.17956,1.0133,-0.5184,0.72511,-0.77215,0.69085
reported,0.59565,-0.2463,0.74569,0.57129,-0.33117,-0.14444,-1.129,0.10809,0.56581,-0.66281,0.43592,-1.1047,-0.14421,-0.61319,0.8683,-0.18744,-1.4914,-0.23158,-0.82152,0.58674,0.32855,0.58226,0.93081,-0.056042,-0.13685,-1.4768,-0.60387,0.3935,-0.47556,0.66623,3.2029,-0.45838,1.0729,-0.24952,-0.55708,-0.60695,0.15132,-0.70748,0.63341,0.66746,0.17148,0.36854,0.452,-0.44372,0.47692,-0.48214,-1.1439,1.4178,0.42049,-0.028103
without,0.28797,-0.021695,-0.083514,-0.44508,0.23014,0.34773,-0.30783,0.40452,0.11753,0.23837,0.17832,0.33098,-0.5012,0.015954,0.68571,0.27638,-0.0050638,-0.59362,0.089435,-0.65281,0.039652,0.41947,0.26661,-0.20939,0.13286,-1.7116,0.2464,0.18052,1.0859,-0.29591,3.6339,0.49238,-0.57634,-0.62998,-0.0017535,0.36101,0.50483,0.25662,-0.12368,-0.059845,0.12656,0.036029,0.21609,0.68576,-0.38499,-0.14619,-0.25034,0.30878,0.070218,-0.21913
white,-0.68652,0.80125,-0.6124,-0.1512,0.997,0.81749,-1.2089,-1.0221,-0.94054,-1.2689,-0.68195,-0.12212,0.6122,0.045025,-0.10808,0.12482,-0.17278,-0.45383,-0.37728,-1.4081,-0.42975,0.31746,0.61391,-0.76399,-0.75504,-1.5605,-0.14924,1.2023,0.36776,-0.49137,2.6151,-0.37237,-0.80641,-0.56119,0.028241,-0.20089,-0.36429,-0.51476,-0.23074,-0.72258,-0.086035,0.47341,-0.035288,-0.04892,0.85295,-0.25883,-0.48159,-0.79552,-0.12247,-0.098168
history,-0.82643,1.0991,-1.1004,0.078016,0.15962,0.18136,-0.93557,-0.19073,0.026341,-0.0845,-0.36609,-0.055015,-0.55747,0.0030452,0.76027,-0.73181,-0.082447,0.069244,-0.64787,0.88449,-0.33906,0.0071404,-0.58207,-0.017598,0.49074,-2.0892,-1.688,-0.63746,0.13742,0.21187,2.8562,-0.43521,0.14753,-0.81421,-0.10177,0.38747,-0.70638,0.67562,-0.095008,-0.16136,-0.64184,-0.31948,0.18765,0.7603,-0.62022,0.77173,0.38342,0.45312,-0.37188,-0.65143
money,0.59784,-0.057026,0.97746,-0.58504,0.37386,0.036373,-0.67548,-0.090134,0.33473,0.4612,-0.70586,0.88032,-0.1532,-0.59041,1.0221,-0.20335,0.80479,0.23907,0.51985,-0.34106,1.1747,-0.44956,0.19799,-0.25137,-0.59436,-2.2372,-0.15901,-0.39896,0.4188,-0.67741,3.3433,0.98779,-0.023405,0.14755,-0.46205,0.34545,-0.77937,0.32595,0.6553,-1.0528,-0.19255,0.22296,0.2518,0.71563,-0.47951,-0.95866,-0.79283,0.20869,0.16084,0.24745
east,0.2081,0.81902,-0.11074,0.037283,-0.010341,-0.69268,-0.59344,0.26199,0.10483,-1.1438,-0.64328,-0.80652,-0.21756,-0.61047,-1.0035,0.482,1.0123,0.26508,-0.82392,0.9655,0.30704,-0.084984,-0.2956,0.78097,0.028046,-1.6362,0.44602,0.32454,-0.18218,-0.13896,3.2672,-0.2704,0.34194,-0.41417,0.25827,-0.55331,-0.61529,-0.38875,-0.46946,0.52265,-0.71556,-0.088732,0.49208,-0.99736,-0.65315,1.0777,-0.13535,-0.45836,-0.3076,-0.59898
town,0.70336,0.30795,-0.63547,-0.41419,0.23853,-0.43643,-1.1645,0.47236,-0.51754,-0.79783,-0.61695,-1.6864,0.53039,-1.6934,-0.2141,0.34471,0.81328,0.88944,-0.83134,0.75991,0.30941,0.51458,-0.4762,1.1938,-0.26916,-1.4365,-0.3018,0.87186,0.43065,-0.39923,2.9028,-0.25505,-0.0069049,-0.20207,0.97326,0.31458,-0.27545,-0.27267,0.35836,0.55632,-0.22308,0.50716,-0.16774,-0.78545,-0.70137,0.097668,-0.65205,-0.79044,0.48599,-0.7806
played,-1.0723,0.53651,-1.0989,0.099792,-0.30336,0.35248,-0.9089,0.60279,-1.2807,0.10903,0.30724,0.48479,-1.3016,0.050411,0.57312,-0.39032,0.48515,0.38117,-1.4408,0.25317,-0.64775,0.69734,0.74485,0.72023,-0.10168,-1.0451,0.1497,-0.085311,-0.32822,-0.81971,2.7359,0.57394,0.65671,-0.37771,0.80289,0.59998,0.51306,0.5735,-0.29338,-0.67547,-0.33916,0.2325,-0.42794,-0.5166,-0.22695,0.58054,-0.15595,-0.65123,-0.4665,0.37444
death,0.49089,0.32534,0.0014417,-0.84331,0.65698,1.0089,0.2476,0.68178,0.13553,0.18069,-0.050148,-0.12704,-0.48039,-0.55024,1.5247,-0.43059,-0.88914,-0.58294,-0.7469,0.58781,-0.081227,0.48804,0.29895,-0.40216,0.31343,-2.4331,-0.83064,-0.77042,0.29021,0.56141,2.3164,-0.71611,-0.55002,-0.6197,0.16241,0.084582,0.95919,-0.71344,0.47596,0.30941,-0.85852,0.54195,-0.25035,-0.18671,0.45843,0.039168,-0.56138,-1.1905,0.21134,-0.59986
least,0.87362,-0.13265,1.0862,-0.43257,0.64635,0.24467,-0.2281,0.10549,-0.35306,0.024557,-0.59133,-1.1552,0.24498,-0.23113,1.0782,-0.32882,0.022627,0.25759,-0.87877,-0.37024,-0.31412,0.41096,0.75482,0.053854,0.0042464,-1.1416,-0.1911,-0.2593,0.35174,0.16053,3.7077,0.22118,0.0044867,-0.21921,0.61945,0.013221,0.38704,-0.1312,-0.061636,0.14086,-0.71638,0.18455,0.79871,0.52289,-0.20435,0.1608,-0.7946,0.42844,-0.38032,-0.17093
forces,1.0204,-1.3378,0.63887,-0.48347,0.40663,-0.85173,0.56892,0.68685,-0.76027,-1.5592,0.49114,-0.5433,-0.73425,-0.32145,-1.0561,-0.068135,0.3751,-0.1081,-0.58983,0.11871,-0.26555,0.11674,0.36283,-0.62549,-0.70993,-1.7815,-0.29346,-0.75352,0.66197,0.83132,3.5111,-0.028408,-1.2299,-0.68505,-0.12387,0.88223,-0.63022,-0.77339,-1.2239,0.7322,0.033309,0.30572,0.29944,-1.0766,0.32079,-0.82888,-0.50164,0.012623,-0.81966,-0.47527
know,0.28328,0.12887,0.29861,-0.23238,0.88263,-0.30814,-0.61148,0.37254,-0.40449,0.17351,-0.13958,0.67868,-0.55673,-0.13453,1.1441,0.53457,0.59148,0.19083,0.25406,-0.71581,-0.87951,0.72879,0.67054,0.62866,1.0034,-2.2327,-1.194,-0.06245,0.93933,-1.1132,2.926,0.59809,-0.51255,-0.49886,-0.016524,-0.20697,-0.059229,-0.0072689,0.53314,-0.14621,-0.21417,0.24102,0.21648,0.73351,0.43582,0.045278,-0.25489,0.15273,-0.13088,0.89397
french,0.45339,0.26154,-1.3094,-0.90162,-0.41122,-0.069015,-0.76039,0.40611,-0.87056,-0.42965,0.91374,-0.028381,-0.31879,0.17625,0.22379,-0.98918,-0.020874,-0.52391,-0.86188,-0.73082,0.1003,0.64379,-0.51221,0.47627,-0.53172,-1.6459,-0.93771,-0.28375,-0.53267,1.2579,2.8713,-0.13863,-0.79716,0.67035,-0.11338,-0.26626,-0.38983,0.49285,-0.28017,-0.25558,1.5804,0.29426,1.8829,-1.3065,0.42648,0.13532,-0.72596,0.19036,0.50769,-0.61832
earlier,0.53772,-0.17572,0.16704,0.2617,0.0095107,0.17802,-0.8192,0.023313,-0.67016,-0.18026,-0.15323,-0.70254,-0.66864,-0.28519,0.99582,0.11573,-0.94466,-0.87298,-0.77195,0.081174,0.46313,0.30321,0.34776,-0.97389,-0.011876,-1.5462,0.23966,0.18437,-0.65125,0.46257,3.2985,-0.31677,-0.067658,0.0084145,0.22632,-0.55538,0.49637,0.098167,-0.32241,-0.057772,-0.39908,0.42339,0.07051,-0.49125,0.20524,-0.068185,-0.65967,0.71609,-0.017516,-0.54233
force,0.735,-1.1339,0.34945,-0.54139,0.695,-0.41492,0.37691,0.29814,0.18529,-1.243,0.59784,-0.17409,-0.36467,0.17773,-0.86769,-0.29298,0.32072,0.29788,-1.1,-0.61693,-0.36697,0.022607,-0.52446,-0.77397,-0.70518,-1.9076,0.21335,-0.68957,0.28932,0.81051,3.337,0.072199,-1.2991,-0.69094,0.070795,0.10919,-0.026438,-0.8675,-0.56222,0.0050142,-0.13744,0.32881,0.55503,-0.8303,-0.28276,-0.041332,-0.15221,0.30297,-0.99595,0.78056
released,-0.15806,-0.19103,0.43238,0.1308,-0.1658,0.076669,-1.3808,-0.34227,0.33677,0.66352,0.61321,0.23311,-0.48095,0.52691,1.3159,-0.40253,-0.78368,-0.54847,-0.40491,0.27453,0.49518,0.3465,1.2538,-0.03604,-0.53149,-0.7298,-0.91684,-0.015769,-0.56,-0.35194,3.0607,-1.3643,-0.30953,-0.3949,0.018503,-0.0066648,1.3842,-1.2486,-0.22105,-0.90173,-0.053764,-0.44517,-0.49692,-1.2776,0.14374,-0.21402,-0.38749,-0.12621,-0.23495,0.079229
every,-0.10258,0.34166,0.075527,-0.40585,1.0674,-0.1262,-0.41272,-0.27406,0.16411,-0.18036,-0.18313,-0.63687,0.27846,-0.04277,1.164,0.073369,0.12473,0.61435,-0.70332,-0.50966,0.17384,0.27148,0.5049,0.36091,0.65378,-1.4391,-0.66319,0.24911,0.73167,-0.47294,3.574,0.71069,-0.49581,-0.18803,-0.27293,0.0079214,0.68627,-0.041216,0.020293,-0.16559,-0.23225,-0.15599,-0.34995,0.73627,-0.44422,-0.22435,-0.054164,0.049678,-0.1437,0.408
health,0.31161,0.33903,0.033922,-0.30914,-0.43078,0.3417,-0.6864,-0.83817,1.478,-0.5249,0.13326,-0.069083,0.40058,-0.35225,0.20453,0.16683,-0.56978,-0.1359,1.1439,0.15662,-0.23462,0.60111,-0.13868,-0.3787,-0.03634,-1.6429,-0.10716,-0.73417,-0.62077,0.88903,3.3969,0.88545,-0.20321,-1.1283,-0.36811,0.088206,0.055528,0.39659,1.6077,0.031832,-0.91684,0.07666,0.67848,0.64672,0.74549,0.56715,-1.0098,0.81053,0.85948,1.0404
head,-0.28054,0.30915,-0.20189,0.029534,1.1279,-0.16588,-0.34552,-0.1501,-0.10558,-1.3804,0.50196,0.34911,-1.1159,0.75248,-0.062459,0.26311,-0.014602,0.4082,-0.40946,-0.31068,-0.55742,0.19177,0.1613,-0.52347,-0.4502,-2.1395,0.017281,0.78838,-1.0661,-0.0098552,2.7098,0.13188,-0.18186,0.045039,-0.54424,0.44033,-0.13247,0.29738,1.1019,0.1861,-0.40799,0.95422,-0.59251,-0.22513,0.52367,-0.30058,-0.33182,-0.20148,0.010825,-0.15397
election,-0.45561,-0.37105,0.50038,0.3274,-0.14355,0.57692,-0.16653,0.48833,-0.77442,-0.9236,-1.0,-1.1964,-0.37898,-0.0571,0.64683,-0.064755,-0.064391,-0.84319,-0.072843,-0.43231,0.45531,-0.43908,0.89596,-0.22321,0.17108,-1.8616,-0.35014,-0.17901,-0.50529,1.2733,2.6742,0.41521,-1.8678,-1.4091,-0.52951,-0.63448,0.18292,0.32859,-0.54762,-0.83589,-1.0083,0.27858,-1.2367,-0.34469,-1.4105,0.47795,-1.1773,0.16142,1.2927,-0.27504
although,0.44634,-0.11361,-0.15065,-0.23359,0.066813,0.42265,-0.72608,-0.0072705,-0.48246,-0.062693,0.48206,0.19185,-0.16974,-0.47925,0.47812,0.44054,-0.054865,-0.23882,-0.50068,-0.3944,-0.3045,-0.17268,0.39016,0.021335,0.23584,-1.5193,-0.36432,0.052849,-0.09865,0.25971,3.337,-0.34057,0.21908,-0.80149,0.32442,-0.25646,0.3297,0.35583,-0.6193,-0.16348,-0.18945,0.15214,-0.03263,0.11957,-0.13094,-0.056938,-0.4777,-0.0057518,-0.12799,-0.06593
born,-0.7612,0.742,-0.75359,-0.36649,0.54969,0.86675,-1.0995,0.19328,-0.96001,-0.25371,1.2398,0.12922,-0.022006,-0.825,0.64982,-0.011163,0.018071,0.67428,-1.0448,1.5884,-0.41585,0.59603,0.3206,0.94848,0.26356,-1.6969,0.39613,-0.72256,-0.61241,0.40361,1.5486,-0.93729,-0.043978,-0.52375,0.69081,-0.42935,0.020526,0.68102,0.90465,0.33926,0.015701,0.7512,0.1686,-1.1469,0.022237,0.18285,-0.69154,-1.6335,0.30284,0.40795
leaders,0.44943,0.15024,-0.037129,-0.22808,0.54271,-0.52404,-0.33716,0.38086,-1.3475,-0.40879,-0.59734,-0.42644,-0.65408,0.45348,-0.27453,-0.11105,0.46486,-0.67978,0.58025,-0.23777,-0.21224,0.35733,0.46048,0.04947,-0.48861,-1.8498,0.18781,-0.63959,-1.1078,0.32185,3.2219,0.9299,-1.3927,-0.66598,-0.22821,-0.70888,-0.69466,-0.46608,-0.88409,0.20053,-0.90601,-0.018557,-0.25097,-0.087047,0.88377,0.53087,-1.176,0.7846,-0.32874,-0.92611
county,-0.89812,0.14708,-0.52172,1.0444,-0.078555,0.40971,-0.79537,1.169,0.87148,-1.6659,-0.8704,-0.89948,1.3635,-2.4382,-0.40386,-0.24445,0.22122,0.41954,-0.038699,-0.0058618,0.20688,-0.67523,0.18142,0.61516,-0.40897,-1.875,-0.032063,-0.032567,-0.65193,-1.6204,2.6708,-1.0152,0.39308,-1.381,1.1951,-0.16293,0.0046133,-0.1454,1.3568,0.35168,-1.0757,0.7995,-0.2345,-0.56229,-1.8421,0.42532,-0.81115,-0.98288,0.6195,0.2714
become,0.25628,-0.080969,-0.22797,-0.20333,0.34036,0.099251,-0.61572,0.1808,-0.14969,0.13429,0.46767,0.33,-0.10931,0.57143,0.22907,0.57336,0.25958,0.5906,0.18307,0.041417,-0.53393,-0.35953,-0.10964,0.80199,0.041424,-1.8999,-0.5605,-0.10516,0.34805,0.65011,3.2213,-0.065601,0.35345,-0.93902,-0.13548,0.045436,-0.45061,0.53959,-0.5322,-0.89699,-0.7165,-0.11548,-0.095226,0.55254,0.036713,0.29047,-0.75333,-0.63826,-0.071853,0.30162
whether,0.89453,-0.30377,0.21361,-0.0049842,0.60649,0.37006,-0.34748,0.49564,0.091988,-0.076873,0.0028985,0.36461,-0.42913,0.019647,1.0503,0.95013,0.060693,-0.48907,0.3766,-0.76248,0.027367,0.21415,0.41881,-0.02357,0.079474,-2.6002,-0.23835,0.070363,0.11285,-0.2474,2.8533,-0.018672,-0.88981,-1.0584,0.10407,-0.71175,-0.0062045,0.082787,-0.029917,-0.37923,-0.4905,0.23961,0.22836,0.85196,0.22673,-0.12152,-0.27705,0.85475,-0.14677,0.2617
already,0.77479,-0.50637,0.55056,-0.17236,-0.14387,0.14885,-0.95299,0.093743,-0.17862,-0.050848,0.21691,-0.18227,-0.54071,-0.18408,0.95303,0.40802,-0.097763,-0.11395,-0.076853,-0.50245,-0.074196,0.036797,0.28982,-0.20603,-0.23829,-1.6791,0.047352,0.20648,-0.095733,0.16498,3.4391,0.43947,0.3738,-0.43799,-0.06802,-0.10586,-0.12189,0.52873,-0.31064,-0.44416,-0.57988,0.12324,0.4394,0.24015,-0.10231,0.1326,-0.85597,0.25758,-0.57977,-0.44103
though,0.3903,-0.17259,-0.075305,-0.39021,0.31059,0.38853,-0.7663,0.11533,-0.47753,0.21311,0.20345,0.14469,-0.24917,-0.35336,0.71317,0.38793,0.016483,-0.26871,-0.30272,-0.58739,-0.38843,0.067819,0.30334,0.045109,0.37306,-1.7007,-0.46486,0.2912,0.2858,-0.022228,3.2505,-0.092747,0.28382,-0.64361,0.22927,-0.3339,0.008062,0.40452,-0.45019,-0.40314,-0.38381,0.16924,-0.076574,0.31471,-0.19571,0.0093488,-0.42037,-0.022852,-0.29299,0.15449
might,0.83844,-0.094368,0.4576,-0.18146,0.33734,0.11294,-0.47828,0.51275,-0.34708,0.37687,0.072579,0.5597,-0.16445,0.039525,0.82957,1.0815,0.39059,-0.53436,-0.12291,-0.87926,-0.25563,-0.16464,0.21707,0.007606,0.31639,-2.2555,-0.69248,0.039355,0.89019,-0.48138,3.1144,0.46584,-0.56668,-0.70703,0.084624,-0.42562,-0.12383,-0.08871,0.027247,-0.53851,-0.5631,0.18842,0.083938,0.68203,0.55677,0.018354,0.0081532,0.41744,-0.093393,0.36006
free,-0.41183,0.4528,0.02825,-0.28702,0.037029,-0.22841,-1.0803,-0.46185,0.68202,0.95844,0.22325,0.15388,0.016271,0.33186,0.41374,-0.0098567,0.60909,-0.77774,0.069414,-0.0095931,0.11433,0.096629,-0.082344,0.53318,-0.35387,-1.4886,0.77553,-0.32434,0.71493,-0.54821,3.4471,0.53604,-1.2305,0.13366,-0.30577,-0.0080669,0.35145,0.22877,0.096214,0.15633,0.61515,0.17427,0.11386,0.49481,-0.16223,-0.036013,-0.11342,0.01074,-0.03284,-0.16825
rights,-0.62781,0.098385,-0.57748,0.54869,0.30811,0.54729,-0.024461,-0.51705,0.95368,-0.012978,0.21477,-0.097924,-0.13631,-0.13804,0.75694,-0.35401,0.28438,-0.68001,0.82308,-0.039487,0.006098,0.86577,-0.43238,-0.31922,-0.34265,-1.903,0.053535,-1.0952,-0.38759,0.1421,2.9475,0.026009,-0.99291,-1.0007,-1.4164,-0.54507,0.069659,-0.92906,-0.80464,0.14972,-0.23794,-0.00030341,0.75684,0.55156,-0.68845,-0.24329,-1.6139,0.10865,-0.52581,-0.303
information,0.63591,0.28142,1.103,0.90695,0.58408,-0.66616,-0.58817,-0.55119,1.0063,-0.22333,-0.021339,0.59643,0.020229,-0.33389,0.27095,0.099159,-0.62187,-0.62834,0.87429,-0.15716,0.97701,0.36715,0.65559,0.15535,0.22763,-1.4113,-0.65703,-0.72715,0.25938,-0.23776,3.3925,-0.58473,-0.34668,-1.7489,-0.015439,0.50899,-0.25659,0.069998,0.086402,0.395,1.0702,0.088681,0.54121,0.53468,0.09773,-0.25598,-0.15555,1.5154,0.81081,0.11142
others,0.70614,-0.16365,0.46453,-0.58856,0.40552,0.40242,-0.59224,0.074637,-0.55312,0.054879,-0.10819,-0.0389,-0.26289,-0.39037,0.5346,-0.12796,0.076625,-0.15393,-0.0071971,-0.86727,0.032166,0.88097,0.71386,-0.024343,0.3057,-1.5038,-0.42178,-0.44627,0.0026862,-0.61937,3.1423,0.21271,0.018828,-0.75528,0.14251,-0.012324,0.020646,-0.18749,0.0077825,0.50999,-0.30752,0.31986,0.60962,0.29202,0.61235,-0.077966,-0.94266,-0.26181,-0.34074,-0.26442
within,0.43545,0.17045,0.02835,0.19479,0.80862,0.43448,0.40041,0.26019,0.5388,-0.70532,0.074757,-0.81232,-0.018386,-0.32536,-0.32477,0.56547,0.56943,-0.21274,-0.27345,-0.066153,-0.045741,-0.29294,0.27252,0.51855,-0.21129,-1.092,0.33047,0.068431,0.1474,0.020561,3.7828,-0.37415,0.027395,-1.1671,-0.32384,-0.21048,-0.26656,0.014331,-0.03405,0.10754,-0.16645,-0.53375,0.13492,0.70171,-1.1395,0.59742,0.037514,-0.10763,-0.60251,-0.61549
agency,0.39196,-0.2909,0.63739,0.5607,-0.27845,-0.68137,-0.68517,-0.1992,1.3082,-1.1706,0.77587,0.062061,-0.26642,0.5516,0.6996,0.24339,-0.46577,0.37241,0.44682,0.71815,0.44093,0.42931,0.32038,-0.2463,-0.29515,-2.1698,-0.17619,0.33691,-0.8596,0.14617,3.0754,-0.44081,-0.11546,-0.7774,-1.0064,0.24888,0.21279,-0.43476,0.64488,0.3478,0.12427,0.39314,0.92563,-0.6669,-0.34586,-0.53523,-0.94889,2.1969,0.22165,0.49233
building,0.96946,0.51658,0.40869,-0.44261,0.52557,-0.43554,-0.8864,-0.72144,-0.32513,-0.59368,-0.61602,-0.5777,-0.57443,0.05468,-0.5763,0.48652,0.10411,0.80692,0.071993,-0.25208,1.2826,0.16648,-1.6472,-0.73222,-0.40618,-1.0784,-0.054301,0.42463,0.29449,0.039102,3.3546,-0.95662,0.16766,-0.88352,-0.071421,0.64726,0.67146,0.43414,0.41453,0.43332,-0.38089,-1.0239,0.14656,0.047804,-0.078527,0.53889,-0.80031,-0.73521,-0.028602,-0.29638
often,0.48292,-0.10589,-0.48755,-0.72499,-0.033428,0.64621,-0.28778,-0.028235,-0.67209,0.27879,-0.085806,0.39258,0.37097,-0.008954,0.27041,0.12437,0.04556,-0.11547,0.1824,-1.0934,-0.26857,0.12346,0.68076,0.60554,0.32689,-1.4725,-0.71837,0.33633,0.55901,-0.12365,3.6349,-0.040454,0.49109,-0.99409,0.049392,0.50667,-0.27718,0.17365,-0.74709,0.10036,-0.13906,0.47679,0.073626,1.0399,0.56961,-0.37777,-0.17187,-0.1995,-0.25104,-0.17212
announced,0.50892,-0.11413,0.33814,0.82997,-0.3639,-0.025768,-1.3086,-0.20421,0.0071953,-0.28956,0.35874,0.0924,-0.76549,-0.06066,0.93918,0.4784,-0.5998,-0.26613,-0.21686,-0.24855,0.90312,-0.22478,-0.12937,-0.77057,-0.88551,-1.3216,0.36958,-0.17891,-1.2563,0.35598,2.7497,0.24336,-0.83518,0.092667,-0.035689,-0.65635,0.77464,-0.24306,-0.2118,-0.45756,-0.33252,0.27674,-0.71245,-1.0168,-0.075886,0.030037,-1.0889,0.87199,-0.14546,0.32641
industry,-0.52915,-0.67793,0.015123,0.97008,-0.37311,-0.0070348,-1.0761,-0.90088,0.77681,0.40085,0.38089,0.28874,-0.060781,0.50261,0.35329,0.33612,0.30798,0.59823,0.54213,-0.97372,1.5111,-0.41307,-0.76211,-0.37469,0.02518,-1.4714,-0.83896,-0.35724,-0.026749,0.72309,3.521,-0.18569,0.67068,-0.052258,-0.66455,-0.29726,-0.97687,0.49211,0.53109,-0.087831,-0.85146,0.16847,0.30176,-0.017128,0.69863,0.23545,-0.89876,0.53365,0.20891,0.2713
age,-0.4385,1.1905,-0.11631,-0.95942,0.45889,1.415,-0.67604,-0.84342,-0.7357,0.28724,0.64751,-0.36217,0.11489,-0.34018,1.1601,0.27203,-0.45293,0.20521,-0.80958,0.55343,-0.21324,0.91777,0.6683,0.055886,0.39708,-0.89999,-1.1099,-0.91207,0.34395,0.44252,2.944,0.25974,0.24117,-0.65958,0.7578,-0.13787,0.19865,0.25054,0.4246,-0.1881,-1.0105,-0.49458,0.56892,0.75452,-0.47241,-0.43876,0.13308,-0.91405,-0.086182,-0.17988
round,-0.51244,0.37181,-0.26364,0.99462,-0.37948,0.027235,-0.17732,1.0833,-0.31456,-0.46593,-0.61127,-1.1127,-1.1977,0.61233,0.53078,-0.41192,0.41183,-1.0644,-1.2442,-0.64279,-0.40882,-0.34751,0.364,-0.10313,-0.23033,-0.87574,0.48898,-0.071108,-0.18226,-0.43197,3.1387,0.62531,-0.45273,0.71353,0.37931,-0.011962,0.6446,1.2584,-0.48879,-1.1429,-0.17432,-0.39026,0.20802,-0.39155,0.26571,0.70799,0.5553,-0.31012,-0.063959,-0.18801
nations,0.16043,0.19233,-0.4717,-0.29434,0.18569,-0.2274,0.23103,-0.25918,0.63238,-0.72869,0.36888,-0.06803,-0.38184,0.25583,0.57007,0.34414,1.3895,-0.52282,0.36185,-0.024794,-0.19737,0.12493,0.58995,-0.12013,-0.52201,-1.2827,0.64266,-0.32496,-0.78114,0.56306,3.3879,0.85951,-0.78461,-0.51858,-0.25689,-0.40831,-0.053219,-0.12121,-1.4284,-0.22567,-0.85986,-0.33894,1.7673,-1.2952,-0.093276,1.1009,-1.0676,1.0586,-0.79666,-0.6323
players,-0.91399,0.084152,0.064889,0.38138,0.1012,-0.41253,-1.0374,0.58694,-1.0811,0.41565,0.75995,0.58594,-1.0692,0.28048,1.0978,-0.022174,0.50837,-0.011568,-0.78902,-1.234,-1.1572,0.31983,0.42662,0.52228,-0.28263,-1.1629,0.38899,-0.57561,-0.30536,-1.0698,3.4031,1.297,0.40442,-0.50792,0.86177,0.7706,0.48023,0.49316,-0.42102,-0.86115,-0.013608,0.074204,0.036231,1.1018,0.13154,0.20627,-0.0029658,0.65953,-0.72998,-0.19931
southern,0.51257,-0.041552,-0.69431,0.51292,-0.67821,-0.38744,-0.72136,0.49718,0.25563,-0.98405,-0.022843,-1.475,0.75516,-0.68126,-0.99421,0.21458,0.23655,0.61341,-0.88823,0.91171,-0.62251,0.022469,-0.074472,0.77746,-0.31118,-1.8815,-0.15067,0.39978,0.040089,-0.037724,3.4443,-0.2935,-0.044281,0.11398,0.47431,-0.092505,-1.1266,-0.43603,-0.097254,0.80732,-0.78934,0.78961,0.59111,-1.0429,-0.053713,0.64187,-0.3844,-0.25182,-0.47089,-0.6333
fire,0.50905,-0.36805,0.41275,-0.44637,-0.017932,-0.12425,-0.43753,0.52016,-0.1449,-0.83957,-0.32243,-0.71141,-0.43867,-0.13184,-0.27728,0.011158,0.097582,0.5546,-1.3955,-0.58442,0.25271,0.74644,-0.18067,-0.46553,-0.09358,-1.4951,0.2663,0.55315,1.103,-0.06003,3.0834,-0.57123,-0.91293,-0.52011,0.057919,0.8553,0.75373,-1.2263,0.60596,0.76143,-0.02809,-0.077767,-0.10431,-0.50895,0.92005,0.21507,-0.29191,-0.03356,0.056012,-0.43283
include,0.50043,1.0744,-0.53345,0.51726,-0.52573,0.72551,-0.54804,-1.0002,0.25186,-0.02044,-0.099209,0.45491,0.31681,-0.18062,0.080035,-0.070226,0.13891,0.038706,0.16028,-0.70699,0.4749,-0.29997,0.077206,0.17271,-0.73797,-0.62421,-0.53528,-0.61884,-0.55645,-0.27205,3.3732,0.038738,-0.034675,-0.54361,0.60452,0.5006,-0.037576,-0.16968,-0.19054,0.33298,-0.018487,0.46841,0.23692,0.00095917,0.61204,0.23172,-0.30146,0.083964,-0.41002,0.16558
secretary,-0.14508,0.14645,-0.76128,0.38553,0.74353,-0.85069,-0.36512,-0.23606,-0.45598,-2.2532,-0.36514,1.2269,-0.4517,0.080076,0.35906,0.057693,0.0224,-0.30034,0.77982,-0.042606,-0.070339,0.17696,0.52656,-1.0707,0.39665,-1.8003,0.94531,-0.062871,-1.6083,0.76949,2.3832,-0.34606,-1.0622,-0.48185,-0.40752,-0.61545,-0.011299,0.15103,-0.13221,0.52839,-0.85786,1.1558,-0.35048,-1.3524,0.22705,0.29751,-1.3352,0.56035,0.27708,1.1954
community,0.14774,0.62713,-0.81852,-0.16878,0.44055,-0.12515,-0.87369,-0.060084,0.48804,-0.23463,-0.017574,-0.70673,0.77392,-0.82772,-0.69719,0.076588,0.98306,0.58452,0.77501,0.30231,0.0059052,0.58345,-1.0178,1.1176,-0.13487,-1.2102,-0.095842,-0.70611,-0.54565,-0.12818,3.4346,0.12549,-0.35702,-1.3685,-0.32705,-0.25489,-0.52943,-0.90213,0.28179,0.22691,-0.47532,-0.51934,-0.32232,0.07629,-0.10132,0.47723,-0.83698,0.021588,-0.36972,0.14843
whose,0.28429,0.6475,-0.036221,-0.17442,0.99665,0.88978,-0.84616,-0.22329,-0.13965,0.21015,0.041051,0.036868,-0.43291,0.31245,0.16867,-0.42428,-0.10048,-0.0086739,0.096906,-0.14419,-0.63107,0.46092,-0.42743,-0.12578,-0.24961,-1.883,-0.72014,-0.17991,-0.19611,0.56781,3.0036,-0.26341,0.20464,-0.21661,0.24502,0.15849,-0.52918,0.21815,-0.0597,-0.32622,-0.19889,0.77259,-0.22007,0.18958,0.013185,-0.24985,-0.63691,-0.35369,-0.14443,-0.28997
station,0.60415,0.6166,0.81841,0.14236,-0.68957,-0.51117,-1.5526,0.36976,0.084697,-0.64057,0.4919,-0.63411,0.1571,0.23288,-1.0597,0.62607,-0.51015,1.5775,-1.1857,0.5008,1.3706,0.31501,-0.53247,1.1831,0.19689,-1.3973,0.40886,0.97024,0.49748,-0.46709,2.7007,-0.46445,0.16748,-0.82137,0.17201,-0.17529,1.3124,-0.38757,-0.19791,0.75754,0.87865,-0.3756,-0.76811,-0.66107,-0.99042,-0.25281,-0.67901,-0.53127,0.36827,0.38443
research,0.71258,0.64492,0.053186,0.30578,-0.058139,0.37774,-0.9848,-1.4113,1.2767,-0.013141,0.55534,0.23268,-0.013911,-0.0090835,-0.60868,0.11358,0.45878,0.42078,-0.52664,0.54239,0.9867,0.26386,0.22037,-0.82848,0.24685,-1.288,-0.36937,-1.0895,-1.447,0.043814,3.1056,-0.60116,0.19298,-1.9592,-0.55103,-0.47018,-0.70315,0.95543,1.3444,0.15053,-0.048638,-0.85941,0.42482,0.45963,0.95505,-0.19284,0.52146,1.1693,-0.17361,0.89113
services,0.64004,0.27029,0.26208,0.15573,-0.31636,-0.085634,-1.1548,-0.51424,1.2036,-0.83512,0.48004,0.40719,0.056176,-0.41852,-0.7217,0.14392,-1.1009,0.26455,0.6003,-0.013637,1.6695,0.12136,-0.77214,0.49072,-0.60833,-1.0132,0.49926,-1.015,-0.14751,0.41612,3.7691,0.76037,0.42838,-0.63489,-0.054498,0.14418,0.094942,-0.11031,0.33915,0.54325,0.6401,-0.31586,0.049959,0.43183,-0.19109,-0.19309,-0.60553,0.4603,0.3726,0.87739
northern,0.59766,-0.11836,-0.48428,0.48654,-0.47247,0.044604,-0.60047,0.6259,0.068696,-1.2661,0.20317,-1.3582,0.60187,-0.8531,-0.97557,0.69911,0.79906,0.25202,-0.99214,0.92085,-0.35632,-0.22861,-0.010019,0.92797,-0.3083,-1.7326,0.084556,0.38969,-0.15216,0.1129,3.3831,-0.28476,-0.11933,0.13845,0.53808,-0.031544,-0.84718,-0.5569,-0.28344,0.75387,-0.605,0.89688,0.34845,-1.1528,-0.31986,0.60528,-0.42123,-0.19541,-0.23275,-1.0209
board,0.076017,-0.60384,-0.18755,0.11427,0.27252,-0.1221,-0.73851,-0.11356,0.44258,-1.3141,0.15652,0.61758,-0.27602,0.38903,-0.093418,0.16356,-0.40837,0.51507,-0.41751,-1.0945,0.9871,0.085558,-0.069197,-0.38924,-0.62618,-1.7575,0.13821,-0.028526,-1.5139,-0.13259,2.7992,-0.042534,-0.70968,-0.32119,0.12956,-0.5788,0.5021,-0.066879,0.91163,-0.24651,-0.42976,-0.13657,-0.021172,0.49437,-0.86967,0.43829,-0.65571,0.59696,0.29566,0.32144
football,-1.8209,0.70094,-1.1403,0.34363,-0.42266,-0.92479,-1.3942,0.28512,-0.78416,-0.52579,0.89627,0.35899,-0.80087,-0.34636,1.0854,-0.087046,0.63411,1.1429,-1.6264,0.41326,-1.1283,-0.16645,0.17424,0.99585,-0.81838,-1.7724,0.078281,0.13382,-0.59779,-0.45068,2.5474,1.0693,-0.27017,-0.75646,0.24757,1.0261,0.11329,0.17668,-0.23257,-1.1561,-0.10665,-0.25377,-0.65102,0.32393,-0.58262,0.88137,-0.13465,0.96903,-0.076259,-0.59909
match,-0.62319,-0.13879,-0.83695,1.1739,-0.14304,-0.11148,0.40331,1.337,-0.20643,0.064769,0.15115,-0.43794,-1.5546,-0.51902,1.1771,-0.29629,0.18794,-0.82506,-1.7333,-0.41505,-0.44335,0.024533,0.44603,0.38377,0.13602,-1.2569,0.69812,-0.029317,-0.18377,-0.42167,3.0513,1.1309,0.31189,0.13244,0.15756,0.61074,0.96499,1.3011,-0.66769,-1.4835,0.59339,-0.023404,-0.17871,-0.011882,0.04262,0.95606,0.40541,-0.14034,0.29359,-0.56378
food,0.47222,-0.44545,-0.51833,-0.26818,0.44427,-0.25108,-0.99282,-0.90198,1.8729,0.039081,0.14284,0.074878,1.0543,-0.3203,1.0722,0.44323,0.0099484,0.15754,0.51399,-0.77668,0.924,0.010958,0.58815,0.23078,-0.34281,-0.88444,-0.31492,0.12661,1.1445,0.60775,3.4344,0.63561,-0.13832,0.28045,-0.16181,0.77541,-0.49888,0.4602,0.91799,0.29007,0.06884,0.59978,0.53967,-0.061752,1.2975,0.92323,-0.80945,0.34932,0.33934,0.25499
authorities,0.83907,-0.97353,0.023372,-0.18497,0.018398,-0.57539,-0.40641,0.85541,0.14939,-0.51169,0.6171,-0.41816,0.1502,-0.20788,0.69566,0.063378,-0.31533,-0.52384,0.1286,0.023511,0.39338,0.51908,0.12381,0.15042,-0.47132,-2.5485,0.27044,-0.10889,-0.17348,-0.23733,2.9339,-0.18053,-0.92924,-1.1758,0.070008,0.30432,0.24728,-0.5854,-0.074453,0.69066,-0.48846,0.53251,1.1832,-0.071245,0.43294,-0.75236,-1.0586,0.8434,0.66897,-1.1813
nearly,0.70695,-0.13158,1.1623,-0.49631,0.58142,0.35165,-0.64238,-0.20644,0.18146,0.14987,-0.38848,-1.576,0.14147,-0.1561,1.3611,-0.60137,-0.32335,0.32128,-0.93332,-0.23782,-0.10737,0.12144,0.11351,-0.55458,-0.22242,-1.1551,0.22132,0.083722,0.12981,0.32287,3.5748,-0.046077,0.45374,0.41368,-0.2703,-0.063579,-0.15053,0.301,0.17456,-0.43638,-0.62643,0.11724,0.55345,0.50303,-0.82706,-0.15984,-0.45192,-0.13641,-1.0943,-0.70736
enough,0.36349,-0.21569,0.6504,-0.66659,0.66962,-0.033247,-0.14641,0.4757,-0.027242,0.68283,-0.3005,0.16224,0.13964,-0.049015,0.3111,0.4039,0.82817,0.066499,-0.12749,-1.4641,-0.24064,0.21676,0.49294,-0.3412,0.46205,-1.7469,-0.38856,0.33027,1.0585,-0.28635,3.519,0.69348,-0.19525,-0.47188,0.25665,0.28303,-0.10587,0.82391,0.20327,-1.0366,-0.029874,0.10529,0.14582,0.47456,0.08294,0.28384,-0.17346,0.23783,-0.14903,0.44835
really,0.0016675,-0.16376,-0.092648,-0.33466,0.73972,-0.23523,-0.34941,0.19102,-0.42223,0.5844,-0.27604,0.46605,-0.97154,0.035971,0.89279,0.50195,0.89409,0.3505,0.12178,-0.91063,-0.67188,0.84035,0.31734,0.33727,1.3483,-1.9291,-1.1992,0.60348,1.2938,-0.92512,3.2757,0.75342,0.064755,-0.31481,-0.37328,-0.23711,-0.25322,0.55946,0.2669,-0.66446,-0.42612,-0.051564,-0.018357,0.41999,0.3543,0.2632,0.051319,-0.024906,-0.069572,1.1343
century,0.42373,0.07564,-1.1661,-0.94059,0.47112,-0.34774,-0.91326,-0.52053,-0.42224,-0.012656,-0.12034,0.16164,-0.29226,-0.22875,0.029715,-0.20729,0.24263,-0.74336,-0.67894,0.50366,0.13175,-0.66325,-0.93767,-0.036856,0.5709,-1.1115,-1.631,-0.72303,-0.12268,0.82252,3.0946,-1.228,0.64149,0.093082,0.22482,0.1489,-0.24321,0.94718,-0.59528,0.60007,-0.28403,-0.091914,0.22169,0.2975,-0.31769,1.3584,-0.13378,-1.1394,-0.31153,-1.3144
leading,-0.45816,0.18518,0.35274,0.46199,0.1666,0.22531,-0.94667,0.072191,-0.020073,0.22138,0.022843,-0.7057,-0.68059,0.6923,-0.41883,-0.68109,0.35849,-0.56264,-0.68847,-0.073729,0.070436,-0.17436,-0.38994,0.090127,-0.30945,-1.554,-0.13894,-0.80492,-0.73123,0.63291,3.208,0.041802,0.41536,-0.26637,0.038696,-0.25567,-0.44192,0.50113,0.11523,0.10027,-0.30422,0.3274,-0.17812,0.10018,0.59222,0.29602,-0.54511,0.24227,0.37948,-0.41335
trying,0.44349,-0.7187,0.74168,-0.30663,0.32147,0.0098841,-0.57295,0.71186,-0.13162,0.025001,-0.33982,0.2482,-0.81255,0.47738,0.11965,0.46931,0.77249,-0.32196,0.29724,-0.76281,0.094952,0.69615,0.031,0.34311,0.3716,-2.4612,-0.18062,-0.44132,0.91056,-0.9327,2.929,0.79259,-1.1483,-0.4305,-0.033168,0.22947,-0.80059,-0.090278,0.20351,-0.49679,-0.36519,0.22556,0.37469,0.17841,0.61943,-0.03555,-0.067799,-0.088973,0.022376,-0.19262
together,0.52691,0.062192,0.013797,-0.24144,0.94915,0.90511,-0.67528,-0.5075,-1.0105,-0.24563,0.18366,-0.071627,-0.56162,0.41912,0.39582,0.32691,0.46197,0.085586,0.27197,-0.56735,0.64228,0.71947,0.9811,0.072394,0.34421,-0.44457,-0.14271,-0.36439,0.0033597,-0.87613,3.4852,0.7384,-0.43386,-0.27189,-0.087298,0.1076,-0.45525,0.6328,0.14832,0.074073,-0.43526,-0.29084,0.087274,-0.39251,-0.17586,0.089582,-0.13581,-0.75564,-0.5576,-0.42156
hours,0.90798,0.18343,0.47635,-0.35308,-0.064941,-0.39608,-0.42769,0.80716,-0.11274,-0.47256,-0.64652,-1.1557,-0.17982,0.42551,1.1561,-0.29252,-1.0696,-0.036168,-0.96465,-0.56235,0.79512,1.2209,1.0963,0.19703,0.30994,-0.83341,0.69044,0.24359,0.72366,0.36452,3.408,0.47935,-0.71401,0.084464,0.31819,0.19943,0.7199,0.28686,0.32515,0.46671,-0.23035,0.20707,0.16273,0.20489,-0.28424,-0.14181,0.152,-0.27662,-0.41115,0.16289
action,0.24196,-0.74387,-0.51436,-0.089699,-0.26825,0.45664,0.72555,-0.21819,0.042826,0.18943,-0.32057,0.057118,-0.59674,0.22751,0.12945,-0.29623,0.6495,-0.22105,-0.57708,-0.45436,0.25636,0.099275,-0.1176,-0.16338,-0.23526,-1.8493,-0.10322,-0.35198,0.0024535,0.033223,3.3513,0.15836,-1.0583,-0.72565,-0.57345,-0.057453,0.47996,-0.99358,-0.80074,-0.62818,-0.22644,0.14946,-0.032743,-0.3374,0.20041,-0.0023766,0.012109,0.55461,0.15185,0.70218
higher,-0.64024,0.22079,0.79316,-0.71459,0.59939,-0.21182,0.24904,-0.63085,0.033044,0.50756,0.65401,-0.49695,0.6463,-0.72972,-0.11375,0.80608,-0.33519,-0.39879,-0.6108,-0.99099,0.78769,-0.66411,0.10332,-0.473,-0.23257,-1.178,0.21467,-0.16859,-0.14192,0.90384,3.9415,0.74366,1.0567,-0.21703,0.75132,-1.1666,-0.44778,0.092494,0.58773,-0.44638,-0.84593,-0.07333,0.68969,0.48407,-0.019144,-0.49032,0.58591,0.39169,0.48491,0.042346
field,-0.49284,0.3731,0.15565,0.70044,0.77405,-0.48151,-1.2244,-0.02163,0.63856,-0.49535,0.35081,-0.29986,-0.89631,0.17606,-0.49078,-0.36775,1.0308,0.12271,-1.7308,-0.61148,-0.3035,-0.19532,0.17095,-0.6249,-0.030165,-1.0511,0.19154,-0.16093,0.35696,-0.4017,2.9194,0.046222,-0.40594,-1.0688,0.13752,0.60408,-0.22031,1.2583,0.54187,0.74807,0.01358,-0.10952,-0.78435,0.69711,-0.39348,-0.184,0.65022,0.1018,-0.77246,-0.026201
coach,-1.3191,0.50071,-0.44091,0.27854,-0.28167,-0.77318,-1.8684,0.6585,-1.7581,-0.93415,1.1725,1.1401,-1.7057,-0.79079,1.2353,0.2022,0.35995,0.91442,-1.0252,-0.44264,-2.3854,0.27066,-0.2895,-0.17293,0.304,-1.8483,0.40081,0.39601,-0.48398,-0.26892,1.9003,1.057,-0.10149,-0.40543,0.47148,0.71678,0.41254,1.0293,0.71875,-0.35488,-0.28058,0.59594,-0.89505,-0.28063,0.61414,0.57723,-0.19236,1.1007,-0.20213,0.8252
california,-0.094576,0.12842,-0.099356,0.46342,-0.99674,-0.041353,-1.815,-0.20399,0.69405,0.056446,-0.51808,-0.73496,0.97266,-0.42734,0.14013,-0.5512,-0.29905,0.5736,-0.33651,-0.47473,-0.23651,-0.2431,-0.56144,0.2039,-0.60267,-1.9407,-0.084779,-0.079509,-0.26599,-0.59215,2.596,-0.84078,-0.78666,-1.2118,0.34527,-0.89909,-0.80615,0.030595,1.3677,-0.41649,-1.2243,0.33881,0.38883,0.076045,-0.54893,0.52766,-0.084278,-0.81387,-0.19385,0.84154
father,0.095496,0.70418,-0.40777,-0.80844,1.256,0.77071,-1.0695,0.76847,-0.87813,-0.0080954,0.43884,1.0476,-0.45071,-0.58931,0.83246,-0.038442,-0.73533,0.26389,0.12617,0.57623,-0.23866,1.0922,-0.3367,0.081537,0.84798,-2.4795,-0.40351,-0.84087,0.12034,0.29074,1.9711,-0.50886,-0.45977,-0.13617,0.55613,0.22924,-0.18947,0.43544,0.65151,0.043537,-0.1162,0.72196,-0.66163,-0.17272,0.27367,-0.28169,-0.82025,-1.5089,0.052787,-0.035579
education,-0.9266,0.69467,-0.59079,-1.0542,-0.16538,0.26239,-0.37788,-1.4453,0.40885,-0.30288,0.03182,-0.18016,0.42866,-0.89767,-0.56316,-0.27027,0.045694,0.62575,1.2644,0.76223,0.55267,0.49301,-0.60455,0.044394,0.21022,-1.4351,0.31501,-1.4332,-1.1363,0.2626,3.642,0.71513,-0.51682,-1.3208,0.011802,0.35513,-0.16616,0.89067,0.73568,0.24032,-0.63902,-0.30806,0.091853,0.32939,-0.5166,0.11908,-0.16218,0.60717,0.51684,0.83162
something,0.39533,-0.0064782,-0.26112,-0.32292,0.96181,0.11242,-0.30927,0.17085,-0.38948,0.77584,-0.31334,0.54971,-0.4579,0.05835,1.0643,0.57949,0.74198,0.22064,0.11507,-0.84422,-0.43365,0.52626,0.067037,0.16294,1.1345,-2.0336,-1.211,0.69115,1.418,-0.80188,3.0172,0.36111,-0.38275,-0.51099,-0.19531,-0.16375,-0.024037,0.32332,-0.0070115,-0.49139,-0.28394,0.06881,-0.11819,0.47825,0.16551,0.29805,0.010174,0.20346,-0.13682,0.79782
victory,-0.66385,0.41015,0.073617,0.85937,0.30031,-0.11978,-0.45367,1.4574,-0.73222,0.28086,-0.7589,-1.2996,-0.96887,-0.57294,-0.25255,-0.7098,0.52366,-1.3184,-1.7125,-0.074232,-1.2343,-0.37677,-0.4526,-0.95694,0.36827,-1.8201,-0.20622,-0.31884,0.1527,-0.30461,2.3935,1.3234,-1.0144,0.35188,-0.17079,-0.67128,0.38904,0.94105,-0.42382,-1.3848,0.15837,-0.59283,-0.80945,-0.46636,-0.086871,1.419,-0.5528,-0.19525,0.43202,-0.6991
things,0.22678,-0.14627,-0.34042,-0.39456,0.72194,-0.14548,-0.40267,-0.1647,-0.62927,0.35451,-0.57827,0.83488,-0.89982,-0.032669,1.1455,0.59324,0.50642,-0.082951,0.49207,-1.1169,-0.063833,0.5827,0.60461,0.19144,1.1256,-1.5186,-1.1558,0.36884,1.5009,-0.9557,3.2162,0.71336,-0.17653,-0.64164,-0.18563,0.19992,-0.34019,0.53515,0.13862,-0.099263,-0.59026,0.10021,0.17771,0.71645,0.19723,0.39284,0.24215,0.082052,0.045228,0.63316
chairman,-0.094023,0.16701,-0.099462,1.3251,0.41675,-0.40442,-0.57337,-0.49371,-0.39353,-1.2984,-0.082545,1.0734,-1.2907,-0.12838,-0.27141,0.54183,0.17992,0.36148,0.4216,-0.35954,0.40848,-0.26949,0.09281,-1.0062,-0.63066,-1.8084,0.14277,-0.33719,-2.4248,0.65409,2.0548,-0.19463,-0.42921,0.2127,-0.68403,-1.4697,-0.079786,0.39475,1.1574,0.19419,-0.55577,0.759,-1.359,-0.18026,0.076492,0.34831,-1.5139,0.14965,-0.26253,1.1509
front,0.021786,0.26398,0.64475,-0.37576,0.44165,-0.30413,-0.53885,-0.22087,-0.43253,-1.1642,-0.34724,-0.98567,-1.0723,0.51097,-0.60139,-0.11341,-0.10118,-0.06655,-0.23432,-1.0964,-0.80516,0.19725,-0.30023,0.11906,-0.23811,-1.3668,-0.1198,1.0927,-0.11638,-0.15173,3.2787,0.33426,-0.54537,0.24694,-0.64439,0.4744,0.36013,-0.07902,-0.30955,-0.11076,0.47378,0.36476,-0.79684,-0.21836,-0.20472,-0.11582,-0.25167,-0.78021,-0.018188,-1.0066
built,1.1018,0.54578,0.32683,-0.49481,-0.3978,-0.084424,-1.3152,-0.60051,-0.81543,-0.6571,-0.11818,0.17681,-0.28274,-0.36117,-0.83089,0.4685,0.15535,1.0653,-0.7487,-0.11764,0.51872,-0.65554,-1.3349,-0.44307,0.068788,-0.95069,-0.23293,0.01555,0.50668,0.10918,2.9111,-1.2516,0.1576,0.0032561,0.47193,0.39639,0.63127,0.92407,-0.28111,0.52132,0.14232,-0.92276,0.1627,0.22713,-0.49965,0.67669,-0.88759,-1.5676,-0.42108,-0.63903
included,0.23788,0.61562,-0.16782,0.098495,-0.21855,0.76707,-0.95858,-0.59657,-0.083869,-0.1439,-0.38325,0.16987,-0.14215,-0.057291,0.38369,-0.9041,-0.21945,-0.21289,-0.28266,-0.48918,0.61594,0.015535,0.18855,-0.1718,-0.61558,-0.71323,-0.59657,-0.68871,-0.58044,-0.19553,3.1432,-0.39205,0.075774,-0.32698,0.65898,0.61989,0.45837,-0.051298,-0.56279,0.16061,0.11596,0.37164,0.10791,-0.36002,0.085986,-0.038104,-0.51719,-0.059871,-0.34494,-0.051699
african,-0.40253,-0.16832,-1.2731,0.3717,0.47055,-0.094645,-0.67975,-0.9823,0.20803,-0.54781,0.72342,-0.19041,0.48002,-0.366,0.10517,-0.027328,0.82707,-0.061242,-0.42713,-0.3893,-0.66778,1.118,0.051591,0.13598,0.01337,-0.79305,0.40787,-0.76886,-1.2476,0.9837,3.1401,0.4212,-0.84241,0.065442,0.15264,-0.22553,-0.93922,-0.58294,-0.64352,-0.37126,-0.50493,0.369,0.98831,-0.76297,0.68617,0.87108,-0.57782,0.025938,0.015696,-1.2043
increase,0.21093,0.10012,0.85627,-0.54524,0.22253,0.64364,0.090537,-0.73151,1.0167,0.54409,0.44708,-0.74948,0.42369,-0.93058,0.47171,0.38841,-0.066188,-0.45857,-0.079724,-0.7589,0.70502,-1.2046,-0.084494,-0.76654,-0.35268,-1.128,0.21598,-0.23045,0.35608,1.1778,3.7451,1.3071,0.32238,-0.31957,0.083539,-0.80131,-0.23285,0.10466,0.10558,-0.061841,-0.9676,0.15687,0.08461,-0.32986,-0.1638,-0.65515,-0.025958,0.87098,0.17326,0.62359
reports,0.79667,-0.4212,0.48505,0.40887,-0.073664,-0.21618,-0.83293,0.20614,0.31885,-0.3956,-0.096698,-0.54991,-0.53323,-0.6437,1.0127,-0.23283,-1.186,-0.78666,-0.33329,-0.28739,0.60349,0.5469,0.77044,-0.40392,-0.011623,-1.5665,-0.75794,0.3075,-0.59415,0.57293,3.0469,-0.48713,0.51389,-0.88179,-0.1109,-0.19412,-0.064599,-0.63158,-0.14518,-0.021792,0.046025,0.28184,0.4446,-0.21606,0.81748,-0.47946,-0.54102,1.7342,0.45771,-0.44523
fourth,-0.55097,0.2139,0.34444,0.66982,0.8483,0.23219,-0.92076,0.58705,0.21421,-0.15055,0.03233,-0.77297,-1.3105,0.16753,0.60903,-0.68385,-0.20685,-1.0502,-1.3927,0.19755,-0.22172,-0.64892,-0.46055,-0.22474,0.02039,-1.2604,0.095875,-0.59707,-0.1265,-0.044076,3.1367,0.25139,0.35308,0.7793,0.60559,-0.30749,0.47324,0.87217,0.096984,-0.82249,-0.4358,-0.40572,-0.21275,-0.6233,-0.38629,0.45484,0.46654,-0.40623,0.41476,-0.24817
title,-1.2383,0.99487,-0.73677,1.0773,0.2541,0.081738,0.17186,0.59812,-0.43664,0.029587,0.28811,0.42254,-1.4255,-0.41574,1.1129,-0.41529,-0.057627,-0.23211,-1.256,0.051955,-0.69603,-0.58391,0.041078,0.29438,0.034322,-1.7282,-1.19,-0.8353,-0.54406,-0.16701,2.5351,0.080653,-0.41849,0.30913,0.21878,0.047821,0.54864,0.89808,-1.0174,-1.5964,0.48255,-0.5546,-0.2438,-0.022622,-0.91066,0.14962,0.1453,-0.97966,0.20244,-0.36069
located,0.99047,1.2877,-0.027214,0.47462,0.16123,-0.71268,-0.81579,-0.26412,0.44921,-1.1722,-0.050585,-1.0103,0.7416,-0.83647,-1.1977,0.57185,0.64806,1.3342,-0.88643,0.63587,-0.061909,-0.57596,-0.71452,1.1507,-0.38807,-0.90142,-0.012174,0.81575,-0.53539,-0.95788,2.9091,-1.1993,0.57113,-0.65849,0.6717,-0.12719,0.16931,0.2803,0.69084,0.9714,-0.030319,-0.19884,0.42717,-0.29481,-1.2397,0.66075,-0.22646,-1.4161,0.10293,-0.34583
clear,0.60506,0.18191,0.16394,-0.17322,0.39003,0.14191,-0.18749,0.22792,-0.13433,-0.039739,-0.29248,-0.11435,-0.61228,-0.11084,-0.086806,0.43197,0.46269,-0.91279,0.0032686,-0.87722,-0.43656,0.4111,0.30053,-0.471,0.48141,-1.6452,-0.0087763,1.0281,0.61239,-0.057788,3.166,-0.069298,-0.67973,-0.75351,-0.038444,-0.42413,0.17885,0.28132,-0.38948,-0.27017,0.22063,-0.018678,0.18915,0.1661,-0.20282,0.10659,-0.30766,0.7015,0.42221,-0.35024
release,0.33162,-0.033753,0.70416,0.16921,0.20039,-0.25238,-0.62591,0.088983,0.60085,1.0256,0.54688,0.12057,-0.18364,0.49131,1.4315,0.02041,-0.53204,-0.87072,0.039048,0.0043114,0.66575,0.35456,1.0019,-0.20002,-0.43843,-0.89138,-0.24486,-0.31515,-0.25274,0.21016,3.2403,-1.0001,-0.84554,-0.36408,0.18376,-0.14581,1.1676,-1.2199,-0.48814,-0.76513,-0.062639,-0.13023,-0.36336,-1.0918,0.3599,-0.38267,-0.3529,0.21993,-0.35301,-0.018185
closed,-0.0077864,-0.5253,0.06188,0.66454,0.31689,-0.91824,-0.68378,-0.22014,-0.53494,-0.53264,0.067345,-0.93743,-0.48305,-0.066385,0.19673,0.81071,-1.031,-0.55013,-0.86221,-0.36421,1.5867,0.20004,-0.11184,-0.21883,-0.52039,-0.68634,0.84397,0.58996,0.065395,-0.032606,3.335,-0.54222,0.52668,0.08576,-0.076368,-1.067,0.438,-0.042787,0.21373,0.26297,-0.43261,-0.58797,0.53286,0.36043,-0.29054,0.11183,-0.20735,-0.82468,0.34296,-0.57197
inc.,0.48994,-0.071488,0.97385,1.7478,0.2406,-0.05941,-1.9641,-1.4751,1.0148,0.31656,0.41049,0.60168,-0.86588,-0.75197,-0.68291,0.70651,-1.113,-0.019668,-0.6863,-0.72957,1.3051,0.30482,-0.3763,-0.36973,-1.7401,-0.66598,-0.88252,-0.66404,-0.26985,-0.71911,2.0791,-0.3634,0.53606,-0.026884,0.18656,-1.7843,-1.1551,-0.52067,1.4285,-0.47748,0.7373,-0.54732,0.061248,0.34443,0.29703,0.88214,-0.2616,0.11852,-0.57064,1.0582
published,-0.066601,0.59438,-0.68071,-0.57313,-0.41617,0.36709,-1.3616,-1.2834,-0.16036,-0.2888,-0.19361,0.61374,-0.42678,-0.41019,1.1893,-1.008,-1.0106,-0.69389,-0.55886,0.81934,1.0556,0.15769,1.2894,0.22504,0.42763,-0.9203,-1.5778,-0.45674,-0.98914,0.46641,2.6331,-1.813,-0.085059,-0.79011,-0.95494,-0.22583,0.17997,0.11348,-0.068211,0.23217,1.1468,-0.53449,-0.22057,-0.37131,-0.25866,0.4144,-0.049894,0.55094,0.10518,-0.16974
weapons,0.5043,-0.5103,1.1051,-0.34855,0.45287,-0.02223,0.29837,-0.38938,0.763,-0.1116,-0.01414,-0.28482,-0.7061,-0.41026,0.10961,0.58832,0.56457,0.77399,-0.2342,-0.25987,0.88846,0.036477,0.47951,-1.0487,-0.92206,-2.4235,0.20313,-0.057898,1.6148,-0.20589,2.4974,-0.86523,-1.3683,-0.92385,0.7274,1.0293,0.06462,0.22207,-1.4217,0.55603,0.42244,-0.37799,1.2384,-0.29426,1.1603,-0.10497,-0.39217,1.4774,-1.226,-0.7637
wanted,0.42313,-0.085664,0.39257,-0.26436,0.91753,-0.20125,-0.79365,0.4649,-0.5998,0.16584,-0.072112,0.51557,-0.65811,-0.058332,0.86576,0.42474,0.50195,-0.13366,0.32371,-0.30759,0.069879,0.72223,0.16765,0.32189,0.0068441,-2.1866,-0.42124,-0.51454,0.26426,-0.9317,2.4987,0.36012,-1.0884,-0.40066,0.12073,-0.26807,0.0077703,-0.099351,-0.18726,-0.35652,-0.017883,0.21095,0.096117,-0.10971,0.32473,-0.31938,-0.7913,-0.05859,-0.29982,0.34184
recently,0.38306,-0.18595,0.15336,-0.041891,-0.13426,0.029778,-1.4633,-0.33357,-0.24152,-0.12116,0.25107,-0.12706,-0.46931,-0.1835,0.66127,0.32839,-0.64247,-0.017429,-0.103,0.067737,0.3842,0.31524,0.30089,-0.29682,-0.40112,-1.7654,0.082136,0.25844,-0.6726,0.16396,2.9298,-0.35573,0.19607,-0.53139,-0.08331,-0.30637,-0.20509,0.39256,-0.16279,-0.18471,-0.41573,0.36797,-0.02959,-0.17756,0.31373,-0.17234,-0.84572,0.062888,-0.48442,0.028268
texas,-1.1389,0.091966,0.21446,0.62652,-0.1462,-0.26751,-1.562,0.28762,0.41333,-0.16034,-0.97137,-0.67537,0.54321,-0.31701,-0.17978,-0.6268,-0.2967,0.23363,-0.41338,0.01201,-0.56012,-0.18485,-0.13951,0.0028572,-0.64935,-2.1038,-0.077681,-0.29024,0.37588,-0.87706,2.2688,-0.67516,-0.44354,-0.6818,0.46717,-0.70454,-0.62999,-0.029869,1.0305,-0.17831,-1.1296,0.41413,-0.17604,0.43166,-0.51009,0.79434,-0.32733,-0.35677,-0.80534,1.0604
reached,-0.086026,0.71587,0.76502,0.23411,-0.20972,-0.6371,-0.61996,0.67974,0.071081,-0.40563,0.074114,-0.46556,-0.48744,-0.41073,0.82249,0.30372,0.036151,-0.94353,-0.72981,0.13547,0.32621,0.020224,0.71374,-0.19422,0.34047,-0.87754,0.46069,-0.19113,-0.11497,0.24227,2.9781,-0.19962,0.39279,0.11264,0.029558,-0.88477,0.38536,0.12651,0.045315,-0.23449,-0.21376,-0.37919,0.78215,-0.44593,-0.80723,-0.061209,0.082581,-0.14284,-0.57858,-0.17341
investors,0.81079,-0.91728,0.79548,-0.35597,0.65834,-1.2624,-1.1024,0.56732,-0.91656,0.84187,0.0025232,0.86098,-0.21517,-0.25155,0.22024,0.8902,-0.0024734,-0.95756,-0.085916,-1.2748,1.4584,-0.24234,-0.071439,-0.40782,-0.17495,-1.3786,-0.1346,-0.0053072,-0.24312,0.2998,3.1319,0.83126,1.5339,-0.29645,-0.040128,-1.4996,-1.4643,-0.43029,0.25042,-1.4552,-0.85174,-0.3376,0.45315,0.8607,0.70069,-0.50164,-0.42114,0.86226,0.5113,0.075394
art,-0.63628,1.2969,-1.278,-0.29745,0.32062,-0.63759,-1.0316,-1.4836,-0.73537,0.7604,-0.015649,0.18866,0.11919,0.0259,0.42088,-0.26346,0.33993,0.12065,-0.30207,0.024765,1.2486,0.39136,-1.176,0.15052,0.037568,-1.0189,-1.6133,-0.53401,-0.11916,-0.85809,2.5461,-0.72314,0.38181,-1.4622,-0.58746,0.82853,-0.19443,0.92467,0.15477,0.25039,0.84462,0.075799,0.7216,-0.026482,0.27818,0.68092,0.2212,-0.71431,-0.34964,-0.033868
morning,0.12099,0.10119,-0.18065,0.20052,0.34682,-1.0604,-1.1647,0.64395,-0.33524,-0.79036,-0.55958,-1.0967,-0.14952,0.36835,0.5777,0.27746,-1.3737,-0.23306,-1.2181,-0.46396,0.91798,1.31,0.5937,0.047051,0.65399,-1.0776,0.33062,1.0118,0.27919,0.15841,3.1537,0.45444,-0.15605,0.33373,0.033046,-0.40556,0.41308,-0.28614,0.31554,0.3254,-0.44613,0.36396,-0.53107,-0.38338,0.63936,-0.079852,0.04625,-0.20362,0.41999,0.25573
previous,-0.12115,0.18013,0.19721,0.18762,-0.1283,0.62356,-0.49614,-0.29923,-0.54705,0.11355,-0.22122,-0.46243,-0.75681,-0.15068,1.2276,-0.25742,-0.71782,-0.81602,-0.78309,-0.18919,0.34296,-0.15582,0.36453,-0.70471,-0.16579,-0.70049,-0.22884,-0.45728,-0.27782,0.59443,3.3729,0.03763,0.25342,-0.17151,0.53099,-0.20249,0.5376,0.064915,-0.88783,-0.55808,-0.73646,-0.34857,0.011836,-0.061608,-0.40348,-0.11433,-0.096637,0.581,-0.16557,-0.45606
instead,0.16834,-0.072452,0.081124,-0.51142,0.36302,0.26761,-0.33017,-0.12967,-0.43045,0.036193,-0.11362,0.34919,-0.11913,0.07478,0.22611,0.22578,-0.033976,-0.0019064,-0.037438,-0.89569,0.43247,-0.14601,0.40009,-0.011041,0.10408,-1.5355,0.20654,0.14319,0.59204,-0.5744,3.2859,0.3822,-0.64248,-0.24752,0.031905,0.15967,0.082851,0.29365,-0.27896,-0.21462,0.069458,0.013307,-0.1271,0.36425,-0.11626,-0.087059,0.063919,-0.21882,-0.085911,0.0058001
teams,-0.52881,-0.032132,-0.085858,0.64089,-0.35813,-0.49465,-1.2832,0.84755,-0.35268,-1.0975,0.59391,-0.29253,-1.0941,0.19011,0.42473,-0.51049,0.76214,0.49514,-1.2991,-0.84818,-0.80853,-0.1807,0.75779,0.67283,-0.79967,-0.76924,-0.099643,-0.61877,-0.17763,-0.9422,3.2331,1.4436,-0.23268,-1.0838,0.95628,1.0439,0.099316,0.69735,-0.45783,-0.65099,-0.6058,-1.0683,0.508,0.3479,-0.071952,0.27279,0.16318,1.0406,-0.29513,-0.13426
investment,0.79548,0.4639,0.49251,0.57722,0.38213,-0.47373,-0.49199,-1.1033,0.045209,0.42666,-0.16129,0.99404,-0.48642,-0.51557,-0.26111,0.46363,1.0002,0.01715,0.30615,0.082269,1.7686,-0.55897,-0.56343,-0.86836,-0.61665,-0.9065,0.42129,-0.58382,-0.44385,0.50967,3.3706,0.65111,1.1472,0.003269,-0.30234,-1.0137,-1.4902,0.11642,0.66987,-0.52906,-0.72236,-0.4533,0.79649,-0.083997,-0.06911,-0.9742,-0.60643,0.87593,0.69828,0.97692
appeared,0.18534,-0.25215,-0.065479,-0.43871,0.023798,0.31849,-0.98185,0.34992,-0.50018,-0.0011823,-0.09111,-0.01705,-0.76311,0.44557,0.69465,-0.017416,-0.49245,-0.51069,-0.70141,-0.21009,0.058789,0.52671,0.95217,0.18467,0.081788,-1.3722,-0.5761,0.5851,-0.091629,0.022919,2.5606,-0.33919,0.3106,-0.87557,-0.1237,0.096683,0.43145,-0.1075,-1.0308,-0.74859,-0.19371,0.30385,-0.62701,-0.71865,0.19049,-0.059458,-0.35774,-0.42142,-0.075327,0.024345
fighting,0.65951,-1.0182,0.30227,-0.29145,-0.12109,-0.0027095,0.43368,0.29875,-0.023725,-0.65935,-0.27542,-1.0712,-1.1848,-0.77099,0.076184,-0.19794,0.39889,0.21147,-0.58409,0.4362,-0.90213,0.63662,0.62656,-0.092278,-0.44475,-1.5751,-0.079459,-0.50726,0.88098,0.70386,3.2172,0.48876,-0.96824,-0.058092,-0.48287,0.65347,-0.87451,-0.88172,-0.59077,0.022631,-0.58747,0.084746,-0.052803,-0.34747,0.70104,-0.18247,0.0040658,-0.10292,-1.0144,-0.56573
thought,0.42762,-0.11469,0.010506,-0.54662,0.89055,0.19263,-0.65374,0.087461,-0.6983,0.2802,0.17176,0.31886,-0.46253,-0.13414,0.6207,0.33603,0.47793,-0.046861,-0.45179,-0.32765,-0.73017,0.41449,0.56783,0.03801,1.014,-1.885,-0.94402,0.065002,0.54992,-0.46939,2.7234,-0.14071,-0.078016,-0.81424,-0.066414,-0.42336,0.0078978,0.40758,0.21245,0.1015,-0.37205,0.018199,-0.081173,0.76924,0.30367,0.051222,-0.23856,-0.034535,-0.041267,0.2594
mother,0.4336,1.0727,-0.6196,-0.80679,1.2519,1.3767,-0.93533,0.76088,-0.0056654,-0.063649,0.30297,0.52401,0.2843,-0.38162,0.98797,0.093184,-1.1464,0.070523,0.58012,0.50644,-0.24026,1.7344,0.020735,0.43704,1.2148,-2.2483,-0.41168,-0.24922,0.31225,-0.49464,2.0441,-0.012111,-0.19556,0.085665,0.27682,0.015702,0.0067683,0.12759,0.87008,-0.40641,-0.21057,0.41651,-0.021812,-0.53649,0.54095,-0.43442,-0.52489,-2.0277,0.13136,0.11704
relations,-0.016521,0.95129,-1.3065,0.81012,0.2466,0.34385,0.14495,0.16419,-0.25048,-0.80605,0.4227,0.36557,-0.79601,0.3522,-0.47669,0.38674,-0.4838,-0.56882,1.1867,0.85787,0.26355,0.549,0.00046891,-0.43378,0.17998,-1.7392,0.70115,-0.047459,0.28303,0.81784,3.0905,0.62942,-0.21938,-0.89566,-1.0777,-0.68175,-1.4813,0.46844,-0.73869,0.36628,-0.72929,-0.5632,0.49944,-0.7935,0.086222,0.16333,-0.31223,0.87028,-0.61405,0.2376
ground,0.63082,-0.27687,0.035178,0.0081741,0.61373,-0.32264,-0.29319,0.33809,0.25377,-1.144,-0.18441,-0.34475,-0.13245,-0.15085,-0.73892,0.56012,0.50134,0.12671,-1.3273,-0.75821,-0.10625,0.22865,0.51849,-0.41846,-0.16001,-1.0335,0.56691,0.93699,1.185,0.21315,3.4351,-0.11781,-0.16744,-0.35474,-0.058912,0.53705,0.061975,0.12841,-0.11677,-0.17772,0.17891,-0.46706,0.092974,0.20175,0.63448,0.47315,-0.01733,-0.16345,-0.33996,-0.46837
newspaper,-0.47585,0.14545,-0.18153,0.0012556,-0.4308,-0.85719,-1.4791,0.011847,-0.0043982,-0.40881,-0.28219,-0.64614,-0.11228,-0.21401,0.66197,-0.96041,-1.1989,0.030765,-0.18493,0.81232,0.66145,0.42566,0.67347,1.0632,-0.090093,-2.1979,-1.313,0.6602,-0.54152,0.4075,2.7918,-0.93491,0.20613,0.31661,-1.7684,-0.6531,-0.13731,-0.27842,0.027043,0.26706,1.5788,0.08793,-0.33053,-0.13058,0.18242,-0.3068,-1.5279,1.1174,0.909,-0.084493
operations,1.1591,-1.1999,0.072653,0.58819,-0.29679,-0.51001,-0.49371,0.017692,1.0616,-1.0094,0.52709,0.2727,-0.84104,0.093769,-0.7347,-0.15335,-0.098236,0.4887,-0.64312,0.22995,1.0776,-0.26086,-0.24341,-0.62283,-1.2898,-1.1614,-0.060444,-0.5854,0.83077,0.38283,3.4401,-0.045679,-0.28183,-0.34913,0.10207,0.426,-0.40933,-0.19524,-0.054891,0.66443,-0.49009,-0.23305,0.44956,-0.70954,-0.093103,-0.57026,-0.17424,0.5907,-0.54211,0.99565
eastern,0.40081,0.19372,-0.51866,0.50277,-0.12414,-0.58123,-0.46133,0.43202,-0.2998,-1.3866,0.1147,-1.2037,0.64928,-0.53586,-0.74392,0.36831,0.021331,0.11855,-0.97933,1.0688,-0.43277,-0.53117,-0.026156,1.012,-0.29177,-1.5475,0.0028917,0.19979,0.10492,-0.21727,3.3505,-0.20198,0.31048,-0.12792,0.092175,-0.035877,-1.1698,-0.46157,-0.097599,0.84595,-0.56137,0.45418,0.89953,-0.86914,-0.23323,1.0018,0.043075,-0.11074,-0.50305,-0.93309
wrote,-0.14322,0.41784,-0.71109,-0.80144,0.23254,0.42403,-0.96247,-0.22097,-0.56172,0.05123,-0.67761,1.054,-0.56178,-0.29984,0.96896,-0.9047,-0.16683,-0.68983,0.12317,0.16835,0.4932,0.72957,0.76032,-0.133,1.0246,-1.631,-1.1863,-0.30344,-0.86531,-0.10931,2.1305,-1.5092,0.26075,-0.60289,-0.63296,-0.5171,0.21709,0.12828,0.079098,0.34594,0.62657,0.66368,-0.27535,-0.3239,-0.16632,0.16957,-0.4843,0.17137,-0.40636,0.86324
fight,0.18081,-0.88943,-0.056444,0.27761,-0.034368,0.021453,0.65907,0.46379,0.39876,-0.068031,-0.34704,-0.15171,-1.0866,-0.20378,0.52666,-0.26863,0.65746,-0.14551,-0.52916,-0.15447,-0.58662,-0.013325,0.27604,-0.19283,-0.35384,-2.1461,0.18328,-0.90695,0.72437,0.23069,2.7465,0.86624,-1.2765,-0.38499,-0.9856,0.13895,-0.49444,-0.29634,-0.47713,-0.91626,-0.64034,0.1089,-0.23269,0.036234,0.73764,0.12653,-0.18742,-0.92146,-0.54002,0.38856
currently,0.14187,0.34101,0.22135,0.13366,-0.035214,0.073338,-0.77262,-0.31715,0.20828,-0.28528,0.82118,-0.34021,0.08362,0.061514,0.4288,-0.13073,0.28256,0.95683,-0.3306,0.33335,0.12265,-0.2138,0.16826,0.86083,-0.87506,-1.037,0.70765,-0.34825,-0.96069,0.31853,3.2073,-0.038164,0.21797,-0.48963,0.35032,0.21919,-0.0014763,0.56482,-0.11552,-0.46049,-0.017834,-0.043249,0.5594,-0.19607,-0.74389,0.16401,-0.52665,0.24601,-0.44494,0.17612
charges,0.36718,-0.4415,0.29724,0.59774,0.35744,1.0793,0.77628,0.24601,-0.10342,0.33912,-0.76236,-0.038718,-0.95263,-1.0532,1.3205,-0.75045,-0.7542,-0.25889,-0.11054,-0.31012,1.0829,0.44401,0.28254,-0.13869,-1.5387,-2.7989,0.97396,-0.21325,0.20631,-0.019149,2.179,-0.61544,-0.5408,-0.87833,0.48379,-0.10477,-0.056333,-0.63607,-0.16596,-0.19098,-0.0030043,0.8513,0.79959,0.74245,0.1067,-1.1042,-0.87766,0.5192,0.6824,-0.51413
brought,0.29512,-0.09585,-0.34468,-0.4089,0.052098,0.19347,-0.77608,0.3332,-0.02307,0.14448,0.0028184,0.18303,-0.44541,-0.36227,0.56302,-0.30079,-0.12598,-0.25847,-0.62519,-0.39175,0.1815,0.42385,-0.16616,-0.70799,0.06296,-1.629,-0.23655,-0.169,0.27912,0.28091,2.7496,0.10132,-0.080554,-0.48423,-0.15035,0.29297,-0.19778,-0.088989,0.11606,0.019851,-0.46274,0.46882,-0.035094,-0.12612,0.1943,0.17259,-0.48478,-0.41429,-0.33108,-0.64237
fact,0.43666,0.097502,-0.065316,-0.23751,0.68035,0.36622,-0.28906,0.0557,-0.27461,0.129,0.079198,0.22672,-0.37822,-0.4637,0.79157,0.34331,0.15961,-0.22651,0.071115,-0.48082,-0.39542,0.081055,0.31266,0.01611,0.63739,-1.8251,-1.0641,0.25884,0.52093,-0.069767,2.8926,-0.094546,0.16372,-1.0875,-0.019584,-0.34687,-0.10579,0.20496,-0.40382,-0.17284,-0.20971,0.031404,0.015233,0.40346,-0.11348,-0.0018636,-0.33541,0.47479,-0.050457,0.19994
rates,0.039516,0.1661,0.81409,-1.4504,-0.14845,0.073889,-0.2438,-0.3433,0.41902,0.68477,0.36499,-0.051736,0.46768,-0.28272,0.86439,1.2549,-0.40841,-1.3689,0.050282,-0.3995,0.82278,-1.1804,-0.2579,0.34308,-0.28327,-1.3141,0.61431,0.0047396,0.22355,1.276,3.4325,0.85389,1.1194,-0.18981,0.51273,-1.2968,-0.15964,-0.44344,0.56736,-0.96352,-1.3003,0.092828,0.5441,0.55348,0.22408,-0.70296,0.87953,0.55588,1.2086,0.69609
thousands,1.1515,-0.39703,0.9735,-0.83455,-0.14785,-0.47469,-0.98629,0.44072,0.10985,0.0073914,-0.4569,-1.2794,1.0253,-0.5337,1.0906,-0.36994,-0.0017323,-0.012934,-0.20921,-0.80484,0.30218,0.29622,0.043949,-0.062642,-0.011756,-1.2806,-0.23914,-0.50524,0.28103,-0.31305,3.0938,0.68201,-0.38915,-0.59624,-0.68694,0.79195,-0.15878,-0.79453,-0.20664,0.45275,-0.42613,0.35096,0.5505,0.2591,0.71832,-0.053633,-1.061,-0.46405,-0.92481,-1.6236
rather,0.43322,-0.18439,-0.45479,-0.67072,0.66559,0.39624,0.11252,-0.043294,-0.44325,0.266,-0.070082,0.3256,0.069081,0.18666,-0.034536,0.21853,0.1559,0.039244,0.23896,-0.89876,0.16206,-0.052229,0.081802,0.1519,0.2947,-1.4937,-0.55131,0.28958,0.88871,0.030314,3.543,0.095068,-0.14999,-0.70637,-0.11725,0.067027,-0.22411,0.26589,-0.64247,-0.43898,-0.11243,-0.21821,0.0094143,0.82167,-0.095239,-0.11982,0.13501,0.080906,0.052606,0.21056
thing,-0.0086751,0.20393,-0.2809,0.038613,0.98161,-0.0065281,-0.23104,0.12747,-0.12763,0.45125,-0.54445,0.43703,-0.83501,0.33646,1.054,0.31061,0.89539,0.35598,0.0463,-0.61359,-0.75673,0.4372,0.041877,0.40898,1.0622,-1.9429,-1.5851,0.46778,1.3873,-0.76793,2.746,0.44763,-0.2672,-0.2175,-0.27831,-0.12655,-0.069537,0.28552,0.22963,-0.49098,-0.57948,0.10878,-0.23209,0.64553,0.027521,0.44922,0.048379,0.085849,0.14412,1.0824
accused,0.076672,-0.74327,0.40426,-0.0028174,0.26739,0.91102,0.02714,0.23836,-0.41702,0.051751,-0.3903,-0.0055837,-1.1348,-0.36851,0.324,-0.80569,0.13387,0.13551,0.44905,0.32484,0.519,1.1388,0.51372,0.0030746,-1.0101,-2.8552,0.85656,-0.37029,-0.29107,0.041071,1.8556,-0.20254,-0.79022,-0.89699,-0.42234,0.19972,-0.74824,-0.56596,-0.49884,0.24,0.05081,0.80552,0.54075,0.044482,0.75372,-0.86141,-1.8401,0.41013,0.56435,-0.97504
winning,-1.3709,0.82909,0.030153,0.61252,0.051273,0.43582,-0.81314,0.60847,-0.30016,0.70413,-0.39264,-0.66554,-1.1384,0.31659,0.73581,-1.0594,0.97538,-0.33993,-1.515,-0.31617,-0.30623,0.099122,0.27515,-0.16787,0.23592,-1.4996,-0.49693,-0.62729,-0.21559,-0.20817,2.5386,1.011,-0.42432,0.19068,0.25296,-0.204,0.023421,1.5494,-0.40401,-1.473,-0.088882,-0.22735,-0.3192,-0.053057,-0.92548,0.37826,-0.18645,-0.15123,0.12836,-0.17395
championship,-1.6398,0.67066,-0.52054,1.8938,-0.62694,-0.24374,-0.6693,0.72426,-0.57842,-0.73022,0.47189,-0.55049,-2.1217,-0.20928,0.97964,-0.10349,0.67957,0.54492,-2.1914,-0.59415,-0.61477,-0.58172,0.28259,0.53686,-0.77456,-1.0507,-0.6455,-0.5435,-0.65596,-0.4155,2.1558,0.9926,-0.72329,0.062054,0.75527,-0.17231,0.15207,0.78698,-0.52967,-1.6436,-0.70235,-1.3254,-0.26715,-0.064496,-0.5358,0.5662,0.34684,-0.42908,0.075721,-0.59188
performance,-0.50986,0.28758,-0.41286,0.18405,-0.038266,0.010596,-0.083871,-0.19228,0.073327,1.3219,0.35618,-0.064267,-0.90682,0.1474,0.19528,-0.63338,-0.11165,0.15256,-0.68727,-1.1407,0.35791,0.39082,-0.30861,-0.68713,0.40257,-0.60808,-0.79529,-0.0090754,-0.32779,0.03577,3.4517,0.62725,1.0889,-0.88206,0.64118,0.018994,0.79542,0.81287,-0.47404,-0.91343,-0.31819,-0.20503,-0.54741,-0.49252,-0.1483,-0.094014,0.33103,0.33508,0.13401,1.0052
allowed,0.10289,-0.24013,0.39074,-0.032014,0.081459,-0.042678,-0.63224,0.52089,-0.27584,-0.056162,0.15395,0.3342,0.015407,0.036289,0.53005,0.17534,0.28165,-0.8319,-0.25911,-0.54327,0.012357,-0.27165,0.087227,-0.059924,-0.13022,-1.3516,0.86036,-0.92887,0.59762,-0.68959,3.137,0.41082,-0.77892,-0.34251,0.16286,0.090066,0.58855,0.20332,-0.21942,0.26959,-0.042266,-0.12737,0.44051,0.85051,-0.36565,-0.30921,-0.38347,-0.15894,-0.37644,0.0062395
showed,-0.086189,-0.13341,0.72188,-0.074082,0.48125,0.3308,-0.81746,-0.13333,0.34035,0.13655,0.54579,-1.0836,-0.41566,-0.12365,0.32473,-0.15844,-1.0041,-0.77943,-0.59669,-0.68211,-0.13102,0.57654,0.68376,-0.91724,0.084434,-1.2857,-0.86709,0.70777,-0.36083,0.27499,2.7763,0.45847,0.63529,-1.1435,-0.21538,-0.30439,0.28394,0.36741,0.16178,-0.36332,-0.11463,0.25663,-0.25957,-0.23922,0.5092,-0.60598,-0.39565,0.50416,0.42499,-0.32608
light,0.0062958,0.47249,-0.073297,-0.0060334,0.36752,-0.22067,0.47872,-0.33874,0.091716,0.09293,0.40365,0.030591,0.29251,0.30817,-0.78066,0.32136,-0.69529,0.27155,-1.5156,-1.7707,0.35877,-0.11012,0.40589,-0.7165,-0.066692,-1.0795,-0.67795,1.0202,1.0186,0.29357,3.059,-0.023482,-0.10365,-0.82797,0.28177,-0.16825,0.20761,-0.085368,-0.46009,0.057375,0.33407,0.23124,0.054707,-0.34894,0.075528,0.53281,0.22283,-0.95259,-0.028099,-0.054563
arrested,0.19559,-0.55576,0.61139,0.046953,0.66116,-0.091818,-0.58938,0.55277,-0.40986,-0.11867,0.017602,-0.78058,-0.67134,-0.11441,1.3092,-0.84846,-0.56879,-0.061367,-0.75487,0.78567,0.57901,1.1129,0.61788,0.81485,-1.0994,-2.3932,0.93445,-0.67738,-0.35495,-0.19559,1.657,-0.6426,-0.66103,-0.69173,0.71123,0.18964,0.25299,-0.59793,-0.021037,0.82434,-0.51974,0.91939,0.89986,0.099114,0.92447,-1.3057,-1.3929,-0.48413,0.74071,-0.98796
offer,1.0685,0.67702,0.12728,0.26755,0.14107,-0.10997,-0.99775,-0.16944,-0.097028,0.77214,-0.23949,0.27231,0.41634,-0.41062,0.18607,0.72353,-0.046087,-0.21078,0.29083,-0.88879,0.89093,0.59966,-0.39714,-0.093733,-0.41351,-1.0497,0.094512,-0.3727,-0.20549,-0.40903,3.3661,0.93074,-0.5522,0.32474,0.73872,-0.6526,-0.12432,0.078921,-0.40239,-0.80085,0.62803,-0.06116,0.28775,0.68145,-0.13833,0.037856,-0.40941,1.5338,-0.33182,0.40558
products,-0.02423,-0.50668,0.017019,0.88196,-0.20583,0.74271,-0.8573,-1.8651,1.1833,0.84802,1.0602,0.43697,0.49105,-0.57901,0.40505,0.96891,-0.51347,0.4193,0.58061,-1.3767,1.2911,-0.71152,0.3065,-0.2923,-0.95094,-0.78312,-0.65784,-0.050478,0.7743,-0.21563,3.3935,0.12013,0.30494,0.10172,0.32306,0.060989,-0.40816,1.1324,0.14183,-0.080548,0.42721,-0.17917,0.84038,0.051852,1.3751,0.83524,-0.72435,0.523,0.21312,0.058294
airport,1.5719,0.58655,0.16413,0.35197,-0.36115,-1.6337,-0.62805,0.11577,0.34076,-0.61184,0.41981,-0.57607,-0.30551,-0.56476,-0.067369,0.82933,-0.71416,0.9558,-1.4037,-0.022304,0.8973,0.94519,-1.2876,0.25695,-0.31936,-1.7324,1.1564,1.1183,0.23981,-0.37644,1.9239,0.75797,-0.34853,-0.71668,0.42265,-0.28627,0.95813,-0.29014,-0.029019,1.5081,0.15,1.0292,0.82773,-0.30834,-1.1597,-0.13498,-0.41566,-0.29748,0.56497,-0.073029
nothing,0.34784,0.037246,-0.26159,-0.12038,0.69783,0.0097814,-0.053437,0.34871,-0.3859,0.5132,-0.4509,0.27192,-0.56817,-0.3929,1.1978,0.46452,0.40148,-0.059308,0.060793,-0.51525,-0.37824,0.55126,0.35788,-0.17009,0.66772,-1.9608,-1.0043,0.61168,1.2771,-0.56892,2.8484,0.12551,-0.47918,-0.4747,-0.39021,-0.1898,0.19841,0.11168,-0.063065,-0.32476,-0.13437,0.039212,0.045362,0.48573,0.00070067,-0.030081,-0.39158,0.38308,0.079273,0.48636
officer,0.048403,-0.60703,0.19108,0.18007,1.2004,-0.38643,-0.34321,0.39655,0.1951,-2.0934,0.39803,0.72219,-1.3195,-0.25446,-0.12097,-0.65,-0.77295,0.78416,-0.68292,-0.12336,0.33054,0.85368,-0.19965,-0.35512,-0.70488,-2.1958,0.043192,-0.61629,-0.52754,0.50451,2.0258,-0.68392,-0.12524,-0.76935,0.4499,0.42726,0.0019608,-0.4774,0.70645,0.31818,0.16379,0.72187,-0.0033517,-0.42225,0.22137,-0.97757,-0.42858,-0.14924,0.22345,1.057
allow,0.62927,-0.25571,0.61511,-0.12424,-0.22326,-0.019988,-0.34137,0.24082,0.4302,0.041931,0.37339,0.29905,0.40684,0.22854,0.17312,0.99225,0.27498,-0.59348,0.70155,-1.0919,0.48748,-0.11429,-0.092301,0.090279,-0.23487,-1.4832,0.59826,-0.62279,0.42451,-0.30003,3.3834,0.38444,-1.3503,-0.48332,0.13195,-0.043618,0.36227,-0.13322,-0.49329,-0.078824,0.04191,0.083937,0.62471,0.63043,-0.26146,-0.34237,-0.10871,0.1334,-0.4195,-0.12049
created,0.4521,0.075371,-0.27812,0.030258,-0.16044,0.55984,-0.63378,-0.80405,-0.15796,-0.1728,0.15152,0.59145,-0.27367,-0.046148,0.24663,-0.029588,0.27138,0.13337,-0.20652,-0.18394,0.48383,-0.53663,-0.14832,-0.19585,-0.28481,-0.88135,-0.95886,-0.48469,-0.10663,0.22646,2.8832,-0.60668,-0.12738,-1.2096,-0.53356,0.51694,-0.17597,0.062577,-0.049031,-0.24003,-0.037014,-0.02345,-0.3539,-0.36647,-0.62294,0.44251,-0.26172,-0.67531,-0.20786,-0.21106
islamic,-0.052249,-0.46765,-0.23405,-1.115,0.92089,-0.53527,0.46721,-1.2199,0.32016,0.59603,-0.054136,-1.1272,-0.63175,0.48077,-0.96195,0.34968,-0.024873,-0.58627,0.26942,1.6258,0.050208,0.71755,0.40984,0.3894,-1.208,-2.3698,-0.4418,-0.78942,-0.65603,0.51364,2.9621,-0.007743,-1.1932,-0.12402,-0.29849,0.056768,-0.36953,-0.83363,-1.2145,1.1519,-0.35427,-0.1138,-0.20397,0.63562,1.0765,0.22059,-0.81825,0.45348,-0.15982,-1.8111
beat,-1.5236,-0.26458,0.27174,0.82746,-0.098719,0.040697,-0.56075,1.149,-1.0156,0.46597,0.14546,-0.7258,-0.77743,-0.090818,-0.12601,-0.56871,0.41002,-1.1349,-1.3759,-0.023665,-1.1283,-0.079087,0.23578,0.28633,0.20833,-1.6574,0.35552,-0.48238,0.17717,-1.3363,2.3631,1.1649,0.39943,0.47287,-0.25937,-0.23877,0.077147,0.81082,0.49718,-1.1624,0.66559,0.030266,0.42841,-0.76773,0.90456,1.4282,-0.34382,-0.84619,0.35737,-0.35665
analysts,0.58165,-0.72457,1.501,0.11053,0.27337,-0.80426,-0.79339,-0.3162,-0.61793,0.34693,-0.18947,-0.36321,-0.8551,-0.24841,0.44705,0.96461,-0.095559,-1.0953,-0.32462,-1.0336,0.56706,-0.3825,0.27457,-0.81999,-0.03177,-1.2148,-0.76527,0.10003,-0.56244,1.2163,2.8721,0.30375,0.91792,-0.21436,-0.0067791,-1.8621,-1.0657,0.092212,0.036787,-0.75062,-0.57268,0.21603,0.138,0.18219,0.55424,-0.11229,-0.2625,1.7667,0.040091,0.56475
shows,0.079654,0.78386,-0.13076,0.15505,0.20137,0.29517,-0.7638,-0.78499,0.20597,0.2997,-0.23401,-0.39232,-0.15761,0.43687,0.86791,-0.098061,-0.29782,-0.19469,-0.54432,-0.27898,0.65206,0.31559,0.67627,0.46314,0.12583,-0.83649,-1.398,0.28385,0.24323,-0.1781,2.8787,0.43399,0.27244,-1.1603,-0.29066,0.1242,0.18668,-0.21057,-0.86041,-0.49999,-0.19055,0.21498,-0.54196,-0.3615,0.075854,-0.24653,0.21675,-0.1175,-0.098727,0.57669
investigation,1.252,-0.61414,-0.32648,0.70506,-0.075753,0.37693,-0.057267,0.5249,0.93365,-0.82696,-0.58949,0.035164,-1.495,0.011154,1.0813,-0.67989,-0.54568,-0.26465,0.0084573,-0.13989,0.91637,0.44943,0.11898,-0.51478,-0.68206,-2.5211,-0.024897,0.25036,-0.52294,0.18746,2.2091,-1.1696,-0.69227,-1.7039,0.033632,0.14221,-0.081491,-0.27491,0.55344,-0.17341,-0.57096,0.10764,0.3689,0.17867,0.10024,-0.90984,0.024629,1.3539,0.55869,-0.11607
written,-0.10274,0.44318,-0.62913,-0.55198,0.17975,0.89195,-0.7882,-0.6696,-0.7988,0.2288,-0.39812,1.3683,-0.15623,0.015956,1.0666,-0.8636,-0.22175,-0.73444,0.29179,-0.0076159,0.38245,0.42882,0.91511,0.19922,0.97812,-0.94606,-0.99391,-0.4051,-0.89268,-0.61873,2.8765,-1.7996,-0.018694,-0.42744,-0.12641,0.072925,0.87148,-0.27573,-0.51512,0.23708,0.87694,0.5183,-0.3854,-0.43282,-0.55922,0.053511,0.061995,0.23762,-0.53612,0.35509
throughout,0.099415,0.063893,-0.65517,-0.31035,-0.54867,-0.31378,-0.75248,0.11362,0.029626,-0.23832,0.054125,-0.6937,0.019753,-0.25373,0.12972,-0.16954,-0.40668,-0.25018,-0.36012,-0.32704,0.15759,0.041711,0.39897,0.53711,0.058105,-0.8139,-0.39827,0.077777,0.2354,0.27001,3.6635,0.35466,0.81482,-1.1884,-0.29611,0.5244,-0.45087,0.13699,-0.93812,0.4332,-0.45985,0.13347,-0.069847,0.097409,-0.073005,0.55471,-0.13301,-0.47559,-1.057,-0.60987
established,0.083877,0.14873,-0.80328,-0.24779,-0.10944,-0.11647,-0.87871,-0.43654,0.015808,-0.61117,0.83698,0.39583,-0.1244,-0.36991,-0.43331,0.23538,0.14534,0.2862,0.00098344,0.74532,0.7003,-0.34758,-0.29388,0.17333,-0.51236,-1.2029,-0.35278,-1.1695,-0.61088,0.18471,3.0157,-0.67365,-0.45001,-1.0056,0.034002,-0.026611,0.0097914,0.55304,-0.19343,0.44712,-0.33502,-0.91209,0.19758,-0.035535,-0.77284,0.28167,-0.6852,-0.62592,-0.36489,-0.22197
associated,0.23032,1.0919,-0.029497,0.749,-0.17768,0.22918,-0.38591,-0.15044,0.25437,-0.35935,0.42707,0.056076,-0.3842,-0.35789,0.35419,0.45716,-0.15932,-1.0055,0.25288,0.0078635,-0.031715,0.16926,0.90977,0.36871,0.04203,-0.81182,-0.81018,-0.40931,-0.2312,0.50252,2.6289,-0.57009,0.87378,-1.6698,-0.13101,0.28056,0.040286,-0.12814,0.23653,1.2403,0.29779,0.94279,-0.057406,-0.17155,0.96692,-0.055877,-0.48754,0.25528,0.12889,0.10638
firm,0.24036,-0.38171,0.21056,0.8893,0.4355,0.21804,-1.1048,-0.17282,0.14027,-0.17494,-0.061331,0.44361,-0.95753,-0.45299,-0.69407,0.051592,0.10564,0.12575,0.063482,-0.63675,1.6124,0.53948,-0.53205,-0.72427,-1.0112,-1.3614,-0.069348,-0.36017,-0.37007,0.33496,2.6422,-0.67939,0.29943,0.015705,-0.31135,-1.153,-1.0361,0.34499,1.1163,-0.68342,0.83751,-0.64095,0.27233,0.17424,0.18893,-0.17272,-0.77669,0.64772,-0.10046,0.7096
forced,0.45948,-0.83214,0.25476,-0.71577,-0.72424,0.22032,-0.54535,1.1399,-0.49644,-0.39978,0.24677,0.22717,-0.38233,-0.4556,0.85199,0.30928,-0.18325,-0.6004,-0.35802,-0.37242,0.084188,-0.11378,-0.2802,-0.24888,-0.11702,-1.814,0.62056,-0.58497,0.64899,0.17487,2.8313,0.51153,-0.57119,0.045014,-0.2601,0.55247,0.1622,-0.39636,0.24816,-0.10749,-0.57996,0.27654,0.34277,0.30159,0.069926,-0.41424,-0.35395,-0.479,-0.25559,-0.53686
includes,0.38638,1.1906,-0.4344,0.61551,-0.047201,0.46344,-0.75614,-1.2006,0.56059,-0.20748,-0.60511,-0.20593,0.55681,0.12262,-0.011694,-0.44974,0.033038,0.15191,0.02849,-0.40473,0.23066,-0.19968,-0.4154,0.32774,-0.84981,-0.38282,-0.42357,-0.15588,-0.57379,-0.3143,3.3325,-0.33302,-0.030412,-0.15434,0.60158,0.58352,0.14429,-0.11708,-0.35851,0.055946,0.22185,0.44481,0.26799,-0.12774,-0.15297,0.4947,-0.011512,0.16033,-0.50218,0.29985
chance,0.20291,0.18563,0.28683,-0.1999,0.82266,-0.1036,-0.52124,1.1258,0.16914,0.70616,-0.11666,-0.087966,-0.65555,0.12769,0.57949,0.16548,1.1873,-0.86613,-0.58879,-0.54778,-0.47461,0.18641,0.040801,-0.10423,0.67003,-1.6063,0.028459,-0.3755,0.47073,-0.60903,2.8377,1.236,-0.8572,-0.18284,0.19663,-0.15048,0.051983,0.91864,0.13361,-1.1994,-0.25596,-0.081271,-0.18416,0.23486,-0.31326,0.29756,0.18222,0.075321,0.0563,0.022005
elected,-0.77998,-0.069601,0.050275,-0.80286,0.64383,0.19415,-0.31318,0.46696,-1.2466,-1.1845,-0.03205,0.045509,0.15273,0.27541,-0.12616,-0.056141,0.16417,0.099531,0.30474,0.086854,-0.00034491,-0.35185,0.73589,0.17506,-0.5117,-1.7275,0.30728,-1.0252,-1.4789,0.9823,2.1224,0.042598,-1.7079,-0.97602,0.20096,-0.58842,0.35012,0.55528,0.057192,-0.32023,-1.1935,0.32652,-0.96545,-0.14734,-1.9532,0.56545,-1.6795,-0.80374,0.42385,-0.035514
reach,0.36279,0.71732,1.1818,0.061713,0.2001,-0.39,-0.18186,0.6298,0.36646,-0.019654,-0.11466,-0.76819,-0.086181,-0.14782,0.38544,0.4907,0.78895,-0.57657,-0.44039,-0.35737,-0.16669,0.083193,0.22002,0.11741,0.59303,-0.81787,0.42138,-0.37836,0.2899,-0.24902,3.2313,0.76403,-0.19485,0.15516,0.14373,-0.68067,-0.065159,0.28385,0.011223,-0.72018,-0.21715,-0.47181,1.0406,-0.27062,-0.54846,0.2153,0.35283,-0.060723,-0.55183,-0.17934
finished,-1.1949,0.053218,0.0030949,0.49563,0.57818,0.042034,-1.2279,0.25836,-0.33761,-0.39673,0.079452,-0.89202,-1.4982,-0.058857,0.71391,-0.67704,0.2267,-0.57716,-1.5764,-0.45055,0.0014016,0.012867,0.46676,-0.39326,0.37497,-0.52088,0.36526,-0.25051,-0.20507,-0.51208,2.3764,0.40081,0.061953,0.51025,0.70958,-0.31011,0.41574,1.9773,-0.027932,-0.46308,-0.60173,-0.9249,0.12924,-0.47676,-0.30161,0.14408,0.46172,-0.55003,0.41548,-0.34975
serious,0.62999,0.26082,-0.50013,0.060337,-0.35979,1.1345,0.59982,0.67181,0.42182,0.17256,-0.32658,-0.075708,-0.90533,-0.2038,0.90723,-0.15516,0.23273,-0.037594,-0.040542,-0.24925,-0.49792,0.45037,0.075325,-0.21659,0.55145,-1.9198,-0.44356,0.13306,0.68516,0.80599,3.2151,0.33437,0.33525,-1.177,-0.24061,0.42343,0.13495,-0.15265,0.0010865,-0.24153,-0.77736,0.24175,0.23548,0.50138,0.78161,-0.028669,-0.34097,1.0458,0.32184,0.22979
tournament,-0.88953,0.63058,-0.82473,1.7096,-0.44217,-0.64059,-0.062663,1.2849,-0.015872,-0.34241,0.183,-1.0086,-1.2333,0.11335,1.7202,0.010418,0.66763,0.14544,-1.7312,-0.13564,-0.59173,-0.30289,0.24262,0.40973,-0.25839,-0.97564,-0.26657,-0.40007,-1.1186,-0.49614,2.5761,1.0775,0.0091295,0.45583,0.32428,0.10288,0.72513,1.4971,-0.43629,-1.7964,-0.5283,-0.77145,0.15017,0.43971,-0.16645,0.42542,0.35469,-0.098881,-0.58181,-0.096291
officers,0.17061,-0.8861,0.46261,-0.85139,0.84165,-0.74005,-0.00085043,0.60435,-0.53218,-1.8389,-0.069228,-0.35017,-0.25133,-0.14641,0.0001466,-1.0045,-0.71136,0.49728,-0.5584,-1.0552,0.18729,0.87214,0.28528,-0.066598,-1.154,-1.9567,0.20909,-0.49264,-0.32521,-0.26837,2.592,0.28145,-0.48766,-1.5415,0.67767,1.0561,0.41882,-0.86797,-0.12815,0.59035,-0.34157,0.4006,0.99477,0.33825,0.298,-1.2398,-0.66031,0.17128,-0.012229,-0.25675
immediately,0.7172,-0.50492,0.21984,-0.30208,0.19903,-0.083179,-0.58772,1.1666,-0.29177,-0.5886,0.27334,0.19478,-0.33608,-0.38698,0.59427,0.54657,-0.40463,-0.55764,-0.22545,-0.49183,0.41985,0.27288,0.46812,-0.13985,0.21151,-1.815,0.45912,0.33882,0.12157,-0.33507,2.9047,-0.13361,-0.72852,-0.48285,-0.047323,-0.1808,0.71836,-0.20453,-0.10711,-0.048934,0.037972,-0.010714,-0.24383,-0.32205,0.031772,-0.26141,-0.45491,0.15996,0.10173,-0.22334
increased,0.056967,0.036951,0.8027,-0.60235,-0.15719,0.6519,0.15744,-0.7587,0.81027,0.37264,0.81025,-0.68912,0.12498,-1.1833,0.18283,0.19986,-0.48307,-0.31669,-0.4739,-0.54838,0.56868,-0.73739,0.087191,-0.75855,-0.62431,-0.82797,0.39979,-0.31445,0.4165,1.3801,3.65,1.0065,0.92891,-0.59157,0.098898,-0.57141,-0.32251,-0.027871,-0.020106,0.22017,-0.69621,0.15183,0.35161,-0.19007,-0.15439,-0.59024,-0.16544,0.29957,-0.13177,0.071388
meanwhile,0.18703,-0.26911,0.6494,0.12131,0.36601,-0.4452,-0.88538,0.39505,-0.38149,-0.53163,0.094998,-0.4014,-0.38125,-0.12396,0.18982,0.29999,-0.17167,-0.53452,-0.047074,-0.29339,0.38264,0.41194,0.27094,-0.40295,-0.072119,-1.4962,0.57601,0.16318,-0.66984,0.45917,2.7247,0.24935,0.093601,0.071995,-0.12255,-0.4028,-0.40556,-0.03286,0.083179,-0.11942,-0.17304,0.61718,0.07644,-0.90894,0.84106,-0.091384,-0.72976,0.38242,0.10325,-0.095038
records,-0.7431,0.32944,0.27683,0.42189,-0.57555,-0.071554,-1.1739,0.22748,1.0866,0.46412,0.37965,0.60285,-0.5996,0.035822,0.86084,-0.42616,-0.86164,-0.51118,-0.20983,-0.15976,0.36218,0.013198,0.75508,-0.26193,-0.52993,-0.85421,-1.717,-0.40772,-0.09149,-0.6998,2.7036,-1.064,0.18467,-0.40747,-0.11576,0.20715,0.83361,-0.75333,0.33722,-0.7898,0.18105,-1.0091,-0.16179,0.24737,-0.62759,-0.22021,-0.12645,-0.33641,-0.40344,-0.73523
heart,0.83107,0.89355,-0.15356,-0.62906,-0.21052,1.1233,0.36573,0.52539,0.84858,0.7195,0.3634,-0.42949,-0.25525,0.095809,-0.097476,0.60785,-0.61078,0.005744,-0.20188,0.39034,-0.53284,0.67998,0.041442,-0.063156,0.38967,-1.8203,-1.0337,0.40151,0.24797,-0.13607,2.9198,0.45867,0.31241,-0.23788,-0.27991,0.12734,0.92298,0.2459,1.3024,-0.22881,-0.36346,0.082996,-0.50646,0.18301,0.75422,0.65287,-0.12559,-0.75379,-0.33635,0.087592
champion,-1.9159,1.0796,0.24332,1.8538,-0.13691,0.47247,-0.46517,0.9396,-0.27573,-0.22224,0.90494,-0.31801,-2.0171,-0.037777,1.1155,-0.3905,0.98565,0.12626,-1.5546,-0.416,-1.6988,-0.012479,-0.21559,-0.038084,0.64387,-1.8098,0.064928,-0.92187,-0.73749,0.053487,1.605,0.53539,-0.1642,0.60776,-0.12477,-0.43682,-0.074933,1.7582,-0.37392,-1.2926,0.12977,-0.090068,0.49745,-0.28761,0.55375,0.068843,-0.34886,-1.4297,-0.032107,-0.43507
terms,-0.13904,0.42043,-0.53412,-0.12861,0.65239,0.47077,0.19385,-0.30161,-0.5602,0.32973,0.16424,0.43864,-0.14502,-0.31357,0.41598,-0.0022815,-0.040335,-0.32623,0.37683,-0.31494,0.20484,-0.33379,-0.093126,-0.15238,-0.29138,-1.2608,-0.11347,-0.068632,0.41882,0.61743,3.4452,-0.20467,-0.28479,-0.61239,0.63146,-0.571,-0.10118,0.16337,-0.71514,-0.21652,-0.41741,-0.25815,0.42439,0.5217,-1.2152,-0.33348,0.079441,1.183,-0.032272,0.38064
worth,0.40404,0.38785,0.53397,0.050586,1.0592,-0.19771,-0.73748,-0.96401,0.10416,0.64309,-0.89613,0.24857,0.50513,-1.1126,1.5832,-0.4188,-0.29467,0.74204,-0.65587,-0.10727,1.0485,0.014371,-0.29496,-1.0849,-0.13987,-1.267,-0.0055735,-0.15354,0.5994,-0.85121,2.957,0.34914,0.50162,1.0832,0.22413,-0.18622,-0.27975,0.3788,0.30698,-0.4996,0.11265,0.01807,1.1316,0.38496,-0.74253,0.087778,-0.71134,0.84719,-0.55723,0.30022
caused,0.95438,-0.21933,0.37692,0.012643,-1.1072,1.1705,0.28609,0.75092,0.31291,-0.069702,0.33761,-0.17142,-0.13119,-0.45271,0.76686,0.3108,-0.55738,-0.3599,-1.0578,-0.54042,-0.082993,-0.55569,0.137,-0.67408,0.4995,-1.4649,-0.30993,0.39297,1.0288,1.1618,3.0056,-0.0389,0.75848,-0.87,-0.68416,0.2921,0.23006,-0.81213,0.79437,0.47468,-0.81794,0.48096,-0.023581,0.14669,0.70364,0.28162,-0.28642,-0.061985,0.29997,-0.57997
issued,-0.10953,-0.048526,-0.19334,0.027005,-0.16382,-0.44512,-0.53065,-0.13978,0.053415,-0.45677,-0.02799,0.40959,0.36418,-0.29037,0.62373,-0.25014,-1.6368,-1.3066,0.20224,-0.23917,0.76329,-0.22549,0.34008,-0.9925,-0.82573,-1.6773,-0.16235,-0.081982,-0.99816,-0.044483,2.6156,-0.68146,-0.59436,-0.36896,0.12606,-0.52822,1.0741,-1.0957,-0.71339,-0.10487,0.15154,0.1293,0.18404,-0.50173,-0.23142,0.10273,-0.98713,1.0852,0.11324,-0.26453
claimed,0.51494,-0.35458,0.59961,0.4536,0.25904,0.79656,-0.49776,0.47776,0.0076606,-0.22285,0.13844,-0.50485,-0.75624,-0.7226,0.53362,-0.56863,0.045819,-0.31413,-0.85475,0.39458,-0.55032,0.44999,0.5515,-0.27454,-0.10111,-1.7954,-0.31882,-0.65724,-0.37196,0.21198,2.2446,-0.48073,-0.11985,-0.051589,-0.016815,-0.069,0.20535,-0.30414,-0.50542,0.33134,0.18647,0.26498,0.062521,0.088022,0.254,-0.61473,-1.4538,0.20077,-0.031791,-0.9674
heavy,-0.10338,-0.46242,0.19695,-0.32096,-0.96777,0.093447,0.31747,0.59026,-0.020371,-0.15691,0.018346,-0.49632,0.17841,-0.1718,-0.55629,-0.12826,-0.11482,0.41995,-1.0997,-1.2921,0.36797,-0.25081,0.16933,-0.95802,-0.40706,-1.1558,-0.55634,0.7256,1.3522,0.77601,3.5984,0.068468,0.63273,0.39554,0.12556,0.72624,-0.098045,-0.43297,-0.14837,0.16954,-0.09219,0.45344,0.39436,-0.68246,0.96844,-0.28436,-0.3374,-0.077905,-0.26795,-0.32666
noted,-0.063037,0.41304,-0.46257,-0.029624,0.26619,0.070925,-0.70723,-0.4375,-0.11598,-0.25045,0.11961,0.38336,-0.029906,-0.27472,0.46418,-0.09505,0.10482,-0.42909,0.099888,-0.34708,0.14475,0.15355,0.23232,-0.52854,0.60773,-1.3507,-0.57859,-0.1175,-1.0173,0.69299,2.6702,-0.78983,0.51237,-0.92753,-0.23293,-0.67233,-0.025515,0.25908,-0.12441,0.43278,-0.22392,0.66921,0.0011803,-0.43937,0.45749,-0.29372,-0.6951,0.72019,-0.069574,0.74407
related,0.87054,0.26877,-0.24812,0.77733,-0.10663,0.98854,0.21523,-0.9465,0.45147,0.076455,-0.089917,0.34068,-0.021292,-0.4038,0.85165,-0.22601,-0.69113,-0.051165,0.18378,-0.15451,0.54206,-0.44464,0.44811,-0.26601,-0.38775,-1.1067,-0.43698,-0.68586,0.14373,0.24357,3.3432,-0.42392,0.42776,-1.0883,0.19154,0.20925,-0.2615,-0.43105,-0.036849,0.66139,-0.73273,-0.13605,0.88171,0.84206,0.67846,-0.010663,-0.1246,0.94782,0.086436,0.0039502
offered,0.66292,0.85427,0.057809,-0.17591,0.34043,0.11889,-0.97766,-0.090247,-0.41958,0.32051,-0.44901,0.25626,0.45011,-0.55267,0.33366,0.007,-0.41202,0.028535,0.26963,-0.69667,0.61497,0.51702,-0.18442,-0.4499,-0.26029,-1.1843,0.15492,-0.23104,-0.41654,-0.087132,2.8575,0.44175,-0.58492,0.081696,0.77519,-0.14075,0.047402,0.25958,-0.38696,-0.52593,0.57771,0.33231,-0.092007,0.15966,-0.036843,-0.24865,-0.41922,1.0344,-0.3138,0.316
whole,0.4355,-0.18377,-0.70186,-0.19652,1.1405,0.14106,0.017098,-0.28141,0.087262,-0.24277,-0.1732,-0.13183,-0.12334,-0.020219,0.56732,0.26423,0.47284,0.44945,0.061126,-0.11634,0.06643,-0.14104,0.35194,0.28434,0.56102,-1.1184,-0.87646,0.69527,0.9702,-0.31136,3.5657,0.067108,-0.12209,0.025108,-0.76243,0.096014,-0.37534,0.31891,0.26134,-0.36013,-0.37617,-0.58115,-0.17819,-0.14994,-0.39608,0.87657,0.085615,0.024979,-0.0030427,0.11946
authority,0.14941,-0.0498,-0.14486,-0.1144,0.1751,-0.44126,0.3142,-0.033349,0.71159,-0.54446,0.17786,0.77709,-0.292,-0.20979,-0.52457,0.95666,0.50773,-0.23648,0.57628,0.26128,0.6122,-0.00056847,-0.66488,-0.44646,-0.76751,-2.085,0.10771,-0.25436,-0.21538,0.48074,2.8148,0.12736,-0.70624,-1.0007,-0.21978,0.0039275,0.58806,-0.81102,-0.11732,0.66186,-0.34537,0.25061,0.014543,0.64163,-1.5588,-0.021905,-1.2448,0.55571,0.29179,-0.21411
usually,0.47939,0.30759,-0.31313,-0.47078,0.38959,0.41524,0.077847,-0.060201,-0.23406,-0.068036,0.22872,0.075107,0.91104,0.30106,0.35516,0.32206,-0.16271,0.043584,-0.27411,-1.1848,-0.095556,-0.54718,0.84406,0.71009,0.033511,-0.99343,-0.30962,0.39515,0.43081,-0.032132,3.666,0.054535,0.24327,-0.40758,0.3785,0.39631,0.30609,0.34743,-0.47051,-0.15875,-0.056496,0.20278,-0.12964,0.92894,0.31264,-0.31815,0.22013,-0.37241,-0.12417,0.13525
hour,0.49603,0.5787,0.16638,-0.13394,0.094386,-0.32301,-0.10589,0.51931,0.11409,0.1008,-1.1256,-1.1297,-0.10757,0.57863,0.85962,-0.62181,-0.70217,0.2144,-1.3319,-0.54315,0.94991,1.0213,0.50037,0.26539,0.53437,-0.68183,0.79417,0.45981,0.58345,0.27078,3.3528,0.56603,-0.42534,0.71726,0.17917,-0.15475,0.66508,0.11239,0.17412,0.28794,-0.042736,0.63744,-0.28524,-0.072494,-0.58378,0.029726,0.71582,-0.36279,-0.41792,0.71348
thomas,-0.10002,0.58581,-0.18892,-0.78133,0.56788,0.77982,-1.2221,0.29163,-0.34162,-1.2892,-0.44901,1.1249,-1.2433,-0.99447,0.28163,-0.27078,0.23618,-1.1491,-0.82672,-0.4048,-0.098151,-0.067551,-0.32379,0.20813,-0.048732,-1.6105,0.084971,-0.83351,-0.98128,0.096412,1.2549,-0.90291,0.42223,-0.44529,0.24018,-0.6333,0.26302,0.49929,0.7031,0.11011,0.94033,0.82832,-0.15095,-0.11306,0.099107,0.90746,-0.13653,-0.89517,-0.72975,0.86626
professional,-1.5058,0.59432,-0.94774,0.25047,-0.35738,-0.01501,-1.0501,0.5317,-0.36641,0.13518,1.1652,0.33063,-0.353,0.65077,0.39183,-1.0234,0.23005,1.2031,-0.62526,-0.46444,-0.069124,0.66144,-0.26636,0.86185,-0.61669,-1.1649,-0.3904,-1.3234,-0.5373,0.30509,2.901,0.44642,-0.17958,-0.98022,0.44397,0.79638,-0.1815,0.57759,0.045171,-0.91778,0.17393,-0.63065,0.24852,0.71628,-0.13022,-0.60415,-0.2412,0.40821,-0.11908,0.36694
credit,-0.14507,0.18523,0.87624,-0.40109,-0.54593,0.27876,-0.53844,-0.073749,0.033542,0.29605,-0.015165,0.97952,-0.39951,-0.22479,0.39135,0.18065,-0.099005,-0.56547,0.81349,-0.29484,1.1046,-0.53413,-0.60684,-0.14538,-0.60555,-1.3484,-0.17349,-0.22012,-0.10161,0.059905,3.1936,0.71105,1.2331,0.041516,-0.049376,-0.075647,-0.66999,-0.63843,0.92575,-1.3003,-0.1455,-0.017748,0.67626,0.21389,-0.53501,-0.91446,0.099732,1.0489,0.73924,0.3247
launched,0.86323,-0.52353,0.47888,0.27485,-0.90868,-0.057893,-0.98245,-0.52866,0.40757,-0.11603,-0.0054625,-0.45446,-0.6924,0.21731,-0.3949,-0.37388,-0.43241,0.40875,-1.1106,0.68638,1.1636,0.23334,-0.066356,-0.52115,-0.5974,-1.4775,0.15025,-0.60076,-0.28785,0.42175,2.6606,-0.22647,-1.2753,-0.010387,-0.38173,0.12942,-0.021133,-0.30895,-1.0894,-0.29914,0.24226,-0.36745,-0.40773,-1.1576,0.41318,-0.19798,-0.2546,0.10077,-0.17346,-0.17254
everything,0.11207,-0.22921,-0.00036378,-0.2424,0.5936,-0.19078,-0.41388,-0.17628,-0.043583,0.40402,-0.1837,0.55425,-0.72711,0.045503,1.0036,0.57577,0.30914,0.18026,0.61226,-0.96671,0.12878,0.60311,0.25658,-0.02559,0.85986,-1.5616,-1.0016,0.52673,1.4417,-1.0787,2.9459,0.51601,-0.50351,-0.18082,-0.45869,0.38486,-0.062819,0.49224,0.23312,-0.07337,-0.087553,0.049002,0.22472,0.36751,0.026409,0.52038,-0.033511,-0.16314,-0.015554,0.27371
eventually,0.45884,-0.52607,0.40765,-0.54166,-0.018114,0.46336,-0.80958,0.68447,-0.29841,-0.066209,0.58954,0.5361,-0.60618,-0.33766,0.43601,0.41102,-0.045967,-0.14411,-0.44534,-0.064876,0.41888,-0.11733,0.32641,-0.10112,0.22617,-1.6344,0.1819,-0.5375,0.41208,-0.24523,2.8581,-0.14317,-0.22826,-0.58026,-0.011533,-0.00091238,-0.088539,0.2628,0.104,-0.57979,-0.31438,-0.48374,-0.15636,-0.17076,-0.46584,-0.11466,-0.11369,-1.1199,-0.60504,-0.39564
richard,0.099154,0.32037,-0.38847,-0.28594,-0.045048,0.49237,-0.63172,0.21286,-0.53624,-0.78242,-0.87129,0.9794,-1.3704,-0.32966,0.34688,-0.35752,0.79475,-0.40199,-0.66923,-0.62291,0.44448,0.13689,-0.083004,-0.10957,-0.066617,-1.5857,-0.11533,-0.95595,-0.55111,0.54566,1.3322,-1.3256,-0.033464,-0.39861,0.62134,-0.6973,0.060874,0.56463,0.32872,0.029382,0.20836,1.3694,0.069765,-0.83558,0.67983,0.42048,-0.25864,-0.80684,-0.76432,1.5883
ready,0.36825,-0.20512,0.36656,-0.23705,0.6209,-0.95098,-0.40279,0.57984,-0.24161,-0.25024,0.19341,0.19736,-0.30341,0.29501,0.5696,1.0287,0.48469,0.14218,0.079147,-0.73628,0.14101,0.24264,0.28433,-0.097509,0.22019,-1.5071,0.23023,0.11303,0.71564,-0.50817,3.0144,0.8897,-1.4947,0.37695,-0.083879,0.10678,0.39346,0.32929,-0.2896,-0.83484,0.014825,-0.26343,0.02237,-0.5636,0.58192,0.4164,-0.021004,0.40331,-0.47358,0.54165
brother,0.38241,0.56538,0.17174,-0.32832,1.1811,0.64141,-0.75489,0.76061,-0.84549,0.067996,0.40488,1.3168,-1.039,-0.36122,0.74153,-0.20821,-0.46036,0.030236,-0.2302,0.59638,-0.48645,0.69894,0.16648,0.21533,0.2518,-2.0648,-0.20365,-1.1691,-0.1263,0.1645,1.5242,-0.32779,-0.42933,-0.11819,0.77706,0.26428,-0.0004162,0.41256,0.34926,0.24193,-0.09411,1.1235,-0.8575,-0.47789,0.45681,-0.23303,-0.93793,-1.7232,0.091327,0.19521
bomb,1.4957,-0.67816,1.3532,-0.1335,0.99695,0.10635,-0.10827,-0.017678,0.61165,-0.16913,-0.31652,-1.4458,-0.76267,0.88573,0.040918,0.13876,-0.28902,0.87932,-1.4788,0.38589,0.81966,0.49494,-0.097005,0.39161,-0.27758,-2.1246,-0.34541,0.673,1.1177,-0.34464,1.9558,-0.69335,-0.84311,-0.65663,0.84423,1.0876,0.88087,-0.41233,-0.11125,0.99047,0.0064734,0.19885,0.25912,-0.90303,1.5624,0.7171,-0.1602,0.63187,0.97729,-0.86762
